type,x_0,x_1,x_2,x_3,x_4,x_5,x_6,x_7,x_8,x_9,x_10,x_11,x_12,x_13,x_14,x_15,x_16,x_17,x_18,x_19,x_20,x_21,x_22,x_23,x_24,x_25,x_26,x_27,x_28,x_29,x_30,x_31,x_32,x_33,x_34,x_35,x_36,x_37,x_38,x_39,x_40,x_41,x_42,x_43,x_44,x_45,x_46,x_47,x_48,x_49,x_50,x_51,x_52,x_53,x_54,x_55,x_56,x_57,x_58,x_59,x_60,x_61,x_62,x_63,x_64,x_65,x_66,x_67,x_68,x_69,x_70,x_71,x_72,x_73,x_74,x_75,x_76,x_77,x_78,x_79,x_80,x_81,x_82,x_83,x_84,x_85,x_86,x_87,x_88,x_89,x_90,x_91,x_92,x_93,x_94,x_95,x_96,x_97,x_98,x_99,x_100,x_101,x_102,x_103,x_104,x_105,x_106,x_107,x_108,x_109,x_110,x_111,x_112,x_113,x_114,x_115,x_116,x_117,x_118,x_119,x_120,x_121,x_122,x_123,x_124,x_125,x_126,x_127
003f3e6fc1634f4fc95c9a2e80bcf1fa,0.01094321,0.08713214,0.024683006,-0.026162636,0.105232075,0.17262878,-0.10804526,0.036444303,0.05387278,-0.09889928,0.07080122,0.06290687,0.035543866,-0.10750812,-0.0018027322,-0.056100253,-0.0035569996,0.023485733,-0.006990502,0.057133403,-0.12944919,-0.013282475,-0.043581758,-0.078127995,-0.076673925,-0.05732378,-0.095833465,0.00067707594,0.026919888,-0.052536268,-0.048687804,-0.02589104,0.00988664,-0.0037266847,-0.111001454,-0.04526925,-0.049930297,-0.07046955,0.007372516,-0.015033587,-0.00925715,-0.047468174,0.12772499,-0.03430194,-0.03856567,0.045496184,0.0459909,0.01726219,0.030999871,-0.10347964,0.028823528,0.034717534,0.038031798,-0.014819186,-0.0025386163,0.08371688,0.024992455,0.08705875,-0.029559756,0.17268935,0.13342853,0.05448201,-0.0370082,-0.08408907,-0.05961815,0.017103123,0.07517112,0.0879856,-0.054620788,0.023705928,-0.0538964,-0.026508579,-0.06322647,-0.055668563,-0.0079203835,-0.026984198,-0.0037078531,-0.08126077,0.019654533,-0.097116195,0.017577996,0.006829614,-0.004709767,-0.03494612,-0.030722205,0.09692667,-0.1414963,-0.0274874,0.040981196,0.07556596,0.00414259,-0.019277295,0.008295173,0.05369171,-0.056972343,0.048029087,-0.007367585,-0.024625678,0.13632527,-0.05277711,-0.11959095,-0.0019693624,0.05401846,0.030226849,-0.0070177955,0.06671064,-0.031635378,0.0538143,0.11538819,-0.01077685,-0.052156568,-0.07465138,-0.049871743,-0.010631863,-0.010406538,-0.10721734,-0.14974208,-0.046971627,0.12085001,-0.09509217,0.0036650323,0.023553248,-0.016235566,0.09833171,-0.15255192,-0.058026183,-0.041695785,-0.07134232
003f7e2a32d6132d74bd1eafc793b6c1,-0.21146315,-0.094498806,-0.11986431,0.13130724,0.047971174,0.016286686,-0.19270748,-0.08771288,-0.2322187,0.08161165,0.10197229,0.034095217,0.1790212,-0.044160992,0.0046022157,-0.19533338,0.1363807,0.3149167,-0.34207502,0.010866319,0.21554697,-0.08962362,0.029006142,-0.23371007,0.19371401,0.046314146,-0.16352712,-0.29621208,-0.07166962,-0.07453324,0.3511527,0.19022222,-0.11777759,0.110318944,0.028391944,-0.08580635,-0.05279169,-0.049328722,-0.14145194,0.26060522,0.003652126,-0.22017807,-0.07434711,-0.4367264,-0.030092398,-0.003189928,-0.066687,0.06587076,0.04538871,0.0648549,-0.209779,0.20290445,0.1801886,-0.41544527,-0.14070676,0.029342894,-0.1215021,0.2854205,-0.13731812,0.050799724,0.10562588,0.08157765,-0.016227478,0.114064366,-0.12915596,-0.1752552,0.1670609,0.22780542,0.13286714,-0.24352905,0.056981165,-0.15061875,-0.10150061,-0.37643793,-0.18320616,0.04593702,-0.04975055,0.10707067,-0.1374201,0.124725066,-0.11091447,-0.27456248,-0.27290085,-0.08548704,-0.03001926,-0.037502605,-0.02590016,0.11010606,0.10339393,-0.21369636,-0.16309905,0.22667891,-0.17727226,0.24625155,-0.19614995,0.18052635,0.22132993,0.12277019,0.12905286,0.26188946,-0.043749046,-0.19427694,-0.41409007,0.10489014,-0.2507996,-0.05971998,-0.079243354,0.1297846,0.02181126,0.20614502,0.0011395242,-0.030163527,-0.15207079,-0.21786,0.069649614,-0.32639843,-0.38920176,0.3900189,0.17561917,0.48979676,0.32727563,0.28261122,-0.36427093,0.31023714,0.0015861684,0.0054562264,0.037802745,0.1500954
004b3dc6622a2a9374f6c289faf52d92c014452076d83648adf8e09d9ac82512,-0.00552495,0.009694247,-0.024764976,0.025092548,0.07041587,0.03839894,-0.035117883,-0.02361141,-0.023446037,0.050278965,0.048865642,0.12278979,0.034642305,-0.08281124,-0.063311376,0.023575436,-0.010797213,0.050163854,-0.036211632,-0.01900877,-0.0062269866,0.02498315,-0.030603236,-0.105123624,-0.048420895,-0.04068128,-0.0122133875,-0.078426935,-0.031202972,0.04378972,0.023595203,0.011468115,-0.05504246,-0.014632433,-0.036256608,-0.10639332,-0.058358636,-0.015173461,0.029626848,0.09237197,0.012191306,-0.058169212,0.091445155,-0.07922884,-0.0467832,0.016543444,-0.043082245,0.050404605,0.0063641006,-0.037433084,-0.03652624,0.03445954,-0.031206377,-0.07388535,-0.016832799,-0.013664276,0.05504638,0.1268001,0.033687774,0.0071551893,0.054982178,0.042178176,0.009595165,0.068014465,-0.030928357,0.01381388,0.032479126,0.11509043,-0.0034212824,-0.032381367,0.0086319605,-0.010051378,-0.047999706,-0.14112955,-0.05183818,-0.009839316,-0.01941849,0.03260135,0.03944195,-0.019026183,0.004028103,-0.06001992,-0.09522827,-0.0847628,-0.025893614,0.06112161,-0.057836715,0.054338254,-0.0056807534,-0.037453715,-0.071528934,0.07836414,-0.03779258,0.06439953,-0.11805191,0.11470606,-0.00074773526,0.01857283,0.016513733,0.0008403089,-0.107349664,-0.016839115,-0.09119278,0.045597855,0.019629743,0.0774429,-0.0069349012,0.09688436,0.0041561113,0.03618259,-0.0136852255,-0.090514734,-0.07146567,-0.0035799355,-0.0001066766,-0.110521466,-0.09924252,0.037888788,0.14095066,0.043116108,0.06309762,0.051138386,-0.033406194,0.16009472,-0.056445822,0.0024007985,-0.03688031,-0.033634223
0064bd63e7337da6616b0d6adb03ca99,-0.09988916,0.058215067,0.055539798,0.03936859,0.11821604,-0.020715188,-0.09874726,-0.030857883,0.1295789,0.016129475,0.0055442834,0.049799606,-0.020896595,-0.09574826,-0.02181865,-0.13798025,-0.034122795,0.012534833,-0.0072028097,0.011982112,-0.08924503,0.10299876,-0.021504002,0.06482314,-0.1982604,-0.19046387,-0.16918589,0.15439239,0.10762087,-0.13863757,-0.10310638,-0.02136744,0.13258922,-0.007264506,-0.024391703,-0.19466019,0.09656484,-0.036943752,-0.07392466,0.033809513,0.13411877,-0.08352989,0.26425648,-0.0033323606,-0.050853774,-0.013805894,-0.068123505,0.037375126,-0.054309975,-0.035023216,0.022514394,-0.045861192,-0.016394243,-0.00065354066,0.020963471,0.21979554,-0.025705978,0.13438748,-0.04309659,0.07903186,0.08814133,0.06276426,-0.04888917,0.00021700002,-0.057264924,-0.05302357,-0.012298037,0.114731826,-0.059243817,-0.08560241,-0.13767408,0.13217887,-0.12055102,-0.040337462,0.021738864,-0.20079246,0.06692956,-0.0012003089,0.05192291,-0.07376419,0.04953978,-0.068026625,-0.018386878,-0.11942298,0.038779076,0.003971526,-0.06352579,0.019062968,0.1844996,0.18365394,-0.076856844,-0.007309093,0.02961273,0.13647807,-0.10666774,0.0066477815,-0.036070276,-0.02469761,0.12407894,0.022184754,-0.023949042,-0.05396678,-0.07294998,0.11898472,-0.03563435,0.079874374,0.0060941367,0.0966554,0.014724746,-0.023571316,-0.09472014,-0.09738291,-0.052936964,0.0402278,0.066366024,-0.07083026,-0.13509738,-0.062133294,0.050262887,-0.028922034,-0.09517768,0.13031255,-0.06153703,0.1511465,-0.05696335,-0.11308941,0.05913167,-0.19759715
009ed622bf936a036828fab19ceb69d78264ab51507396a3809bbe947ddd9ddf,0.018332632,0.019894887,-0.018079378,-0.002108864,0.056631543,0.048716504,-0.03784203,-0.022558862,-0.0010409065,0.040113904,0.06505535,0.103896335,0.040050756,-0.08108792,-0.0456179,0.057482667,-0.010651686,0.03275898,-0.030064601,-0.029873332,-0.024786254,0.038706724,-0.044077527,-0.120832026,-0.04759799,-0.043948535,-0.008927671,-0.07567232,-0.0390699,0.058000423,-0.010345212,0.0012924448,-0.04144252,-0.033302624,-0.036852732,-0.10773013,-0.05602568,-0.018584067,0.02577238,0.08329622,0.017920086,-0.06238683,0.09237832,-0.051241864,-0.057218935,0.019150835,-0.029848034,0.046744052,0.010436277,-0.023857895,-0.021205753,0.05153807,-0.032600187,-0.05549141,0.0009872107,-0.01632341,0.063474216,0.11351385,0.043639578,0.019261843,0.053116802,0.023331914,0.013037217,0.06004749,-0.034719925,0.0025754573,0.01994932,0.070793666,-0.01288058,-0.032500915,0.027560249,0.0022145044,-0.029327162,-0.12988858,-0.013201882,-0.0008874159,-0.01254199,0.024499252,0.038588405,-0.035935815,0.008538017,-0.055322073,-0.0736429,-0.076728225,-0.03149732,0.08090011,-0.06207434,0.043731168,-0.021676783,-0.008615067,-0.052082084,0.069954075,-0.029085185,0.07276656,-0.08892315,0.09530873,-0.025423113,0.016630536,0.01444277,0.0023491024,-0.11385055,-0.014699188,-0.06432398,0.038700096,0.029057642,0.069830425,0.013810897,0.111113645,0.009907079,0.02980296,-0.012725094,-0.095089905,-0.0638192,0.00932877,0.0019987857,-0.11015276,-0.09097392,0.010056239,0.14295065,0.009293055,0.043880492,0.047967486,-0.01631355,0.15890642,-0.06254133,-0.009880007,-0.050045628,-0.059668075
00bc7defa16eb3171966a8fb0e740750,0.012681688,0.0498304,-0.0024689115,0.005405459,0.08933581,0.12575656,-0.09095734,-0.00374171,0.019018114,-0.06111329,0.0825105,0.06599099,0.032015584,-0.08783443,-0.009273871,-0.04696941,0.0024272616,0.06014381,-0.03861918,0.025788717,-0.091741085,-0.006275727,-0.05189718,-0.087491676,-0.032045744,-0.052035026,-0.085394524,-0.047883205,0.007833534,-0.017432064,-0.015853785,-0.011093147,-0.028071837,-0.019409942,-0.08279619,-0.034858,-0.048811175,-0.07083753,0.011816412,0.01781409,-0.007938455,-0.055519767,0.110152565,-0.05120877,-0.030687366,0.025146605,0.023638342,0.009483415,0.040220287,-0.098302074,0.005875274,0.040019117,0.008460197,-0.054808985,-0.004699567,0.055616036,0.023150904,0.08373347,-0.018408975,0.1342691,0.11548459,0.06780486,-0.0063252584,-0.0508608,-0.046780996,-0.010739727,0.07493744,0.06007745,-0.04882817,-0.00354179,-0.044150103,-0.021043671,-0.047614813,-0.07930448,-0.024650477,-0.008620799,-0.02595668,-0.04422754,0.0023057947,-0.059877224,0.014522002,-0.0040595867,-0.030617053,-0.046399496,-0.008762354,0.097054794,-0.099255644,-0.029527348,0.028911756,0.04236146,-0.027472707,0.033489235,-0.02640907,0.060429685,-0.0589211,0.07160664,-0.0018947514,-0.009590961,0.117146194,-0.01949577,-0.113790415,-0.016646788,-0.003914024,0.026025238,-0.021728031,0.04883243,-0.01724259,0.06629556,0.0922988,0.017895393,-0.050076965,-0.06401934,-0.035793204,-0.0154017415,0.027871797,-0.115181744,-0.15035604,-0.024894819,0.09793795,-0.047990408,0.033826184,0.049560018,-0.033199273,0.12231825,-0.12428161,-0.037128497,-0.052547872,-0.051575225
00c7fd6908fc5a04ab47adc5c7829ca7,0.0793414,0.10874248,0.0066172546,-0.045902308,0.09176879,0.14969265,-0.1279238,-0.010682379,0.08641212,-0.10133525,0.073620744,0.04165742,0.0046957773,-0.1192267,0.027728016,0.004441736,-0.04059571,0.022924514,-0.009178808,0.013705318,-0.14625065,0.03749168,-0.0936965,-0.092139974,-0.058733456,-0.07905948,-0.11056786,-0.04701956,-0.033390243,0.015402612,-0.08903984,-0.04220618,-0.04882791,-0.040990412,-0.11542609,-0.017992722,-0.06417485,-0.10524765,0.02230978,0.008424955,-0.026204342,-0.04567066,0.125641,-0.0045807064,-0.041576955,0.023992686,0.058668975,-0.0019558943,0.028273009,-0.12397685,0.010751457,0.05227629,-0.008606967,-0.013804777,0.0310858,0.0762913,0.055914473,0.05525321,-0.0014688531,0.18495505,0.108411565,0.05207959,0.03499059,-0.08769755,-0.038234938,-0.018675765,0.047149114,-0.011177324,-0.100498304,0.020737415,-0.039254032,0.006773576,-0.051824357,-0.056690287,-0.013407427,0.021860864,-0.034657363,-0.09644199,0.026598377,-0.09166371,0.069323555,0.03885598,0.019666914,-0.056204543,0.0057358546,0.15680282,-0.1299437,-0.057531293,0.007522731,0.10197834,-0.018856477,0.059539918,-0.0067949975,0.020295747,-0.0493079,0.07337882,-0.017874928,-0.031193046,0.13250351,-0.046092506,-0.17137483,-0.026052454,0.05951512,0.015560885,0.015235216,0.042530447,0.028512452,0.0783354,0.12753029,-0.013111469,-0.041681103,-0.09255605,-0.04705104,-0.010461346,0.042409383,-0.09941825,-0.16736397,-0.11089173,0.1176181,-0.11232005,-0.0073079364,0.03940253,0.054517187,0.14228807,-0.15740569,-0.021893784,-0.10160697,-0.1126081
00d50962dce0b43d78a3a5e830255150,0.03322948,0.041591972,-0.006530419,-0.0040777656,0.09339038,0.10139252,-0.0893219,-0.028033799,0.018561682,-0.014341792,0.09688346,0.075709015,0.048732247,-0.11363709,-0.029546924,0.004912444,-0.01386556,0.058744393,-0.04934426,-0.017739067,-0.078675926,0.013749121,-0.06351851,-0.11447978,-0.04499304,-0.06432901,-0.08626304,-0.07295668,-0.011687053,0.030137682,-0.024558946,-0.009154905,-0.044488177,-0.041749053,-0.066386335,-0.07587057,-0.05481813,-0.0637837,0.010544702,0.055384398,0.0067327507,-0.07895968,0.115733646,-0.058407698,-0.044020355,0.034517724,0.020530205,0.0301702,0.04651589,-0.078098945,-0.0034007276,0.057836264,-0.006004549,-0.06076778,0.00033151824,0.038206324,0.055658653,0.110985644,0.0033517801,0.1088578,0.09668766,0.049367186,0.030755196,-0.010325565,-0.04741915,-0.022419881,0.04413503,0.05863166,-0.0577905,-0.03183403,-0.008854471,0.0028703767,-0.051080402,-0.14622207,-0.018517692,-0.015414462,-0.017908327,-0.01947556,0.013260761,-0.063775435,0.031661097,-0.032905933,-0.035807118,-0.07051659,-0.010675884,0.12733681,-0.110259935,-0.006848835,-0.0010432618,0.034343023,-0.049171247,0.063585505,-0.041333936,0.07712871,-0.07972645,0.0906881,-0.0074529313,-0.006259264,0.097574614,-0.0027552878,-0.14101449,-0.029032372,-0.049703144,0.037750226,0.0004926969,0.057655588,0.0031938641,0.12237947,0.07287582,0.022364391,-0.04278709,-0.10057728,-0.05688212,-0.011947892,0.031555004,-0.14598095,-0.18058522,-0.019579869,0.14841741,-0.03211801,0.044388533,0.062807195,-0.027668945,0.18954384,-0.11900577,-0.029668186,-0.06455521,-0.0636916
00f83a459e206283925ff0c2ac976d23,0.012014218,0.03616722,0.01014203,-0.011011994,0.081754714,0.06620977,-0.061037987,0.0016630042,0.035702877,-0.02415472,0.052764516,0.065833844,0.033251565,-0.08964778,-0.014564949,-0.011476511,-0.014984896,0.016024997,-0.032110218,0.0045219096,-0.052206315,0.017206265,-0.021531837,-0.06600651,-0.069111995,-0.05317734,-0.050709177,-0.015201106,0.010948003,0.0018943612,-0.030028312,-0.018163124,0.00039047073,-0.016207192,-0.055047233,-0.07735178,-0.030421272,-0.022767294,-0.015710356,0.024825053,0.013423799,-0.05004748,0.09210208,-0.032574568,-0.041260097,0.038199518,-0.00083847815,0.030076995,0.009209279,-0.04065085,0.0014676058,0.016449213,0.01373491,-0.010763102,-0.020606458,0.04439979,0.030238748,0.09151867,-0.0076966393,0.05606438,0.0656241,0.030070396,-0.009165449,-0.0015457588,-0.029951971,0.0060896827,0.027986512,0.06612892,-0.01701063,-0.025321342,-0.01281603,0.012484555,-0.04747271,-0.08643083,-0.0024623086,-0.022783577,0.015081601,-0.024242045,0.016583888,-0.0535798,0.022301737,-0.029752558,-0.03627464,-0.05102589,-0.026667431,0.058996797,-0.08785372,0.015856791,0.014033054,0.02880679,-0.029893702,0.007307724,-0.003968318,0.059208136,-0.07155185,0.047627762,-0.014815191,-0.0065810797,0.05364384,-0.014949809,-0.08642756,-0.026942408,-0.026284615,0.036001585,0.0024303463,0.051148172,-0.008292823,0.07811778,0.030088654,-0.0055432,-0.027308598,-0.090251885,-0.047430445,0.0017098841,-0.0035645305,-0.08238701,-0.10239465,-0.011704486,0.107233904,-0.021572543,0.0059567816,0.049361356,-0.034041204,0.116794646,-0.073247164,-0.04298731,-0.007672405,-0.04464469
014cd58f9fe4febcfc159ca9b2253c65,0.0058539663,0.020408642,-0.016407141,0.026445616,0.09095072,0.07965178,-0.09123508,-0.017766146,-0.008968799,0.007062489,0.067163266,0.102374084,0.044858918,-0.10470596,-0.049646545,-0.021862078,-0.014331116,0.05281645,-0.052382354,-0.011979852,-0.04582348,0.017788526,-0.05228921,-0.09993411,-0.052391082,-0.062429037,-0.06961329,-0.062682405,0.001385506,-0.0031149872,0.0016280327,0.012748596,-0.024917481,-0.01874366,-0.058299955,-0.09699488,-0.052327007,-0.054051742,-0.0065493346,0.06370892,0.007391447,-0.0932037,0.12943211,-0.07563631,-0.046984483,0.025457371,-0.010026311,0.048832655,0.033740744,-0.05861797,-0.0051607834,0.042713914,-0.010066436,-0.075755104,-0.020639382,0.041440636,0.02560773,0.13770716,-0.006039741,0.07841917,0.08081718,0.057629734,0.003946873,0.007196536,-0.04273341,0.0025448652,0.042737044,0.10441872,-0.02623392,-0.045956973,-0.02882596,0.0018417067,-0.07171345,-0.14238586,-0.02820909,-0.020647133,0.0015025861,-0.01152463,0.02636984,-0.05559132,0.034755047,-0.03949251,-0.06914345,-0.06455341,-0.010755659,0.087527364,-0.079977185,0.015491056,0.019934047,0.010702588,-0.0628771,0.05402981,-0.040048815,0.057109408,-0.108884886,0.099154174,-0.012492704,-0.001590087,0.07947733,-0.00315931,-0.115471326,-0.027190719,-0.075513616,0.04883072,-0.013518754,0.07342058,-0.019180913,0.10707051,0.04299733,0.023211852,-0.033035167,-0.10520408,-0.07424514,-0.00028193576,0.021509476,-0.1244935,-0.15856405,0.0046766032,0.15375444,0.013023644,0.049499955,0.075850524,-0.05823282,0.17850873,-0.10297804,-0.038147483,-0.027779803,-0.05141429
017662f941ebe50c7e0d3fd9a826144a,0.027858607,0.083931506,0.022545557,-0.042529766,0.08431357,0.16596766,-0.08518552,0.030316776,0.055687457,-0.09630965,0.07094885,0.05242007,0.023673333,-0.101065435,-0.001528582,-0.016237842,-0.00041407254,0.020645224,0.006831388,0.055885307,-0.10334066,-0.023687733,-0.048246756,-0.10028156,-0.061747044,-0.0361633,-0.06606217,-0.022531908,-0.006581232,-0.0012489827,-0.053282518,-0.042639937,-0.010972775,-0.008029115,-0.10320356,-0.030303404,-0.06659266,-0.05145633,0.029889766,0.004906023,-0.014586306,-0.021940013,0.09714489,-0.020984778,-0.038647782,0.03177265,0.0356247,0.0026164146,0.031750508,-0.09888575,0.020286307,0.047251552,0.029384289,-0.02321752,-0.004873995,0.051136542,0.045425244,0.060955957,0.002008348,0.14349219,0.11215651,0.03661585,-0.020707572,-0.06788861,-0.06309071,0.012020427,0.06252306,0.05835728,-0.04756305,0.042525884,-0.04031329,-0.03151693,-0.030429645,-0.027249282,-0.023462782,-0.005046489,-0.020017643,-0.07042097,0.024322513,-0.0818924,0.0003262,0.00086030073,-0.004648898,-0.042787597,-0.03413321,0.10070983,-0.13364379,-0.024549231,0.006347285,0.0632301,-0.0017501316,-0.001912354,0.007491623,0.04860538,-0.045128357,0.06250987,-0.008651628,-0.017496696,0.10724845,-0.049607202,-0.11953496,0.0005128399,0.053087156,0.027673408,0.0059910766,0.06573497,-0.013488275,0.044516377,0.10545978,-0.014294768,-0.04921701,-0.05593658,-0.033467244,-0.01582601,-0.01974087,-0.095664226,-0.11373623,-0.043552224,0.09646058,-0.09960338,0.011001401,0.012120668,0.017582238,0.09782513,-0.1319625,-0.04056529,-0.05875792,-0.053778484
018b04599563dbb78f5dec1ae033b293,0.09886507,0.086659364,0.025607824,-0.07946927,0.069138914,0.0491826,-0.09483785,-0.0024280106,0.12339821,-0.05031198,0.04568348,0.0007724526,0.026570346,-0.13170111,0.062211357,0.048833556,-0.05525049,-0.013626977,-0.035272676,0.001332126,-0.053248797,0.06271512,-0.053019647,-0.08506025,-0.06922339,-0.069963634,-0.070810616,-0.01861472,-0.02359501,0.053529087,-0.07793016,-0.048867617,0.006079291,-0.041937523,-0.044497535,-0.048268367,-0.028519403,-0.06788955,-0.045475554,0.008776266,0.00062878546,-0.033867665,0.083164155,0.024535397,-0.043828834,0.04838061,0.05156986,0.025594361,0.019154953,-0.050397817,0.01755071,0.04537921,0.01820268,0.031512607,0.009558667,0.06368151,0.040761042,0.059346724,0.015390016,0.083251536,0.04384841,-0.023961509,0.035575457,-0.029959487,-0.023390085,-0.00052171363,-0.0027899123,-0.05761896,-0.08370924,-0.021378303,0.04875911,0.054216728,-0.038607907,-0.07251324,0.055661764,0.0023867225,0.022293847,-0.038666155,0.017235087,-0.09180136,0.07356202,0.0038755708,0.04770174,-0.06506854,-0.017876346,0.12796369,-0.092123285,-0.013508223,-0.029559428,0.08154469,0.008909779,0.020119129,-0.0059058806,0.032756247,-0.014907352,0.016318902,-0.03731779,-0.023636295,0.07155267,-0.02155679,-0.1288396,-0.045012657,0.032855842,0.011082615,0.03320689,0.008541578,0.05226904,0.09659261,0.04224947,-0.031847153,0.0021767882,-0.10802854,-0.04824989,0.017205134,0.027244397,-0.069613606,-0.13504177,-0.09073877,0.1210222,-0.07130145,-0.07235275,0.053142622,0.015181422,0.13911788,-0.07842776,-0.027894218,-0.029599296,-0.10490048
018f728ff1ade3660da7de6802c5fdbc,0.0352476,0.04499745,-0.01789831,-0.007913745,0.07512278,0.09384121,-0.08866078,-0.007098419,0.016535014,-0.037523158,0.05983415,0.07271239,0.0094488,-0.09571421,0.0007666756,-0.010242025,-0.016377613,0.035611372,-0.029329306,0.012678332,-0.069323815,0.028108308,-0.057151,-0.07532844,-0.05374265,-0.06991105,-0.06349608,-0.041923452,-0.0018092684,-0.0058278725,-0.016370624,0.0046155145,-0.030077918,-0.029697835,-0.070701174,-0.053287003,-0.052593052,-0.063049614,-0.00085551885,0.025688184,0.0025450399,-0.052097537,0.10726549,-0.042097382,-0.024747157,0.029880172,0.024255758,0.032983556,0.013160152,-0.08026131,0.003247398,0.037529502,-0.00314198,-0.034592368,-0.0035781686,0.05589188,0.030686583,0.09403074,-0.00759295,0.11098389,0.07678041,0.05068035,0.017325243,-0.03337134,-0.03355745,-0.0101967715,0.050379395,0.028917257,-0.044894744,-0.0016781373,-0.016280835,0.0010495642,-0.053894877,-0.085241616,-0.022493351,0.00072083744,-0.014475078,-0.05443364,0.02929826,-0.05066644,0.051152427,-0.005471198,-0.044974923,-0.04800324,-0.008856677,0.08951489,-0.08627523,-0.015873868,0.01443966,0.044186044,-0.031395238,0.038293097,-0.0362902,0.016965665,-0.07683448,0.06603259,-0.007451061,-0.011398139,0.08378076,-0.031474985,-0.12791577,-0.032405164,-0.006288266,0.025868291,0.0049519436,0.048692018,-0.0036900828,0.07852796,0.067902036,-0.005413132,-0.025703285,-0.08522036,-0.052081265,-0.002478204,0.010596106,-0.0945126,-0.13484816,-0.034996364,0.11764354,-0.029614449,0.020717772,0.05048013,-0.011626613,0.13519518,-0.113247134,-0.027924167,-0.046196863,-0.061619986
01c8543fd256a60a2124e5a949f1f3b4,0.05115474,0.088662006,0.0154853985,-0.030251494,0.08123192,0.15169765,-0.09220022,-0.011367778,0.05330576,-0.051634684,0.09635136,0.067064114,0.052222148,-0.120426066,-0.020003086,-0.0010207113,-0.02069042,0.050004996,-0.025738575,0.017471917,-0.096867815,0.008038089,-0.068578035,-0.12016721,-0.048967604,-0.054082416,-0.08165882,-0.058303688,-0.018426545,0.025657823,-0.053852186,-0.035286758,-0.029946735,-0.026985437,-0.09883,-0.0658728,-0.059491843,-0.069991566,0.02352011,0.043759916,-0.008082562,-0.06726999,0.120911896,-0.036314767,-0.054350037,0.024216512,0.027793633,0.0134096695,0.044563923,-0.09886444,0.0028722028,0.050810106,0.01653004,-0.048119944,0.020838493,0.028077109,0.059916615,0.07517643,0.020962283,0.13224606,0.11710828,0.045620743,0.0027159865,-0.03229174,-0.06409751,-0.003678364,0.05158207,0.070720956,-0.07651121,0.009481065,-0.012735096,-0.01204885,-0.048375953,-0.08600979,-0.010312729,-0.020225229,-0.0021194587,-0.022519175,0.015435528,-0.08362216,0.01195423,-0.019834578,-0.013185901,-0.06780977,-0.018797135,0.1299386,-0.13914132,-0.023823049,-0.0029118697,0.05283173,-0.038749818,0.037909996,-0.0041783284,0.10689545,-0.058319688,0.0803222,-0.007945128,0.0025206357,0.102988034,-0.018304821,-0.13883083,-0.026069522,0.0048550214,0.03639341,0.02345388,0.063906975,0.0064804037,0.085475504,0.104695305,0.017026076,-0.053365793,-0.09081107,-0.049211904,-0.005514597,0.0142004425,-0.11979119,-0.17141917,-0.020282067,0.12798765,-0.083888724,0.020165596,0.040001668,-0.012729827,0.16009189,-0.1371591,-0.02948711,-0.057500597,-0.07457892
01f9c8db52f8edb462478310cfed7a23,0.01530973,0.054082476,-0.0055031483,-0.007631697,0.08021012,0.12777531,-0.08211482,0.007943902,0.015891846,-0.062007114,0.05153587,0.08089821,0.0032762391,-0.083753854,-0.012469984,-0.025892934,-0.008146858,0.032359757,-0.0111198565,0.02922544,-0.10115743,0.016279321,-0.061034847,-0.073023364,-0.046459757,-0.060166977,-0.07510595,-0.050157625,-0.01035468,-0.0062110694,-0.027332049,-0.008660471,-0.037947867,-0.027301624,-0.11235678,-0.026972901,-0.07575524,-0.072097465,0.014406129,0.017330699,-0.027425714,-0.048997883,0.12040464,-0.03147255,-0.029812438,0.024259072,0.026838496,0.0111635355,0.01610523,-0.099478856,0.0018984011,0.04065701,-0.0026150565,-0.03925289,-0.00763949,0.052238993,0.039079145,0.06955961,-0.0012263298,0.13229965,0.09975931,0.065399066,0.0017931041,-0.051341347,-0.041147705,-0.0014087968,0.053717,0.06993045,-0.04843789,0.0120458165,-0.048671056,-0.018732876,-0.05424505,-0.052744005,-0.030965343,0.0020007598,-0.031673275,-0.06863441,0.02566909,-0.057872046,0.023175346,0.009963131,-0.045564555,-0.043440156,-0.008727813,0.090915516,-0.10359704,-0.0298253,0.019052273,0.053199284,-0.020362148,0.04031918,-0.017523084,0.022537736,-0.08320562,0.08010811,0.006047903,-0.0077743763,0.09248491,-0.04135022,-0.12834902,-0.011697416,0.014663749,0.020533862,0.0018843532,0.060067765,-0.015541942,0.05245103,0.09995075,0.00024421283,-0.02996812,-0.07547917,-0.035397094,-0.009889377,0.012935993,-0.09795168,-0.123983465,-0.043175496,0.103971004,-0.045514584,0.030204616,0.029938934,-0.002068642,0.119846135,-0.13245572,-0.027767735,-0.06402833,-0.04770017
020ffd8294b9c0bd4f6127b06fccffae,-0.006536295,0.029402798,-0.012963548,0.025361134,0.11192421,0.092864774,-0.10010506,-0.004673973,0.0052496796,-0.0212572,0.07557483,0.10091562,0.04245545,-0.10829386,-0.040757563,-0.03066808,0.0012199166,0.0628854,-0.051664777,-0.0020358018,-0.067230925,0.0014151045,-0.046188965,-0.088318,-0.06697099,-0.07020163,-0.07418937,-0.05410167,0.016436033,-0.020997023,-0.009347828,0.005878213,-0.02425882,-0.02880898,-0.059077654,-0.09165823,-0.056874417,-0.053869497,0.007872163,0.052627537,0.011146521,-0.080888875,0.12654656,-0.07922582,-0.041209318,0.03627112,0.0019114324,0.048399094,0.023262087,-0.07795882,-0.009956012,0.04316103,-0.009618191,-0.065531716,-0.021351693,0.054282907,0.033390637,0.13289571,-0.025721205,0.08901203,0.10264672,0.06334741,-0.0038309218,-0.0024962232,-0.04093496,0.007253141,0.06581888,0.112812534,-0.020326065,-0.029692637,-0.025644938,-0.01731779,-0.07075862,-0.13329548,-0.02126999,-0.030583644,0.0013379168,-0.021405688,0.03544983,-0.05198667,0.020339336,-0.036176845,-0.0695233,-0.06992668,-0.019029133,0.08677134,-0.10403399,0.016446868,0.030762143,0.02056218,-0.045579977,0.031825542,-0.047189467,0.067079455,-0.10193026,0.10180247,-0.0015180781,0.0021679297,0.09167803,-0.019996472,-0.12310021,-0.028469183,-0.046750892,0.053631708,-0.018395383,0.08123082,-0.014095296,0.10543465,0.05380425,0.018773146,-0.030484764,-0.11183355,-0.07463988,-0.015026492,0.006999335,-0.13951787,-0.16428626,-0.010190876,0.14525664,-0.0058249775,0.045269262,0.071390755,-0.052786537,0.16488752,-0.12851971,-0.042358313,-0.031081675,-0.04777983
0257ff0237e869e4b31d18322ec19b90,0.07603178,0.11708314,-0.008966966,-0.029362794,0.09867405,0.24274154,-0.11879081,0.014810129,0.053609397,-0.11974992,0.0849059,0.122040294,0.016339274,-0.1308319,-0.011233542,0.023282893,-0.011867837,0.059964504,0.0037926207,0.03805629,-0.16472553,-0.01134248,-0.09873609,-0.15671258,-0.041826326,-0.06299825,-0.056864876,-0.07351304,-0.0546313,0.039016336,-0.047353607,-0.038212154,-0.1039438,-0.04390632,-0.16982032,-0.024166824,-0.13721913,-0.102256745,0.04882154,0.014941598,-0.047802668,-0.028901953,0.11500709,-0.02904395,-0.035788022,0.05328565,0.049873743,0.017508388,0.04488744,-0.14684656,-0.0036589482,0.07797396,0.002449592,-0.027582722,-0.008226927,0.021443365,0.09385137,0.0947425,0.025557693,0.19758986,0.15397765,0.06892767,0.020116065,-0.08331726,-0.050395265,0.021232903,0.08043071,0.063194655,-0.052659832,0.063576415,-0.036598295,-0.058493145,-0.0641408,-0.06973457,-0.06460603,0.068686895,-0.08055864,-0.0956508,0.038930602,-0.08080642,0.020204233,0.024726301,-0.028552312,-0.06604376,-0.03473077,0.1764043,-0.1568226,-0.053516533,-0.018436598,0.033680137,-0.02128068,0.061174743,-0.018551795,0.028930519,-0.10065399,0.1237281,0.001154618,-0.018745944,0.1205198,-0.07797746,-0.21391493,0.0077813254,0.06095449,0.011896094,0.025395429,0.07325032,0.0118663525,0.09298787,0.15006116,0.008476805,-0.03594245,-0.08592344,-0.06639301,-0.030881645,-0.009611584,-0.14028862,-0.16800658,-0.07390894,0.17550023,-0.12970948,0.04516492,0.009824293,0.06968415,0.15565078,-0.18863444,-0.017410345,-0.14674823,-0.06637708
02ad7b97d9f5c9d33e6fcb0feff3a3ac9e0d05972248e74d4074f79ce1aa89bf,0.03591159,0.03486834,-0.003864524,-0.021027418,0.055519544,0.10513447,-0.059901368,0.00071426935,0.010486871,-0.04058879,0.047630005,0.05705953,0.03536965,-0.07697661,-0.012551512,-0.00225373,-0.004326363,0.02858415,-0.023106102,0.016881807,-0.05524711,0.0031242338,-0.037211474,-0.0847676,-0.021410557,-0.032243952,-0.046090048,-0.05677847,-0.016957054,0.0093796,-0.008258369,-0.0087784985,-0.03860988,-0.01839112,-0.07799717,-0.035357736,-0.058017083,-0.05009022,0.029842108,0.019039076,-0.023360161,-0.02944472,0.073204026,-0.032236103,-0.021138988,0.022540469,0.02445332,0.0075637717,0.023784041,-0.07353165,0.0038305481,0.040941536,0.016100705,-0.041552674,-0.0042172982,0.0108243115,0.040624764,0.055835098,0.0026535026,0.085325986,0.08547036,0.03242598,-0.0024674467,-0.032597203,-0.04560259,0.00014812578,0.04501785,0.054812055,-0.037538737,0.010859345,-0.01938661,-0.01651487,-0.025311569,-0.060169216,-0.026990313,0.008186993,-0.014849859,-0.024410727,0.0052453927,-0.053139117,0.010310185,-0.010418415,-0.032072525,-0.038050525,-0.010443712,0.08506204,-0.07570136,-0.0041717426,-0.005490759,0.00966558,-0.021323264,0.024404777,-0.013515893,0.04851611,-0.038657885,0.070294395,-0.006014543,0.005759631,0.05875804,-0.01470078,-0.09523661,-0.020021385,0.0107863555,0.023931634,0.012506553,0.038884886,-0.013842573,0.043837454,0.055984914,0.0029122184,-0.029891463,-0.050992157,-0.019270936,-0.013998785,0.002103696,-0.07421227,-0.09599724,-0.009791727,0.08225119,-0.038625598,0.029578013,0.0045252936,-0.016220944,0.08893975,-0.09198791,-0.014337017,-0.046658196,-0.03143882
02b016d43b493b4c25bdd1bdba58c199bb43c764c0363e7ea4abe14ca71f6f02,-0.038922474,0.027071452,-0.11758704,0.109332964,0.15879884,0.108577766,-0.23412406,-0.037074123,-0.064783536,-0.042946488,0.069103934,0.14862461,-0.08563779,-0.124691956,-0.053483017,-0.16600274,-0.027557312,0.117787234,-0.11086558,0.002112411,-0.21401496,0.0773915,-0.13409528,0.02093529,-0.051594496,-0.18622114,-0.20235378,-0.07744832,0.0699462,-0.14935939,0.018186646,0.075539544,-0.09296682,-0.055059973,-0.13486607,-0.028562792,-0.06915174,-0.19698845,-0.014046054,0.0036318398,-0.028308503,-0.11338873,0.26243538,-0.11784794,-0.013035786,-0.019617813,0.055222195,0.020702368,0.047158152,-0.21853547,0.001372755,0.023836466,-0.07630569,-0.09422428,-0.0085612405,0.22530884,-0.0062635364,0.1434011,-0.11882027,0.26081675,0.15104724,0.18828136,0.07630788,-0.13072118,-0.0005813206,-0.034737054,0.12979342,0.06525906,-0.08921989,-0.035713404,-0.20103851,0.024610722,-0.16575588,-0.15634426,-0.121506155,0.0053895772,-0.08884477,-0.19220929,0.07842086,-0.038985662,0.16118273,0.08920564,-0.12910962,-0.04624643,0.119777925,0.110172644,-0.062655084,-0.08573459,0.117624596,0.13183704,-0.11986122,0.11863313,-0.14508642,-0.10545626,-0.15179874,0.1739985,0.034104317,-0.039135583,0.23388593,-0.052389234,-0.1979251,-0.04308987,-0.058358673,0.08236236,-0.10725684,0.07410342,-0.042647965,0.13476054,0.18386751,-0.0032541256,-0.04430032,-0.15072943,-0.0812243,-0.04211119,0.12446137,-0.18207102,-0.24476217,-0.13214992,0.14654408,0.014779348,0.11337989,0.12706555,-0.053292707,0.22598056,-0.2755225,-0.05413376,-0.15056598,-0.083551876
02b51f81f1f26d649e555052d3655dbcb1af8dca97f2d1ad461b4ca73f1f31a4,0.1838924,0.05536802,-0.052999176,-0.048625894,0.15736626,-0.18488747,-0.0675189,-0.30815804,0.1070644,0.29124972,0.18202907,0.2641409,0.13999417,-0.17652598,-0.20486799,0.41781184,-0.072834596,0.30718282,-0.23708248,-0.29276645,-0.07503329,0.39892402,-0.19059962,-0.43127787,-0.16728117,-0.116116874,0.05125276,-0.22361635,-0.27389956,0.41408262,-0.049810153,-0.013161675,-0.20535514,-0.15784788,0.25680417,-0.27827457,-0.14054528,-0.018797645,0.03309654,0.4989947,0.08406143,-0.2446795,0.0744021,-0.16792537,-0.42775312,0.097413525,-0.23206404,0.30632293,0.027496608,-0.0023817874,-0.32550922,0.2917336,-0.28606188,-0.32549497,0.0582095,0.041175768,0.33307382,0.5187221,0.13607076,-0.08555284,-0.1285553,0.047230605,0.35518473,0.44202697,0.025873693,-0.22260262,-0.20908426,-0.018748835,-0.07576654,-0.35643035,0.23406225,0.20712209,-0.24699636,-0.7695298,-0.047267117,0.03435751,-0.04045593,0.21768752,0.19120567,-0.06351995,0.25647485,-0.23805486,-0.28024983,-0.35901698,0.110571295,0.33353746,-0.112018324,0.19300959,-0.24419595,-0.24552882,-0.33975908,0.5561993,-0.17432125,0.16769393,-0.43589118,0.36423042,0.08437107,0.058663134,0.05110443,0.21201287,-0.4184177,-0.09042392,-0.565428,0.21375704,0.049094807,0.16401343,0.17538771,0.789984,-0.074035056,0.29134127,0.011455215,-0.43434584,-0.4073929,-0.015920557,0.13106246,-0.4330217,-0.38348725,-0.065216295,0.5248696,0.21063457,0.18072599,0.37015694,0.1315257,0.80423915,-0.16055527,0.03319897,-0.41244352,-0.25451156
032a439627f738fecd72d71fd28c5b56,0.02348179,0.05645321,-0.0044592605,-0.00963318,0.08457329,0.10237287,-0.08950364,-0.020441227,0.021380406,-0.033377275,0.0922184,0.071384005,0.047267888,-0.096768394,-0.02211307,0.012479174,-0.004043971,0.0527947,-0.045815405,0.0024450268,-0.06592479,0.0005208861,-0.05114843,-0.11905664,-0.041973755,-0.04995811,-0.06430802,-0.061419133,-0.017211694,0.03148703,-0.022841772,-0.01882546,-0.032548383,-0.02051086,-0.06647132,-0.07605642,-0.05451337,-0.05227801,0.013860963,0.04785686,0.0069280453,-0.06272521,0.08254334,-0.050691802,-0.043659244,0.033109557,0.0071421983,0.029576184,0.034299072,-0.05816877,-0.00465369,0.061244287,0.0053705005,-0.061633993,0.0075952797,0.029632565,0.04012017,0.10498914,0.009607642,0.10095098,0.084738985,0.032417864,0.017729877,0.0028503395,-0.054502696,-0.013516632,0.040990006,0.053464707,-0.04828907,-0.019765673,0.002001604,-0.015030491,-0.04365566,-0.12283815,-0.025021497,-0.0029002046,-0.016875193,-0.021858074,0.00410952,-0.050284278,0.017663123,-0.04051431,-0.044030096,-0.061537486,-0.021057475,0.09997073,-0.103501,-0.0048284773,-0.0005080505,0.02312859,-0.045014493,0.054390162,-0.029089626,0.08735262,-0.076550454,0.07584759,0.0017503644,-0.0053594173,0.082958706,0.0042309184,-0.116312474,-0.031594153,-0.03349515,0.041646,-0.0033494835,0.056582242,0.0060842982,0.09598522,0.06777462,0.019942125,-0.03757857,-0.08173123,-0.06767763,-0.012733943,0.021113982,-0.12972872,-0.15057369,-0.008718757,0.12895466,-0.028319724,0.033917807,0.052961614,-0.01973658,0.15286112,-0.10509237,-0.020338712,-0.05770911,-0.050922897
03b3b43ca40f505de2f059d56477f15c,0.019020557,0.06308874,-0.010539014,0.0027918085,0.0998896,0.16838723,-0.101803206,0.009591926,0.01258438,-0.07068686,0.07928433,0.09859958,0.03541482,-0.11658986,-0.03924918,-0.02299787,0.0033634165,0.05283277,-0.020385463,0.02328887,-0.12762888,-0.010383711,-0.064121515,-0.09692168,-0.05910646,-0.070816174,-0.08404145,-0.043217253,0.009171171,-0.016165951,-0.037047327,-0.022254242,-0.044146974,-0.038418952,-0.12263124,-0.06599,-0.083399266,-0.06953012,0.036454543,0.023636825,-0.011069411,-0.050673585,0.13572487,-0.05033399,-0.035461597,0.043804206,0.033802815,0.018128488,0.03410083,-0.11910509,0.021320073,0.042140663,-0.007909176,-0.039694395,-0.007870495,0.056907725,0.052981317,0.10059542,-0.003083019,0.15439081,0.12486039,0.069253184,-0.011361198,-0.058973737,-0.0482539,0.022483401,0.07186106,0.09461103,-0.05142389,0.031364474,-0.06088923,-0.03325708,-0.06636571,-0.093164414,-0.022088416,-0.011947382,-0.035026774,-0.06807615,0.030773334,-0.076698065,0.018677734,0.002969296,-0.034639385,-0.050387572,-0.024141487,0.12810054,-0.1373661,-0.023753392,0.018194871,0.04486118,-0.03190715,0.01724501,-0.022559049,0.050309084,-0.08261045,0.104738705,-0.019411474,-0.0171741,0.11128503,-0.04924529,-0.14784402,-0.0024848736,0.011816783,0.038043182,0.0074930005,0.08368528,-0.01944221,0.08213248,0.108292826,0.0104770865,-0.045421068,-0.09597491,-0.055393614,-0.0013497814,0.0021741546,-0.12654057,-0.15231995,-0.042242773,0.13476418,-0.08302855,0.039760377,0.033604663,-0.01061052,0.14112175,-0.15537973,-0.047448535,-0.08220356,-0.062677756
03b544f462bc9c6226ea4886084050074806439962eea99c59d3f2e5fa8e88f2,0.008679157,0.030216077,-0.006608076,0.002542844,0.07678228,0.082219645,-0.06658058,-0.027946305,0.005343697,-0.00046141702,0.079574525,0.06790521,0.052609112,-0.088822864,-0.036029257,-0.013759446,-0.0051032766,0.048404176,-0.031349886,-0.0009148186,-0.051576436,0.0008324643,-0.049178716,-0.087671936,-0.04385108,-0.042427164,-0.07869968,-0.056174695,-0.011693695,0.016007617,-0.024118735,-0.010744437,-0.01855022,-0.019717535,-0.045197733,-0.07520372,-0.040262528,-0.04754094,0.015411202,0.057067454,0.0053692632,-0.07611863,0.09599342,-0.050421853,-0.044112884,0.008500939,0.004179879,0.019448511,0.037462506,-0.048625037,0.004464297,0.049819544,0.0022474483,-0.0760058,0.0043364614,0.026711917,0.02711035,0.09070323,0.005089441,0.0735973,0.08440321,0.044892985,-0.0060205846,0.0060804943,-0.051660087,-0.023022346,0.044598788,0.068861105,-0.039838888,-0.034055714,-0.022547688,-0.012675291,-0.045264304,-0.11565692,-0.01132874,-0.020492138,0.011800582,0.0059412825,0.00262945,-0.047248475,0.0130524365,-0.039580073,-0.03718093,-0.06552365,-0.017579125,0.08763428,-0.085425146,0.014212472,0.014294571,0.024168482,-0.045554534,0.038601298,-0.025201717,0.09286104,-0.052453663,0.071514666,-0.017606974,-0.0035560578,0.076008685,0.002715284,-0.080779955,-0.03759273,-0.04820367,0.040657654,-0.008945112,0.053902403,-0.010606971,0.081689246,0.044247426,0.02526195,-0.043872777,-0.07558455,-0.04862966,0.00067962304,0.030866746,-0.1159047,-0.13766754,0.020755148,0.107315995,-0.009014174,0.032907605,0.05883249,-0.04800869,0.14552484,-0.09049853,-0.031232378,-0.024088915,-0.054930363
03ee77cc35efb49aa6db392247d242d6,0.0048762695,0.021159532,-0.0055565913,0.014682208,0.08178323,0.09398242,-0.06137358,0.0040545454,-0.018084703,-0.01369844,0.068435304,0.089983426,0.041560568,-0.08656082,-0.030706828,-0.022183124,-0.0022797096,0.04140335,-0.038153864,0.003958079,-0.04747368,-0.0071945754,-0.04359617,-0.07984985,-0.036967397,-0.03532927,-0.057070576,-0.048148107,0.002911049,0.0032607906,-0.0052891257,-0.0019095354,-0.021929594,-0.018486198,-0.06979537,-0.06758766,-0.05873108,-0.03510211,0.006278964,0.038824677,0.005474863,-0.06499956,0.08215151,-0.06573217,-0.036485646,0.03566724,0.019936156,0.035929292,0.037059627,-0.073343426,-0.0011602306,0.026180213,0.012845968,-0.04075852,-0.015357103,0.029187487,0.025489671,0.09738725,-0.006672078,0.07357223,0.073572546,0.050189026,-0.00446591,-0.0038532368,-0.04273776,0.018176382,0.05479422,0.09942597,-0.02435026,-0.0016496151,-0.029565174,-0.018640224,-0.055109072,-0.11439627,-0.023338053,-0.009608165,-0.011320661,-0.02724066,0.02795165,-0.05197044,0.0170296,-0.030688386,-0.046831805,-0.044122204,-0.025855767,0.08148849,-0.088140346,0.00753927,0.014564789,0.009281947,-0.025424032,0.025515305,-0.025043415,0.049210057,-0.08076063,0.08902925,-0.010079465,-0.007110914,0.07213553,-0.028707828,-0.10575096,-0.016760739,-0.0293229,0.025770957,-0.0080290185,0.06258051,-0.02302245,0.072771445,0.04868951,0.013925523,-0.017213961,-0.08981825,-0.04705217,-0.011057398,-0.0023181722,-0.110422745,-0.12574872,0.0074161794,0.11687341,-0.008995556,0.038659066,0.02754041,-0.045700558,0.120539315,-0.101493135,-0.037354767,-0.03471727,-0.023252498
0424586cc6ae1f3a30e811665fcc4b934fd7cc8a2b084934fbd1bcd1fd48df25,0.03773741,0.047518544,0.005687064,-0.023141304,0.049377043,0.116104655,-0.061368257,-0.0038001437,0.012693074,-0.051215257,0.057306625,0.03862332,0.04335278,-0.07734509,-0.011146977,-0.024385849,0.0010562965,0.029486755,-0.01585481,0.010594927,-0.045443155,-0.01090425,-0.0397979,-0.066992484,-0.025025971,-0.024299337,-0.063744254,-0.04910669,0.001059756,0.011124168,-0.026098194,-0.014869398,-0.008416462,-0.0015312113,-0.064240664,-0.028060347,-0.03691227,-0.04243075,0.02380907,0.02254839,-0.008870068,-0.04060719,0.07212482,-0.022169726,-0.017144438,0.007862124,0.030853463,-0.010855735,0.04067015,-0.05885232,0.010787619,0.02647741,0.024695268,-0.038202055,0.015948411,0.024585566,0.031784922,0.040314194,0.0035194822,0.090760164,0.09271095,0.037792824,-0.009398055,-0.03437713,-0.043096896,-0.008254234,0.04474352,0.052749548,-0.054214556,0.016757064,-0.015514962,-0.01067434,-0.019907972,-0.040683713,-0.011282338,-0.012133054,0.0029871399,-0.030756345,-0.0017601048,-0.06255687,-0.00064344343,-0.010852754,-0.0023425687,-0.030566081,-0.012887725,0.08688696,-0.09015779,-0.024771553,-0.00076381525,0.024480315,-0.007673345,0.0071402723,-0.00022472993,0.062300146,-0.016776951,0.044168707,-0.0048092827,-0.009857105,0.08049522,-0.012645016,-0.06451179,-0.013432794,0.022208793,0.0072331647,-0.001954249,0.026215116,-0.019016793,0.030574793,0.065232456,-0.0033718816,-0.0382739,-0.037718557,-0.016166592,-0.008247055,0.01914784,-0.06939506,-0.10965587,0.0017143928,0.074568175,-0.051271748,0.011985211,0.015656607,-0.015650595,0.08114937,-0.09027059,-0.014495328,-0.03194908,-0.03131767
0446ae8ec2d513bc52974a8231649b2c,0.033961236,0.046571765,0.0055629243,-0.0144663965,0.079007566,0.07787067,-0.06853754,-0.0019342414,0.02545531,-0.014585804,0.07017632,0.074255325,0.055079214,-0.102088,-0.01963559,0.027157532,-0.011866618,0.035167724,-0.04277631,-0.012940938,-0.04695592,-0.0021627825,-0.047319315,-0.10407901,-0.04643926,-0.048283055,-0.042778693,-0.06277717,-0.010937212,0.031566016,-0.02129818,-0.011851316,-0.03183887,-0.037158553,-0.05525032,-0.076989755,-0.060687937,-0.046257224,0.0028381916,0.051690698,0.014175891,-0.053616304,0.08483849,-0.042782344,-0.039203107,0.057655945,0.011787476,0.040822636,0.0356197,-0.04432788,-0.006382111,0.045241382,0.0069482625,-0.027765606,-0.008382488,0.023779314,0.04233872,0.10449269,-0.0019048211,0.06978318,0.062505856,0.017471677,0.011430131,0.00023924612,-0.02603978,0.019220145,0.031128595,0.061185975,-0.036949866,-0.028997594,0.010410445,-0.00822769,-0.03920114,-0.11697378,0.004604554,-0.011350176,0.004614979,-0.016281884,0.019366857,-0.062994204,0.019060245,-0.04000725,-0.031280886,-0.06622788,-0.036798306,0.10690257,-0.095820256,0.0032344197,-0.0076826937,0.013166504,-0.038559992,0.03203562,-0.021543276,0.06267365,-0.058564782,0.06773688,-0.026073242,-0.007497268,0.06802354,-0.017092163,-0.11797047,-0.016350966,-0.035784274,0.021974508,0.01739153,0.055575613,0.00607395,0.10566898,0.038630005,0.021054292,-0.022917992,-0.10138643,-0.055653032,0.0028942097,-4.954805e-05,-0.111899,-0.1387564,-0.019186087,0.14414668,-0.018904464,0.025455732,0.05095648,-0.029299414,0.15223996,-0.08390616,-0.022662204,-0.032054093,-0.043690924
044eaf948c12e75d6d92e9a8bbfd7cde,0.019362926,0.047891025,0.020797884,-0.02094318,0.07270965,0.09092258,-0.062278874,-0.016280826,0.027252452,-0.02005886,0.06227127,0.047787372,0.058251,-0.0965649,-0.010853029,-0.008332868,-0.012497308,0.025984779,-0.013392818,0.008878054,-0.047468085,0.007570041,-0.046367366,-0.07731911,-0.048589814,-0.045822255,-0.062062446,-0.039757267,-0.007168708,0.0072176466,-0.037388086,-0.017439911,0.0088007385,-0.015467908,-0.046905458,-0.07943964,-0.029387016,-0.04319746,0.009245985,0.040241785,0.0060582575,-0.064988315,0.09613858,-0.03439143,-0.0354237,0.013703021,0.014041667,0.014108251,0.021948608,-0.051176965,0.018613726,0.026961513,0.020775227,-0.03723339,0.019748854,0.038382076,0.025279047,0.07757161,0.0017403404,0.07735279,0.08577518,0.030225638,-0.010648232,-0.016339576,-0.056529738,-0.0018181341,0.03058632,0.06748908,-0.051364984,-0.017528249,-0.017240282,0.0070662596,-0.02749628,-0.06676355,0.01664868,-0.04065135,0.024849104,-0.010057907,0.006995315,-0.06511414,0.002894001,-0.029921437,-0.013205367,-0.055015124,-0.027374698,0.08539646,-0.08987303,0.001464613,0.0023973323,0.051479187,-0.0196833,0.016769953,-0.007455806,0.084658876,-0.036698863,0.038953662,-0.027268415,-0.006251803,0.070870884,-0.0016718112,-0.07267267,-0.026960948,-0.013466059,0.026501795,0.006079195,0.042495824,-0.0053526666,0.05831195,0.053495586,-0.002413052,-0.03954477,-0.06571266,-0.03258717,0.0044896603,0.024733722,-0.08935565,-0.12498787,0.002547955,0.10147944,-0.035292868,0.0075183692,0.04086741,-0.030108538,0.11652901,-0.077345945,-0.032169256,-0.008532868,-0.061887443
04d29fee25ab668406ab8e49c4f7a990,-0.01892498,0.03430151,0.013852935,0.0037017432,0.14982933,0.13259168,-0.12147484,0.0466945,-0.015307288,-0.055236146,0.08318834,0.10509035,0.086924426,-0.15744413,-0.0052288254,-0.09026696,0.0014448232,0.03651932,-0.08019564,0.084122345,-0.016046772,-0.02991882,-0.0045273807,-0.14165099,-0.0816806,-0.064160526,-0.095353745,-0.047872618,0.03624435,-0.052502245,0.020299073,0.01184263,0.043730248,0.016662562,-0.11229096,-0.12065853,-0.06844705,-0.03984045,-0.03236168,0.03115012,0.03215152,-0.101205364,0.15710011,-0.094119504,-0.041848302,0.075532265,0.024790343,0.048682228,0.026352553,-0.063289024,0.009599775,0.027753897,0.09536656,-0.07443759,-0.058649592,0.086614385,-0.028630486,0.17570172,-0.051653404,0.12279143,0.14920841,0.054805167,-0.08154458,-0.024252836,-0.0716604,0.03848325,0.10979325,0.18715154,-0.0057020206,-0.03342375,-0.020446533,-0.036406282,-0.06221435,-0.15359206,-0.0119690485,-0.07156034,0.04574672,-0.031210449,0.009624694,-0.09810136,-0.006266558,-0.083788164,-0.08665947,-0.061228663,-0.080989175,0.06386235,-0.1582201,0.036551528,0.049843393,0.043188706,-0.0015893225,-0.025730664,-0.022352776,0.09849036,-0.12533535,0.07841209,-0.008387119,0.002610343,0.120336,-0.031225339,-0.12374088,-0.0525919,-0.037444662,0.057921324,-0.021481574,0.098420136,-0.06303898,0.07887292,0.045440942,-0.025107978,-0.0327866,-0.12254005,-0.07217694,-0.024847155,-0.035944045,-0.14680097,-0.20632118,0.054014985,0.19682363,0.010202777,0.03240971,0.09412842,-0.1473044,0.18086405,-0.11354874,-0.074468225,0.071951956,-0.03107708
051a74d370c049e56396b9420df284d4,0.007961537,0.11185826,0.018928725,-0.019980881,0.11472053,0.15577672,-0.1291802,0.01647007,0.0627064,-0.10561052,0.06854947,0.07978201,0.008513239,-0.133476,0.0040831063,-0.04185986,-0.015969187,0.034905195,-0.0061591854,0.06644366,-0.1533897,0.00813824,-0.061212573,-0.10356242,-0.09504489,-0.08319171,-0.10479283,-0.006072902,-0.0045407685,-0.0403221,-0.06015491,-0.037444267,-0.011846731,-0.013583961,-0.11869192,-0.045096178,-0.07421426,-0.07481356,0.009894419,0.00076952646,-0.0044853482,-0.03699443,0.14671491,-0.02675869,-0.048828643,0.043149617,0.038586173,0.03556706,0.0156175895,-0.12131062,0.00073632016,0.036907744,0.008484632,-0.023204362,-0.0035677014,0.108955234,0.035561603,0.10369406,-0.026246423,0.18193163,0.13873841,0.05852988,-0.0052694106,-0.086692244,-0.049068477,0.0191561,0.07972915,0.07770565,-0.06310211,0.030225514,-0.064129636,-0.00766012,-0.074279,-0.048825517,-0.02086472,-0.00042154334,-0.03939132,-0.09357099,0.046931714,-0.087448075,0.043825947,0.019193187,-0.03201579,-0.05655232,-0.017934432,0.10288365,-0.13970236,-0.029967869,0.025028525,0.0959035,-0.01001307,0.009197704,-0.0016751449,0.014911324,-0.0855647,0.0775958,0.008877778,-0.019834014,0.13290793,-0.064010754,-0.14348131,-0.014296637,0.0448876,0.045857448,-0.00695479,0.08839809,-0.023949917,0.07420837,0.11190809,-0.01696783,-0.048359424,-0.10026196,-0.066370964,-0.020530839,-0.00029479,-0.11191722,-0.16107497,-0.08573765,0.12925816,-0.09437963,0.0015139581,0.03879046,0.016570281,0.12791952,-0.16326462,-0.06626184,-0.06811895,-0.08893345
052055c5202730d16d4117083db7a74c,0.02206409,0.22023982,0.07735863,-0.118832365,0.13463289,0.14703664,-0.11647533,-0.019638004,0.2637859,-0.1252267,0.058346212,0.055633437,-0.013489409,-0.17916352,0.048838496,0.010520209,-0.050563842,-0.03878273,0.055922493,0.065089084,-0.21263923,0.069620974,-0.05779521,-0.113783,-0.20920244,-0.1158769,-0.1257841,0.1015123,-0.05936019,-0.012333203,-0.16826428,-0.11039763,0.085466504,-0.0118750855,-0.10771363,-0.11466317,-0.02052553,-0.05511502,0.034364287,0.021156568,0.038536083,-0.008770411,0.22604755,0.06779284,-0.09643051,0.0035524764,-0.037623115,0.04459454,-0.04335829,-0.10353904,0.011160321,0.036013603,0.004271918,-0.008818096,0.047707237,0.14575106,0.072285645,0.0966944,0.048439946,0.2040758,0.13308413,0.009279248,-0.0067949393,-0.04629755,-0.09838971,-0.028887093,0.021726307,0.047359686,-0.106699675,0.013732679,-0.051655497,0.072363116,-0.09530733,0.033767655,0.045043673,-0.03942293,-0.015719758,-0.046604604,0.09713449,-0.13441257,0.036613874,-0.01002079,0.056584433,-0.1213948,-0.027240334,0.13382712,-0.19440216,-0.0053175488,0.024177292,0.19968155,0.005865293,0.025972044,0.078726314,0.11977053,-0.086708166,0.03444714,-0.024470612,-0.03677178,0.1340961,-0.06650403,-0.12698546,-0.031122997,0.08110017,0.060292065,0.021806344,0.0967704,0.03272887,0.094269894,0.11279162,-0.03498039,-0.08370057,-0.114161,-0.07205756,0.011215587,-0.003987615,-0.06871497,-0.14572416,-0.14211494,0.12725471,-0.20708732,-0.111707844,0.07415237,0.13120787,0.13645975,-0.12047176,-0.08583607,-0.060062,-0.24118274
0540e803f1788f75369f434ace742346,-0.21871786,-0.15681452,-0.11107872,0.23930536,0.119717084,0.069829494,-0.031131346,-0.09109652,-0.25041875,0.24119227,0.24420129,0.2254227,0.26827383,-0.08972984,-0.29367277,-6.90913e-05,0.15187576,0.26152876,-0.115858406,-0.14326094,0.037500113,-0.14499336,-0.028652739,-0.17893079,0.04182501,0.00092386437,-0.041539446,-0.19444679,0.11069155,-0.04560425,0.15267338,0.102184415,-0.05536366,0.04178836,0.076660946,-0.326477,0.021434836,0.105224274,0.13342611,0.20345856,0.14668146,-0.21615615,0.034785602,-0.35057595,-0.08109633,0.021647895,-0.16100828,0.10547183,0.13426417,0.07968272,-0.094872475,0.12775132,-0.08823964,-0.32341385,-0.031815685,-0.08312061,0.09450632,0.3262524,-0.012718278,-0.04432026,0.15168719,0.2220739,-0.023859045,0.22734815,-0.11551098,-0.051464982,0.06754286,0.4025607,0.087147295,-0.14351527,-0.031980257,-0.17000037,-0.11385251,-0.42374864,-0.056341663,-0.15462857,0.039140247,0.26452303,-0.040638164,0.049179092,-0.17319289,-0.26215085,-0.19241612,-0.098865956,-0.08868964,0.03261078,-0.09190671,0.17097494,0.049652703,-0.18607873,-0.21970268,0.08755816,-0.11761541,0.41795892,-0.15497553,0.19580995,-0.070355184,0.083455995,0.042822495,0.17056994,0.012081296,0.013891303,-0.39306715,0.15274894,-0.10639704,0.15074839,-0.0915138,0.26092234,-0.01931262,0.25780037,-0.15600844,-0.1548188,-0.13979755,-0.01876005,0.051123776,-0.33130068,-0.28983235,0.36786506,0.18415937,0.26450863,0.28377765,0.2262935,-0.30320826,0.33654338,-0.084710866,-0.10147367,-0.0063409186,0.032626156
056c0f5cb55d4173ddc4f0d4a2596d9579bbabeeaff2c882c67d64610a9928bf,0.064912625,0.07941688,-0.0886693,0.015061882,0.084281996,0.13663238,-0.18935546,-0.13876511,0.039415706,0.04386656,0.19295892,0.07714031,0.02427869,-0.16167247,-0.05280909,0.033352748,-0.06289363,0.1422028,-0.10530925,-0.09950264,-0.15851998,0.11472437,-0.20133565,-0.14465386,-0.04060715,-0.16549568,-0.21084544,-0.170333,-0.054806396,0.05151387,-0.0723063,0.036485802,-0.12662339,-0.098054685,-0.08702954,-0.12500207,-0.06572601,-0.22212939,0.078915104,0.10914719,0.01804984,-0.16754228,0.20665886,-0.05706203,-0.075772926,-0.08451282,0.008018781,-0.018046089,0.08255366,-0.12474736,-0.0025389902,0.14941841,-0.078549325,-0.20622925,0.1536446,0.0742055,0.093242615,0.13161375,0.03900347,0.27608153,0.1874342,0.15425783,0.13762994,-0.05810811,-0.087233275,-0.19829917,0.042083643,-0.06963215,-0.18019675,-0.060369037,-0.049855806,0.06477832,-0.078034386,-0.20058455,-0.0563477,-0.009928713,-0.06774507,-0.015748166,-0.048026063,-0.043352462,0.10466724,-0.0017057809,-0.057618804,-0.15102468,0.12008427,0.26384908,-0.08824312,-0.06761436,0.020801565,0.12450137,-0.17094888,0.25958297,-0.11301393,0.22396605,-0.05708568,0.14996956,-0.025673855,-0.031348318,0.17670806,0.09530126,-0.17158876,-0.08715627,-0.1119537,0.0990959,-0.0028579282,0.04696027,0.05532765,0.21024552,0.15563275,0.059353787,-0.13590345,-0.10150926,-0.059390154,0.012954812,0.20406552,-0.2509265,-0.30230835,-0.028445512,0.12898329,-0.07414718,0.09594162,0.2068226,-0.024578085,0.34372026,-0.20387638,-0.024230419,-0.21888314,-0.23194176
0593aa87b0426bac363a292228735991,0.020819085,0.04935661,-0.010805806,-0.0034598326,0.08302599,0.074195206,-0.08785362,-0.01510351,0.025234023,-0.009150657,0.08200622,0.06855747,0.053581335,-0.113294244,-0.011953399,-0.0080287885,-0.019008324,0.047113907,-0.04999443,0.006364318,-0.051276654,0.018089034,-0.05339591,-0.11052726,-0.058608,-0.070589155,-0.0789961,-0.05203412,-0.019710993,0.015222501,-0.027160132,-0.009636044,-0.019813895,-0.028820619,-0.050397113,-0.09890824,-0.04498822,-0.047271688,0.002659973,0.05508805,0.0197999,-0.08371288,0.1125708,-0.049846552,-0.058235053,0.01958919,-0.0045594824,0.0348923,0.029292122,-0.058285344,-0.014717051,0.042827718,0.005425812,-0.07621935,-0.0018378242,0.05056039,0.03640452,0.12879619,-0.006249855,0.08847606,0.09533183,0.037122868,0.005481136,0.009972956,-0.041140977,-0.023723014,0.042461578,0.06767953,-0.044616356,-0.03109062,-0.010354617,0.010463696,-0.05892758,-0.12747782,-0.018216947,-0.032338668,0.00034087402,-0.018887011,0.0143806655,-0.0506078,0.030006193,-0.037712052,-0.043804422,-0.07995024,-0.022125203,0.088770926,-0.09897433,0.018909011,0.018569103,0.045004614,-0.051964648,0.05760782,-0.03795186,0.08452184,-0.08650019,0.081136644,-0.010777292,-0.0040273485,0.07802679,-0.003292654,-0.11598341,-0.044991333,-0.050910234,0.051352944,-0.0018001589,0.056288607,-0.0021264288,0.111781895,0.058564514,0.008451498,-0.032450333,-0.098988615,-0.05672372,-0.0012631597,0.030743185,-0.12661752,-0.16333729,-0.009623696,0.12847915,-0.015927175,0.022718355,0.08111291,-0.033142954,0.1692065,-0.09470613,-0.043958284,-0.036151145,-0.08342314
05bed5476fa174c7aef2eaf54f0ab27f6a39a2af1d7ed53357ccae68851a331c,0.0058451067,0.041928127,0.0033518258,-0.016509058,0.05476354,0.083612464,-0.055182207,-0.01266397,0.026994359,-0.0113614,0.06046562,0.056890655,0.04129108,-0.07710556,-0.013181353,-0.00975121,-0.013737464,0.035071585,-0.024814036,0.0050675264,-0.03380566,0.02323169,-0.03034752,-0.099457875,-0.047006145,-0.044057153,-0.06284867,-0.03631503,-0.018878248,0.022535695,-0.012044274,-0.0048381337,-0.0093987025,-0.012057242,-0.055124898,-0.0700744,-0.02817907,-0.042889785,0.021315912,0.06631889,0.011976601,-0.060232285,0.09052984,-0.03747868,-0.037254628,0.012854873,-0.008687105,0.022861533,0.011240329,-0.051614907,-0.005626544,0.04337582,0.007244898,-0.05557219,0.011763303,0.029323203,0.03616609,0.0826616,0.011182413,0.06857997,0.07660671,0.026105769,-0.007333249,0.012992796,-0.056661576,-0.01952507,0.031102212,0.07189898,-0.040125664,-0.02608158,-0.0012593969,0.0045649395,-0.041525725,-0.083945304,-0.011330885,-0.014497592,0.0027176111,0.01015602,0.010633723,-0.04012949,0.004292579,-0.03980101,-0.04026287,-0.060343456,-0.011736175,0.07052754,-0.07909779,0.009872467,-0.0001630955,0.024914525,-0.032814022,0.055700436,-0.015431797,0.09331642,-0.063687846,0.06468233,0.0020980297,0.0076954877,0.047916207,0.011462591,-0.08948122,-0.030567182,-0.0449729,0.047129303,-0.0014006767,0.04767,-0.012464426,0.07905654,0.04125473,0.015046375,-0.03945202,-0.06297631,-0.042093623,-0.00093790074,0.0134643465,-0.09326095,-0.11879252,0.010171996,0.106151156,-0.019601509,0.031740528,0.053344466,-0.030960476,0.12978132,-0.070764944,-0.024097256,-0.034065727,-0.06392803
060451d1d301ca6e255cbd2c903caf9d,-0.08782925,-0.039963815,-0.19856626,0.14864811,0.034258984,-0.017499423,-0.22824055,-0.14482166,-0.12838465,0.09757772,0.11324084,0.04933708,-0.09550574,-0.0397302,-0.034295797,-0.09957294,-0.026515452,0.20246984,-0.20111494,-0.1033976,-0.11304417,0.121893235,-0.1461375,-0.009368376,0.055638548,-0.19133799,-0.1906963,-0.17319347,0.00472053,-0.0830275,0.1009638,0.15585366,-0.17781939,-0.07397726,-0.017329969,-0.021084368,-0.013185053,-0.20652974,-0.036411744,0.09300651,-0.009121206,-0.14769948,0.119570546,-0.1504418,0.0012986085,-0.12289877,-0.012695405,0.023182435,0.03251465,-0.09549228,-0.08725645,0.121625766,-0.122326024,-0.23319004,0.048209433,0.14505054,-0.021027517,0.14146075,-0.089191705,0.21227817,0.089192875,0.19087467,0.17022687,-0.0412359,0.018426953,-0.22059499,0.06807654,-0.089153685,-0.07926295,-0.12016955,-0.105058946,0.04003568,-0.14228432,-0.22302845,-0.16313447,0.056278046,-0.11970453,-0.09603239,-0.014629415,0.08593566,0.15277746,0.029874535,-0.16942267,-0.052293945,0.22029786,0.089178,0.08770779,-0.07197232,0.09895388,0.07665497,-0.22173919,0.28688887,-0.2138031,-0.011683071,-0.09818148,0.15156996,0.06844549,-0.0070738913,0.15530337,0.11809043,-0.12937044,-0.10441999,-0.21243398,0.11103987,-0.13448967,-0.021695875,0.028115425,0.16218162,0.12670025,0.08110904,-0.030072609,-0.066594586,-0.06421573,-0.0767404,0.21800777,-0.24416508,-0.26524514,-0.027506089,0.05031228,0.17347194,0.20299448,0.24068443,-0.08607582,0.27164367,-0.17213787,0.007663948,-0.2144627,-0.088710815
0615cadf5248d9c355f4838f227a31a0,0.030176772,0.0492775,-0.011808027,-0.0038395508,0.11500002,0.11106601,-0.09610724,-0.0124779,0.0012681985,-0.027766244,0.08471938,0.10139181,0.045352858,-0.11975905,-0.044138007,-0.02058225,0.0002402452,0.066104054,-0.05389404,0.0018224429,-0.08658159,0.01792019,-0.065855265,-0.099246435,-0.046184722,-0.060856722,-0.09101995,-0.08478678,0.0023867441,0.00053638953,-0.026727993,-0.015155796,-0.038831998,-0.035460453,-0.0875666,-0.07846155,-0.067090295,-0.076622695,0.00969529,0.053324383,-0.014606757,-0.08404136,0.13479769,-0.07942687,-0.048922624,0.024207281,0.026093185,0.028680967,0.0490174,-0.110344276,0.0114495605,0.049724102,-0.0061669503,-0.058711484,-0.014476315,0.06449834,0.04846211,0.11317099,-0.0012436876,0.119634084,0.11649618,0.06807066,0.015590612,-0.020155178,-0.04585239,0.006176825,0.05722583,0.096229486,-0.05501259,-0.025151145,-0.036598288,-0.0056915507,-0.07081243,-0.13130437,-0.025154013,-0.0174329,-0.00884058,-0.037805635,0.032322127,-0.0734677,0.042276915,-0.025107138,-0.05255991,-0.07462146,-0.013073333,0.12603022,-0.11392245,-0.015127386,0.01434916,0.028028913,-0.04643799,0.054323897,-0.03667604,0.0543368,-0.085980326,0.1065234,-0.0098288655,-0.003359957,0.1192683,-0.013935713,-0.14579912,-0.03192148,-0.04381826,0.035328258,-0.007633959,0.061069872,-0.0112999035,0.11215149,0.08562481,0.025787393,-0.044736154,-0.11640755,-0.070227616,-0.0011438709,0.022095475,-0.13880461,-0.18000928,-0.012320801,0.15148109,-0.029628826,0.055226214,0.0573998,-0.03779901,0.17441116,-0.15266162,-0.02087923,-0.05298415,-0.053030662
0630318153df63416998b97a3498406f,0.028242888,0.0653337,0.00960395,-0.032184567,0.080810085,0.11825307,-0.08735568,-0.009751741,0.047148492,-0.045888677,0.085823804,0.047422327,0.044530217,-0.0930468,-0.0035232191,0.01089936,-0.008396595,0.03972727,-0.026923787,0.00089107634,-0.067467116,0.004129057,-0.05038502,-0.106680565,-0.03146396,-0.037159882,-0.069811925,-0.055123538,-0.01968317,0.019685138,-0.040346883,-0.027546085,-0.026882563,-0.020361204,-0.059923656,-0.059691254,-0.047847807,-0.061578773,0.013107076,0.032080643,-0.0056383642,-0.0609407,0.08004649,-0.03097391,-0.039045077,0.028978592,0.02554553,0.019852042,0.039343875,-0.07089508,0.0015275353,0.066470444,0.009783066,-0.057291914,0.019968018,0.025694797,0.04507041,0.08403792,0.007207913,0.112312496,0.0968405,0.03887385,0.010964913,-0.022411214,-0.043870963,-0.012611181,0.03409484,0.03935769,-0.060153257,-0.0061797504,-0.0078193825,-0.0036863312,-0.03218974,-0.08821587,-0.0077694478,-0.0071190307,-0.017824555,-0.021797506,-0.0012642723,-0.06294131,0.010278987,-0.016581083,-0.005149501,-0.048930455,-0.02214819,0.119879015,-0.11336691,-0.016861195,-0.010381132,0.03699169,-0.031802293,0.03376473,-0.017069804,0.0783803,-0.036567517,0.05600967,-0.006324238,-7.278114e-05,0.0848695,-0.0012354802,-0.10675833,-0.022533914,-0.0016221895,0.024803022,-0.0022660585,0.035973288,0.006548035,0.083234854,0.08193339,0.025006007,-0.040627547,-0.076179944,-0.048301715,-0.009616609,0.023675174,-0.11936831,-0.14011247,-0.017993016,0.11309093,-0.048708867,0.014334618,0.04735775,-0.0046796463,0.14008431,-0.09596882,-0.022811834,-0.06392392,-0.07109382
06717e78164e7b2b1aa137adaa3d7d2d,0.034747228,0.09347347,0.002232069,-0.028482629,0.078998215,0.071675085,-0.120280735,-0.012648887,0.08025419,-0.050406948,0.051371172,0.03622708,-0.015905717,-0.11110063,0.038962714,-0.027203627,-0.0384374,0.013797347,-0.02530998,0.015574973,-0.102277964,0.06720593,-0.064816214,-0.055038035,-0.08504596,-0.10279086,-0.11849205,-0.009188285,-0.005512648,-0.02368558,-0.06431384,-0.016007407,0.0072324076,-0.03302555,-0.07527648,-0.05081204,-0.020236453,-0.0832256,-0.01917459,0.00052174367,0.0051720785,-0.058115985,0.13725916,0.0010156328,-0.040223043,0.0025464008,0.024134016,0.0071120574,0.0005716709,-0.08375238,0.018019747,0.03293562,0.0041554314,-0.018964183,0.022160653,0.104655914,0.013087093,0.081637934,-0.020547891,0.15063372,0.08019367,0.037183866,0.022777995,-0.065328285,-0.036713433,-0.03579969,0.03027429,-0.023288433,-0.084979884,-0.012230168,-0.038016967,0.04935744,-0.06771058,-0.054507904,0.012294683,-0.019816196,-0.014763279,-0.080610916,0.033200752,-0.07607055,0.08004505,0.010467028,-0.00034585665,-0.0573221,0.024858681,0.098659396,-0.08872992,-0.037842505,0.04354923,0.12087189,-0.024419732,0.04332726,-0.017972717,0.029833788,-0.049137186,0.029162904,-0.012189638,-0.027902931,0.114770174,-0.029199038,-0.110366456,-0.04546085,0.019421715,0.040997215,-0.006737005,0.03471212,0.028057508,0.07345887,0.091176756,-0.038264867,-0.029074434,-0.08756333,-0.033942744,0.0067079165,0.050255604,-0.08075547,-0.14551386,-0.08842276,0.09414163,-0.06802808,-0.03531799,0.08173336,0.006235685,0.13062118,-0.114023626,-0.036986,-0.036827516,-0.112237215
0683cdf921258b19802d093b921ffd9e83a9f753b3faaffa4d404590c64dbf0b,-0.019964678,-0.015329438,-0.047934256,0.045192342,0.068241306,0.029040815,-0.0536603,-0.011123106,-0.050738875,0.020587983,0.043984674,0.10369158,0.002511374,-0.056954462,-0.059796464,-0.02668827,-0.010664379,0.0559707,-0.03842494,-0.013247242,-0.047492,0.020607028,-0.043460067,-0.03254388,-0.028886447,-0.053409506,-0.03999903,-0.06685328,0.008042125,-0.018576724,0.02375522,0.03527208,-0.05483714,-0.024442373,-0.04113078,-0.062092546,-0.04362045,-0.036800455,0.010606034,0.056626756,-0.0055870544,-0.06739943,0.10519884,-0.065374464,-0.025318718,0.010258373,-0.014718534,0.02821565,0.017155364,-0.07212889,-0.012777448,0.016647005,-0.0289204,-0.060881842,-0.015477316,0.041921522,0.018145313,0.0996529,-0.016815754,0.045952287,0.057949692,0.05983117,0.012091479,0.0054823407,-0.011985119,0.00510126,0.041827146,0.0849723,-0.021181783,-0.023321118,-0.050190397,0.0013017175,-0.06122917,-0.111194454,-0.047100876,-0.008729836,-0.026522473,-0.022701276,0.04176043,-0.017153772,0.033218052,-0.016460689,-0.081593506,-0.041649647,0.015700916,0.045467,-0.038928635,0.01849819,0.027154231,-0.004112472,-0.063982405,0.065419465,-0.061867632,-0.010984784,-0.092146024,0.10275199,0.012980013,0.0032895622,0.054104656,-0.0127163995,-0.08971063,-0.010552791,-0.06422186,0.048684474,-0.017006481,0.053146396,-0.018672746,0.0744416,0.036395524,0.02012194,-0.0076292627,-0.07736826,-0.042415276,-0.01102493,0.017344775,-0.086506546,-0.089783035,-0.0010249963,0.10106193,0.038081385,0.07395087,0.04992217,-0.047751833,0.13238423,-0.09123014,-0.0052632736,-0.05255493,-0.011861022
06b9650176bc09c654e06af0544ff9583b8ae9e8e8bd1aab3cc4fb034cdf1517,0.014242983,0.03465623,0.0068048746,0.002250867,0.07754099,0.07555899,-0.04780845,0.010773223,0.0020403073,-0.0017012048,0.049041588,0.09005971,0.030088348,-0.079965234,-0.043727793,0.0011742489,-0.0119338315,0.013709695,-0.01693417,0.0042124,-0.03823634,0.005494576,-0.024440315,-0.082158335,-0.06010509,-0.034110155,-0.041328814,-0.035845105,-0.0043351636,0.016421584,-0.012888674,-0.0019065096,-0.015155056,-0.01473506,-0.062327564,-0.07937417,-0.047809534,-0.022719469,0.016402941,0.042990413,0.0069150855,-0.05447912,0.1151248,-0.04269184,-0.032745738,0.028426567,-0.0065433453,0.024644382,0.018045522,-0.049295586,0.011074628,0.008204118,0.0043022307,-0.035297945,-0.005382862,0.012876696,0.0358717,0.08495607,0.017912947,0.0475352,0.0735087,0.0305597,-0.016908444,0.01631859,-0.03732596,0.025574287,0.033597786,0.09449401,-0.02239734,-0.004758821,-0.014011439,0.0038507648,-0.027158428,-0.08451177,-0.019404843,-0.025062595,-0.0006256642,-0.0077236816,0.036586735,-0.058802858,0.0033623287,-0.030456165,-0.04553151,-0.053887546,-0.035611067,0.06267315,-0.07289899,0.024549244,0.013729303,0.025206573,-0.018582374,0.015070684,-0.0102798985,0.061388824,-0.07256121,0.07397844,-0.022302054,0.0022702012,0.033950627,-0.027887423,-0.092799254,-0.006767647,-0.024312763,0.03518162,0.017800132,0.06770688,-0.020259814,0.062692605,0.025785027,-0.0018851301,-0.025039986,-0.080489844,-0.033811618,0.004515395,-0.011910308,-0.07793866,-0.09436212,0.00058643817,0.11185681,-0.024339743,0.020119475,0.026409525,-0.035463486,0.11216223,-0.073557556,-0.018437702,-0.010890599,-0.036684047
06d1f82e3edb6c0af1b42d711a29779d,0.028866384,0.032778878,-0.006509126,0.003117082,0.09134282,0.08497444,-0.088002875,-0.009996831,0.016661778,-0.013161108,0.065068275,0.09153109,0.02032892,-0.08875669,-0.019915361,-0.014518539,-0.015662115,0.05057934,-0.03936052,0.0039436803,-0.077556774,0.037356995,-0.04910503,-0.08652639,-0.06196165,-0.07583393,-0.0689215,-0.052330405,-0.0129259005,0.004829371,-0.027106894,0.0015009143,-0.03339129,-0.028904164,-0.06442795,-0.0669188,-0.05823427,-0.061724015,0.005607734,0.0356055,-0.00045051973,-0.06952523,0.11399263,-0.03850946,-0.039327174,0.027356671,0.0062018186,0.035398163,0.02507053,-0.08243029,0.00020538335,0.03130507,-0.020164534,-0.03979458,-0.0017554366,0.04566704,0.035200916,0.100552745,0.0025593885,0.08909791,0.07566888,0.053914554,0.020026905,-0.010237374,-0.031214243,0.0026666657,0.045103297,0.05194744,-0.03861571,-0.010309107,-0.018554116,0.0066157775,-0.060274433,-0.115436,-0.022414915,-0.011843927,-0.01118237,-0.046127584,0.03284492,-0.049570106,0.0503106,-0.017469738,-0.049978655,-0.06365731,-0.0024074386,0.10170097,-0.08793466,-0.01023388,0.012948063,0.04092548,-0.045639805,0.050779756,-0.037568804,0.031804692,-0.09368178,0.097051986,-0.01064091,-0.016048117,0.08167896,-0.029511709,-0.1317976,-0.017273095,-0.021709708,0.0402801,-0.0017370894,0.057084747,0.0060893754,0.10579203,0.062625,0.004897613,-0.027738638,-0.08997724,-0.061100632,-0.01136081,0.014161834,-0.10703584,-0.12977798,-0.043459605,0.12455001,-0.029313907,0.03829216,0.057751864,-0.013238304,0.16248189,-0.12099448,-0.027753068,-0.05850366,-0.058754854
06d2b5ec5984610a164b2a5a50849286,0.027277043,0.026206259,-0.13099203,0.09098188,0.08474586,0.097911425,-0.18507494,-0.031130413,-0.07603074,0.04659877,0.07496855,0.21779133,-0.08729664,-0.12315599,-0.07913904,0.011500905,-0.05187084,0.096570656,-0.06851405,-0.032103125,-0.14103901,0.10575015,-0.15550202,-0.09730696,-0.016598595,-0.18741046,-0.068846785,-0.1682128,-0.058073618,0.019220376,0.02594662,0.10518763,-0.22153616,-0.09370754,-0.18795091,-0.07229869,-0.14909805,-0.16842243,0.037670854,0.073353305,-0.044931985,-0.09186145,0.23633166,-0.07928052,-0.013804433,-0.022704842,-0.00926356,0.035548724,0.0152600305,-0.15013207,-0.030988831,0.07747801,-0.11344192,-0.08338401,0.009389614,0.06358238,0.061860368,0.1809806,0.016423868,0.17383248,0.13821888,0.1525067,0.09922011,-0.052326832,-0.007609552,-0.03471218,0.06928923,0.022518694,-0.048764274,0.028823638,-0.062011976,0.025369808,-0.09191119,-0.16886055,-0.13415003,0.10711592,-0.13516332,-0.11129099,0.06311814,0.0045526773,0.1251979,0.032221727,-0.18784542,-0.10705832,0.062325258,0.15626131,-0.032376572,-0.02597399,0.020333247,0.058824774,-0.14259891,0.24633148,-0.13006994,-0.06399229,-0.18849345,0.22387661,-0.014002746,-0.018878102,0.09395644,-0.048609693,-0.2865351,-0.03191227,-0.07004689,0.062270295,0.008746852,0.09252581,0.015320813,0.1403717,0.10815002,0.013541948,-0.0034962844,-0.13383985,-0.07905505,-0.004640517,0.063596234,-0.17825957,-0.18065658,-0.081142776,0.1889877,-0.0019428371,0.12927887,0.11123489,0.01304755,0.2841683,-0.20206255,0.00757851,-0.20835447,-0.09541481
07847630596c7a55101a80f26819d93d,0.68537694,-0.05866508,0.16542768,-0.33528927,0.49140477,0.27866095,-0.21684581,0.18848483,0.07732881,0.056316864,0.49617413,0.28758487,0.74368757,-0.70232594,0.051109258,0.40397698,-0.091320865,0.19085547,-0.48262548,-0.16482101,0.39124852,-0.0150374435,-0.06904687,-0.8620703,0.06537699,-0.008187176,0.019284124,-0.58193237,-0.010203358,0.690146,0.08149605,-0.19182752,-0.09267543,-0.28661832,-0.1031001,-0.41005668,-0.39433312,-0.10643969,-0.4212601,0.31100067,-0.022526124,-0.3815411,0.05085881,-0.41930655,-0.2298765,0.8577647,0.35706672,0.4740453,0.3446181,-0.09261949,-0.013071448,0.17570065,0.27849475,0.2333758,-0.42036158,-0.30186397,0.25635257,0.6404991,-0.05689458,-0.1840507,-0.04306272,-0.28021553,0.064958215,0.28507024,0.04566841,0.57398146,0.02962103,0.21696496,-0.026491208,-0.3539504,0.737814,-0.04833353,-0.078645594,-1.2572122,0.3058665,0.041542318,0.3905215,0.03712838,-0.06427699,-0.51855254,0.26041973,-0.3354804,-0.073626235,-0.20497061,-0.49181983,0.73357916,-0.6142975,0.2522935,-0.4247646,-0.45124358,0.013481043,-0.2403988,-0.1840382,0.29756108,-0.2635831,0.42173,-0.26185557,0.0855161,0.09314277,-0.13347988,-0.9730957,-0.20308143,-0.3353392,0.07859148,0.21425577,0.11798229,0.21145561,0.7360484,-0.097572364,0.115513064,0.28622243,-0.8656052,-0.55571073,-0.033620466,-0.1506034,-0.5893958,-0.8670568,-0.009951509,1.2933344,0.16885895,0.009649088,0.10559722,-0.61226606,1.0621423,-0.4015444,0.0018249666,0.17885064,0.14232194
07940aac58f4b2e1712bc48a2470fcde,-8.129932e-05,0.030384548,-0.010677594,0.011405888,0.1031594,0.103838496,-0.0859618,0.0020546434,-0.007783139,-0.01653826,0.06662202,0.10760207,0.035769418,-0.09833827,-0.034945082,-0.020507421,0.0029474976,0.052219193,-0.03540444,0.0065466855,-0.075987756,0.005803251,-0.048684403,-0.0894534,-0.060427807,-0.065758646,-0.059524655,-0.042356085,0.012237492,-0.009359832,-0.0070824847,-0.0023968027,-0.028836507,-0.021020308,-0.069643036,-0.07551961,-0.059680052,-0.04612992,0.0141044045,0.035915934,0.0015796233,-0.06839645,0.11768425,-0.06785165,-0.031358574,0.048812523,0.0019287738,0.036510024,0.02486927,-0.087248184,0.00249596,0.034339365,-0.008465617,-0.04203563,-0.021397356,0.04683813,0.031306542,0.12176177,-0.012646345,0.09107183,0.09500831,0.06420896,-0.009645103,-0.015175553,-0.040836576,0.026340438,0.056825317,0.10631988,-0.03112866,-0.015865032,-0.038399793,-0.018915834,-0.06442596,-0.11611637,-0.025950529,-0.030008776,-0.009546162,-0.032571696,0.037391294,-0.0518539,0.020353142,-0.023526365,-0.061328407,-0.056584653,-0.020947037,0.089139,-0.10284583,0.008833463,0.02238658,0.023303026,-0.05062548,0.018842543,-0.029052354,0.041636776,-0.107554644,0.09727698,-0.007319058,-0.0026960138,0.08121073,-0.025784785,-0.1215341,-0.014426039,-0.04177814,0.043216426,-0.0021250986,0.086738065,-0.02975781,0.093739785,0.05526606,0.018557405,-0.02185413,-0.10263116,-0.067869976,-0.00884793,-0.0046526575,-0.12032023,-0.13876083,-0.019355386,0.1464096,-0.006202394,0.046272773,0.043403957,-0.040092196,0.14716344,-0.12807444,-0.033382587,-0.038817633,-0.04727239
079aaccc770e2019ad30c008498abd65,0.09503524,0.02651958,-0.15541047,0.04296282,0.050266635,0.103566945,-0.1853422,-0.15976806,-0.047827043,0.11838651,0.24190395,0.07383139,0.039354775,-0.15352719,-0.07017528,0.07919862,-0.07578649,0.17714144,-0.13768342,-0.15845202,-0.10001129,0.1259304,-0.248784,-0.14313398,0.033615243,-0.15390268,-0.19991761,-0.25543934,-0.042935386,0.096159436,-0.05971806,0.07860811,-0.19037132,-0.12408815,-0.050482444,-0.114065945,-0.080938645,-0.271072,0.10385509,0.11191761,0.015651966,-0.21253158,0.1882277,-0.088777505,-0.07265867,-0.10537932,0.027233554,-0.03298413,0.12837271,-0.1102786,0.008540028,0.17676741,-0.123380244,-0.2417355,0.18351473,0.014721581,0.09914002,0.12639102,0.04270271,0.2804495,0.19320835,0.16775484,0.17555214,-0.033477284,-0.061494928,-0.22948366,0.031749222,-0.15001577,-0.19363777,-0.07727448,-0.029822111,0.08981595,-0.049747624,-0.26741797,-0.05517873,0.011024222,-0.07605575,0.007731064,-0.08357882,-0.017769346,0.1368927,0.008539415,-0.069761254,-0.1362828,0.15101549,0.29619363,-0.0409779,-0.09348068,-0.016745644,0.09336157,-0.20990698,0.32851642,-0.1726363,0.23598161,-0.021420196,0.16252851,-0.05713727,-0.029670566,0.16294952,0.13397054,-0.17063224,-0.082654946,-0.16172095,0.089027084,0.019631643,0.02138942,0.06556757,0.23999724,0.12854198,0.06508325,-0.1315961,-0.09761057,-0.034507334,0.03946571,0.26249072,-0.2682582,-0.3214951,0.0027013777,0.12541336,-0.04684942,0.1488975,0.21773827,-0.051792,0.37715414,-0.20415588,0.0028759877,-0.26498124,-0.20868035
0808eb4e0b36adc2a7ad5b2adc99b3c2,0.011910903,0.055149943,-0.01995392,0.008114829,0.09763927,0.1506155,-0.12471349,-0.01255316,0.0004352295,-0.052401565,0.097674586,0.06895947,0.02407258,-0.10968264,-0.02680863,-0.040938202,0.0040289983,0.06342193,-0.040494774,0.014440755,-0.11917839,-0.0053297826,-0.07087835,-0.07343816,-0.039947495,-0.062212307,-0.10397114,-0.066118985,0.013539724,-0.026933545,-0.025893265,-0.00012196734,-0.0445111,-0.031410992,-0.09942185,-0.04500755,-0.054030456,-0.09785679,0.018326279,0.026271237,-0.012532121,-0.07803598,0.12719417,-0.054263175,-0.039333962,0.014516211,0.0292236,0.00835855,0.05396611,-0.116425425,0.003600346,0.05644463,0.0026636592,-0.07679476,0.01212169,0.07308554,0.033609606,0.08957907,-0.024517566,0.17946067,0.13220507,0.08102758,0.012593503,-0.05995018,-0.048414495,-0.022189252,0.068096474,0.06441417,-0.061139494,0.007164234,-0.062254004,-0.018589297,-0.06498934,-0.09912723,-0.036256388,-0.013318108,-0.032170832,-0.05859125,0.015737673,-0.06332121,0.03373205,-0.0018983233,-0.036731243,-0.048254017,0.0029737027,0.114614256,-0.114429675,-0.03598418,0.038949147,0.06169773,-0.05428259,0.05026197,-0.04479199,0.05676402,-0.057026066,0.07688534,-0.011254018,-0.023901265,0.1395923,-0.024214558,-0.123636425,-0.014399237,-0.0028152803,0.043613274,-0.027231272,0.05250416,-0.024575872,0.08986286,0.117797785,0.023067726,-0.060815353,-0.08607553,-0.042756956,-0.020203456,0.0469726,-0.13728279,-0.17395447,-0.022829007,0.11313434,-0.05534467,0.050153613,0.063903734,-0.036083695,0.15018025,-0.1543417,-0.036556814,-0.07917935,-0.058258403
087a8b987bfcb13e7e995bdeb4b90726,0.029365644,0.061418414,0.0023122672,-0.00950282,0.10149305,0.14878167,-0.107761726,0.00819687,0.011177174,-0.07012844,0.069763124,0.08468268,0.025536112,-0.10550068,-0.014467821,-0.052751176,-0.0095861815,0.040691473,-0.030617148,0.031129805,-0.10670167,0.0002469353,-0.06703401,-0.06999624,-0.051700395,-0.06808079,-0.107088506,-0.06128997,0.018342521,-0.03354611,-0.045222364,-0.008943867,-0.021063117,-0.033425972,-0.110917576,-0.04470257,-0.06016658,-0.08484966,0.013351925,-0.00034839805,-0.01716439,-0.06818043,0.14056376,-0.041151877,-0.021849008,0.017783593,0.05758101,-0.0051511647,0.047194827,-0.11708428,0.030047642,0.031399604,0.016389107,-0.03284691,0.0051320074,0.07025872,0.026359808,0.07579763,-0.022828216,0.17112987,0.12939128,0.06329394,-0.0044168136,-0.079350196,-0.053312883,0.0057552396,0.06936655,0.07401917,-0.06423017,0.018135557,-0.059135225,-0.009068403,-0.06309025,-0.06951988,-0.021447802,-0.009898094,-0.013608838,-0.083983116,0.023133121,-0.08255809,0.033785425,0.020205403,-0.02837794,-0.042659603,-0.00947611,0.114058234,-0.114678636,-0.044522107,0.041036937,0.079683706,-0.027837731,0.023314372,-0.019608041,0.028243214,-0.060445856,0.077881314,-0.008788146,-0.016820997,0.1396661,-0.04629693,-0.13147731,-0.024617799,0.028933086,0.03722884,-0.002438815,0.05494551,-0.022908574,0.06994101,0.106818214,-0.0052898284,-0.04445086,-0.09225601,-0.04301605,0.0006170383,0.024891,-0.10895592,-0.16932897,-0.050736297,0.12718451,-0.077281795,0.032292515,0.039648246,-0.025013,0.13698499,-0.15910049,-0.03291425,-0.051365957,-0.06924133
092e19c3294633a983811779058f0c35,0.025928026,0.073137455,0.007813571,-0.027544249,0.09550931,0.1505807,-0.09631152,0.0044571934,0.034383837,-0.06682478,0.08281967,0.071523756,0.026930382,-0.11176937,-0.0066121253,-0.021055898,-0.0073164823,0.038866017,-0.013731077,0.034331683,-0.119855404,-0.010386783,-0.053519618,-0.088868216,-0.055934623,-0.05870212,-0.09008387,-0.03453339,-0.0024056914,-0.020749835,-0.04132544,-0.015992627,-0.013236385,-0.013724452,-0.1029323,-0.054418925,-0.06590028,-0.0695602,0.039676502,0.017182164,-0.008558587,-0.050290097,0.1246842,-0.02399474,-0.042477854,0.013560459,0.019934399,0.0054606,0.02703417,-0.09794218,0.006308944,0.04958124,0.015337632,-0.04531275,0.011317124,0.05108868,0.04457793,0.07967105,-0.0063127372,0.15203227,0.12699068,0.06073171,-0.009032649,-0.05328722,-0.061084446,-0.0044269804,0.07040768,0.06834763,-0.05987483,0.020217014,-0.042573728,-0.023798488,-0.045712452,-0.07034056,-0.022673909,-0.00306052,-0.016191937,-0.05389874,0.018618843,-0.06896023,0.022697145,0.005382103,-0.01944107,-0.046559755,-0.017713817,0.11625254,-0.1290335,-0.025958432,0.008529492,0.06826411,-0.026938116,0.024595115,-0.008731325,0.062302727,-0.04967136,0.062769085,-0.011226515,-0.021289643,0.116841644,-0.031093687,-0.10732092,-0.01327512,0.01566395,0.025761463,-0.0016447441,0.063802615,-0.010500565,0.066285126,0.10578937,-0.005810729,-0.0536726,-0.08239989,-0.048600957,-0.01387569,0.0095034,-0.11726537,-0.14199187,-0.04606301,0.10516605,-0.087873206,0.01724071,0.034471445,-0.002095146,0.12860814,-0.12898886,-0.047463328,-0.06282048,-0.073570445
097c73de543218e2d0edb52d5333601f,0.0456191,0.08998222,0.0018391868,-0.0038035272,0.086128406,0.17040235,-0.12549806,-0.0027569311,0.03918154,-0.06933856,0.07402084,0.07975036,0.012848344,-0.1168321,0.00063995545,-0.06344144,-0.040148128,0.037979383,-0.025968976,0.036964457,-0.1494122,0.030901214,-0.09661416,-0.060421567,-0.072448686,-0.09904533,-0.13006626,-0.036484446,0.011274697,-0.025221732,-0.08151818,-0.023357622,-0.03684528,-0.031249765,-0.1435103,-0.039611463,-0.068906054,-0.12615296,0.019868031,-0.010056892,-0.0145696765,-0.077578135,0.1776968,-0.008679326,-0.022520944,0.01089962,0.06115171,-0.030143728,0.046853527,-0.14355218,0.04533726,0.03187785,0.005181179,-0.03387568,0.034587067,0.082951955,0.030191379,0.06553849,-0.0068330658,0.21722002,0.14704736,0.07218974,-0.0018213657,-0.11334838,-0.06678149,-0.025725147,0.06791136,0.030317195,-0.09671481,0.03032534,-0.07499056,0.010313883,-0.06828277,-0.05599702,-0.021163026,-0.017426547,-0.03070024,-0.09405791,0.00057921157,-0.09166924,0.0621376,0.03373809,-0.015388647,-0.069795705,0.017374985,0.13706116,-0.12260392,-0.0749993,0.061987802,0.10976526,-0.025366796,0.039334375,-0.020903733,0.049288128,-0.055821143,0.07076168,-0.03656285,-0.027424077,0.15004502,-0.040104043,-0.15543339,-0.016618587,0.0387433,0.030940214,0.007425441,0.059983477,-0.003415008,0.06364122,0.1322527,-0.031878922,-0.062426697,-0.06892744,-0.023716928,0.007335797,0.04438683,-0.11792858,-0.16832955,-0.06832727,0.10944854,-0.12120046,0.0054105343,0.040647276,-0.003983838,0.1462022,-0.16839884,-0.044303034,-0.07429318,-0.09934298
097d0891d4e3b47668d787792cfdf0ae,0.048522312,0.07965325,0.017437316,-0.049640555,0.06270035,0.15720609,-0.042038135,0.010284562,0.04134727,-0.061912358,0.08673488,0.047664694,0.051884662,-0.09044056,-0.02271955,0.02584651,-0.002213444,0.038582247,0.005896021,0.020059407,-0.07737078,-0.025937127,-0.04286528,-0.1339527,-0.028172314,-0.007340514,-0.043402765,-0.04529763,-0.04624932,0.04311921,-0.03206689,-0.038839314,-0.025525618,-0.0044836598,-0.08995339,-0.045248464,-0.06518296,-0.040041946,0.04988786,0.042912524,-0.015850062,-0.023682917,0.050221972,-0.019373748,-0.048153978,0.032150958,0.008121189,0.00374656,0.02839495,-0.0701566,-0.005674278,0.06479088,0.022646466,-0.0534803,0.021617126,-0.009184375,0.06321439,0.05962949,0.03266254,0.11188802,0.094376214,0.02982618,-0.0016974254,-0.03186573,-0.06206565,0.00027089793,0.0383203,0.0437915,-0.042480085,0.031064263,0.0034459224,-0.046281274,-0.0076333755,-0.04961533,-0.014459513,0.015967429,-0.017503634,-0.0037682885,-0.0018262018,-0.06965123,-0.021587795,-0.018625362,0.0039761392,-0.054220077,-0.04857824,0.11769547,-0.113921344,-0.0084283035,-0.03459485,0.016145725,-0.011022911,0.025666904,0.0052068722,0.10296412,-0.029344626,0.057505973,-0.0034885828,-0.0022593334,0.06367942,-0.019617239,-0.0935511,-0.0030251911,0.014737052,0.019372847,0.023187973,0.04238209,-0.0014395178,0.06613986,0.07137776,0.018773062,-0.04988586,-0.050788186,-0.03160591,-0.0033524113,-0.0036370445,-0.10158526,-0.10845438,-0.004316858,0.10847122,-0.086362205,0.020951387,0.01028648,0.024074068,0.1007944,-0.09688863,-0.015509297,-0.065986335,-0.053288594
09f623304b98d1bdc15ed33660ba337f29fa784f81e237b89d04c4f1a20d0d4b,0.03277081,0.040894084,-0.00021582883,-0.02207863,0.0477081,0.05754605,-0.06188526,-0.025123673,0.027254198,-0.0088475635,0.0702051,0.0256533,0.027608607,-0.07445079,0.006503516,-0.003123629,-0.022320658,0.035941612,-0.03358567,-0.017002031,-0.040509477,0.02315334,-0.05249751,-0.07051487,-0.033234216,-0.04515393,-0.072160475,-0.057433087,-0.015743045,0.017717028,-0.036121953,-0.0063559054,-0.00929597,-0.01648564,-0.038341485,-0.053255502,-0.030400388,-0.06122368,0.009309278,0.030838607,0.002288818,-0.055761155,0.0787485,-0.013786418,-0.032133117,-0.009538732,0.011834597,0.000432197,0.025452746,-0.0411672,0.01247628,0.054786168,0.014529407,-0.052649755,0.032533526,0.02929804,0.029967925,0.051437624,0.0151806185,0.09421557,0.07020162,0.021580415,0.0191874,-0.016894083,-0.043037914,-0.049840532,0.025504882,-0.0012159755,-0.057668563,-0.03059894,-0.008952649,0.01598007,-0.028784547,-0.07403523,0.009563568,-0.008129877,0.0076615857,0.003445572,-0.018277576,-0.039713398,0.025317363,-0.018118752,-0.010721671,-0.048997577,0.01588325,0.089920685,-0.07224799,-0.018603137,0.0034830312,0.048767496,-0.025177464,0.051421817,-0.019277338,0.08279818,-0.024561226,0.033094477,-0.017259402,0.0032962505,0.06593254,0.02351065,-0.069337815,-0.03796311,-0.017544538,0.025407493,0.005312034,0.020273449,0.0075243907,0.064099096,0.047148142,0.014098005,-0.032212015,-0.048070684,-0.016990554,0.00077165023,0.041615523,-0.09087149,-0.11824964,-0.00956281,0.0740873,-0.020729095,0.011548562,0.067648664,-0.02415154,0.10502893,-0.063423455,-0.018263923,-0.034238312,-0.07606946
09f83b8840be3869a1db8b8b49f2cb1fd0f8a04b9a0c09f56bdb54d272f8b788,0.031879853,0.0139992945,-0.14365964,0.0736577,0.068137504,0.083087824,-0.18226194,-0.16034195,-0.06857345,0.122269034,0.21475755,0.08643863,0.053077433,-0.13380376,-0.08655165,0.028003173,-0.029325815,0.18376625,-0.14199746,-0.14974238,-0.108268425,0.09319766,-0.20058355,-0.12833098,0.020933041,-0.14411479,-0.19780245,-0.22868629,-0.026325744,0.034610223,0.0007803032,0.07527692,-0.1451059,-0.09781506,-0.019964935,-0.11089729,-0.050908696,-0.20717438,0.058561694,0.13796741,0.008111884,-0.1969447,0.17397149,-0.1330028,-0.061565485,-0.1015452,-0.01733213,-0.006318229,0.1101467,-0.09042472,-0.032256477,0.16501984,-0.10473439,-0.25035945,0.120372504,0.0642968,0.085509315,0.15902212,0.023094743,0.20691927,0.15068227,0.16208065,0.15720813,0.0052198563,-0.060446855,-0.20075154,0.041451786,-0.041152976,-0.14228365,-0.10355452,-0.06500518,0.05375038,-0.097099066,-0.27453592,-0.08643784,0.0051753875,-0.060493708,0.018730829,-0.03593941,-0.0012889268,0.098760545,-0.009923363,-0.094369605,-0.12400368,0.13785253,0.21854474,-0.035098124,-0.057147678,0.016819904,0.06940355,-0.20575772,0.2856837,-0.17461981,0.18175882,-0.07318715,0.16341065,-0.013892913,-0.007396076,0.16595173,0.1274088,-0.14207174,-0.087383024,-0.20029281,0.094025925,-0.04574716,0.03147227,0.04122518,0.24025153,0.12573716,0.104628615,-0.114775464,-0.1278534,-0.05775853,-0.0044762054,0.2237899,-0.26768398,-0.31679872,0.01688571,0.13051632,0.042900234,0.16998234,0.21019292,-0.078648,0.3590397,-0.19721118,-0.006127101,-0.22700474,-0.15913329
09fd6ee7e78f977f4cb86d35f4550a8c,0.009845172,0.021918554,-0.0015366835,0.005738583,0.091547325,0.07664466,-0.072237484,-0.019518498,-0.01738087,0.0045514284,0.0654742,0.08989461,0.037984435,-0.093621604,-0.040527225,-0.014035678,-0.0034699796,0.04946237,-0.03401646,-0.012640351,-0.043617174,0.012156604,-0.039006505,-0.08196096,-0.053813342,-0.043806743,-0.06701663,-0.05769534,0.0013810981,0.0052881716,-0.013225383,-0.003284698,-0.015925024,-0.022318305,-0.059472654,-0.082546085,-0.042767588,-0.035066303,0.011265654,0.06272147,0.005537406,-0.078206725,0.118904546,-0.066955484,-0.03775752,0.023796663,0.0014772795,0.033364635,0.031133017,-0.072069,-0.0071170586,0.031392116,-0.009661267,-0.06578071,0.001882223,0.03223692,0.029222753,0.10184537,0.0062457193,0.063793376,0.076637164,0.05029494,0.005197852,0.002985464,-0.04238854,0.003656609,0.04076479,0.10092037,-0.037947774,-0.028248241,-0.03297615,-0.0064945533,-0.057510577,-0.124852076,-0.021876067,-0.021448283,0.0066558653,-0.008811414,0.02082429,-0.049803913,0.02753874,-0.028745785,-0.055244587,-0.056208163,-0.015454913,0.074040376,-0.075754374,0.008092828,0.019744035,0.021481356,-0.052806806,0.04371441,-0.041535553,0.0621809,-0.0878717,0.09641449,-0.007198491,-0.0018437412,0.06560016,-0.002366958,-0.09825005,-0.017767929,-0.048877694,0.0523949,0.003191915,0.062824935,-0.019220533,0.086547166,0.045802064,0.025687456,-0.038405508,-0.096689515,-0.047960732,0.0041991705,0.018896453,-0.11188851,-0.12974028,0.015594161,0.11990521,0.0021106086,0.049687028,0.044570956,-0.05053209,0.14263514,-0.111327074,-0.019509288,-0.02806893,-0.043768466
0a02f9f65079fc410334906886afb545,0.024493955,0.053583052,-0.014061871,-0.01267947,0.08138203,0.12004859,-0.0842156,0.0007893457,0.014673044,-0.03526429,0.07423345,0.07636771,0.0491179,-0.1076496,-0.017908327,-0.006224987,-0.0044237524,0.04755447,-0.040067364,0.014719031,-0.06825461,0.009580151,-0.058093946,-0.11094623,-0.03607757,-0.046377786,-0.055944547,-0.06399592,-0.015101084,0.018862823,-0.008412217,-0.004215441,-0.042551745,-0.03218478,-0.08409585,-0.0642174,-0.062361587,-0.053754993,0.020104636,0.03810432,-0.011356657,-0.06392069,0.09753492,-0.059729908,-0.049068574,0.035309743,0.02634632,0.035658803,0.038926277,-0.079660915,-0.0016742821,0.049905278,0.00054972514,-0.05270892,-0.005292856,0.029055046,0.047265083,0.10113282,-0.0020235423,0.108676665,0.09458797,0.053016625,0.012172099,-0.020609137,-0.03370703,0.0056819837,0.051068068,0.0678402,-0.04291046,-0.007996484,-0.0125660645,-0.02247646,-0.049006943,-0.11043377,-0.025155278,0.0007407268,-0.012997506,-0.032264005,0.028210673,-0.057913333,0.024021693,-0.026771069,-0.044784725,-0.04989386,-0.021179235,0.11027545,-0.101459704,0.00078548305,-0.0072672777,0.021961533,-0.04221078,0.050860915,-0.028639877,0.059118904,-0.07747848,0.09140876,-0.011118673,-0.006517226,0.090590574,-0.027783537,-0.14275733,-0.022614455,-0.018481528,0.029894678,0.008366161,0.06193732,-0.012198697,0.09277356,0.07643269,0.01349537,-0.02196877,-0.094059706,-0.06101553,-0.011161614,0.011693272,-0.12186647,-0.15414761,-0.019190855,0.13758363,-0.035373982,0.04521033,0.05013651,-0.020696543,0.15434273,-0.12129968,-0.022906896,-0.061183125,-0.048152443
0a1310fd4e68a3de2e57ce3f4888c81a,-0.30220905,-0.20073302,-0.1738535,0.28525534,0.22059153,-0.08934242,-0.05245372,-0.23470634,-0.24176255,0.34190944,0.32641175,0.2254419,0.28911477,-0.08500275,-0.3671049,-0.048076678,0.15744947,0.3848837,-0.22708571,-0.31442383,-0.032792423,-0.06434895,-0.07260628,-0.12976055,-0.055831257,-0.091084085,-0.19521008,-0.2228493,0.1774949,-0.08567961,0.17156123,0.07035305,0.00044010545,-0.030507522,0.21008082,-0.44881305,0.0624577,0.09779526,0.042224236,0.32817015,0.20606224,-0.3385649,0.12920864,-0.4457139,-0.15226397,0.012882909,-0.22260699,0.20429254,0.13838935,0.009912248,-0.12520291,0.15567425,-0.18843222,-0.4196418,-0.03833058,0.042208336,0.12559207,0.41324654,-0.067874074,-0.12879343,0.064346574,0.1939574,0.07969807,0.40778428,-0.0694354,-0.091940336,0.08435942,0.49035692,0.033398606,-0.35045576,-0.15558775,-0.116711766,-0.2248197,-0.63980573,-0.10229314,-0.2675612,0.06697973,0.27307796,0.052379515,0.04593602,-0.08112529,-0.26677668,-0.23554741,-0.1787712,0.036422998,0.052174583,-0.06574218,0.1843727,0.1252956,-0.15794326,-0.42363715,0.10971304,-0.24308832,0.3994982,-0.2249021,0.31119078,0.006547861,0.0805769,0.14004551,0.24870405,0.0175856,-0.055627897,-0.56611466,0.21152763,-0.17858663,0.16828237,-0.07821032,0.4677645,0.01291776,0.37186173,-0.21027862,-0.32149282,-0.20600185,-0.03260663,0.18498965,-0.4741184,-0.44324845,0.27888983,0.2486706,0.39413598,0.32190213,0.26374298,-0.328467,0.51670355,-0.17992176,-0.13395038,-0.055149075,-0.015616789
0a1830c9206118843062d06d668c89622b88bea97fdb189e80b060d50905e7e3,0.0011055092,0.00789628,0.012308127,0.014929578,0.07092695,0.07041528,-0.05329163,-0.009299307,-0.0034218256,0.0149058085,0.06365973,0.06570035,0.064513326,-0.083603494,-0.045463495,-0.02703279,-0.008052794,0.028562315,-0.024148935,0.0021820283,-0.033344653,-0.009369294,-0.021781474,-0.069012746,-0.054370306,-0.03047487,-0.06948553,-0.033680126,0.028045418,-0.019553011,-0.015145368,0.0015209066,0.0134131275,-0.005659936,-0.03683731,-0.0882765,-0.025124287,-0.027398985,0.006457048,0.045010235,0.02525984,-0.083811566,0.110282525,-0.04863033,-0.034662485,0.018072652,-0.0041429508,0.019129863,0.033812337,-0.03467609,0.020564742,0.011219609,0.00872868,-0.052422024,0.0056085163,0.035035115,0.018643042,0.091218464,0.000571045,0.05762417,0.08693266,0.043576147,-0.024292098,0.010548512,-0.048953634,0.008420577,0.034691237,0.10765075,-0.034222014,-0.035067458,-0.02712545,-0.010757349,-0.04039603,-0.09106843,0.0018452784,-0.065618515,0.021975243,0.0050759097,0.014380196,-0.053438034,0.000555283,-0.049916957,-0.04093808,-0.049206704,-0.017830204,0.054407664,-0.07577216,0.02030577,0.022758726,0.035021115,-0.03530674,0.009845036,-0.016743021,0.08973225,-0.053825818,0.05649883,-0.01871668,0.00521853,0.06467102,0.005447595,-0.051289544,-0.02993075,-0.037428565,0.03918962,-0.007734232,0.061428845,-0.026785353,0.059309565,0.03175503,0.014443684,-0.052607358,-0.06777298,-0.031703304,0.0089950645,0.01567216,-0.09506396,-0.1135339,0.032029252,0.0907932,-0.002000032,0.030668385,0.051331304,-0.06489749,0.12165028,-0.08283221,-0.038516622,0.0098974155,-0.03847574
0a8befffe85d17791a83d3a46dbcd271,0.011934387,0.030977406,-0.008544983,0.012844179,0.083840005,0.08464083,-0.082756944,-0.007832936,0.00279822,-0.011274835,0.062182628,0.07461533,0.037006743,-0.09138742,-0.027723469,-0.040607985,0.00029747523,0.04753866,-0.042127486,0.0026637004,-0.0728395,0.013082461,-0.050942726,-0.06892677,-0.049632642,-0.06731549,-0.087049134,-0.041466907,0.023891337,-0.020221516,-0.022840226,-0.009743636,-0.015812794,-0.023239441,-0.063158646,-0.069248416,-0.042256385,-0.056764364,-0.006329285,0.031523705,0.0014880899,-0.07884823,0.11972053,-0.05999528,-0.035494145,0.02839711,0.017800424,0.022850687,0.030218335,-0.07013614,0.013731509,0.027076224,-0.0039835437,-0.052244555,-0.007254125,0.058691215,0.0205472,0.092398494,-0.010308646,0.09422302,0.09122805,0.046314944,-0.0071482025,-0.018044772,-0.0377799,0.003532903,0.05247734,0.081597514,-0.03866615,-0.030595457,-0.040839475,-0.0064972644,-0.05162767,-0.10185684,-0.016645405,-0.031336457,-0.0061077173,-0.030102802,0.026290497,-0.057481367,0.03090063,-0.026026314,-0.045360927,-0.0452584,-0.0042416607,0.07485733,-0.081520885,-0.009040114,0.037093073,0.04648929,-0.04670524,0.028768051,-0.037908647,0.050102722,-0.070495255,0.06989409,-0.018649798,-0.013362833,0.0963512,-0.0102631375,-0.10360603,-0.027360965,-0.022654345,0.035194904,-0.013552899,0.04941092,-0.021738606,0.08436301,0.06370431,0.016317315,-0.0383792,-0.0909496,-0.042194173,0.0017016977,0.029307935,-0.105494015,-0.14911026,-0.017623207,0.10841067,-0.010521582,0.0366244,0.05899711,-0.042836916,0.14171268,-0.10370843,-0.029995058,-0.035015807,-0.045298845
0b6f94ccbe1d282fa632d43907932ec4,0.03690034,0.028065838,0.015293364,-0.033568047,0.053010788,0.068574175,-0.020729138,0.019255875,0.042472605,-0.017594406,0.046012007,0.055628162,0.040058646,-0.07728065,-0.01167026,0.051684592,-0.0042733517,0.013324655,-0.010350025,0.0010403995,-0.02082449,-0.0045935633,-0.013703095,-0.09109046,-0.03712141,-0.016266106,0.0023311034,-0.024386913,-0.03089433,0.05117721,-0.01936941,-0.040711474,-0.021020295,-0.027753094,-0.036854185,-0.05903446,-0.039043337,0.004022972,0.004461764,0.03769267,-7.41283e-05,-0.011859885,0.040135413,-0.016225692,-0.032713916,0.063639976,-0.006149339,0.0526216,0.0074294987,-0.027084837,-0.0032730596,0.026139623,0.012124041,0.0064567714,-0.026317786,-0.018925244,0.05891027,0.071601585,0.026112843,0.012758597,0.02552124,0.0032180406,0.0011118763,0.030130224,-0.025550975,0.036518574,0.017521035,0.05002877,-0.0010431373,-0.008514494,0.026321402,-0.01843622,-0.026423821,-0.08131902,-0.0026714539,0.009400018,0.006623039,0.0056965537,0.031511348,-0.05505153,-0.0009792346,-0.02604941,-0.01413945,-0.04987002,-0.051412646,0.067098565,-0.07322141,0.024931904,-0.028793158,-0.008593133,-0.019185081,-0.007063749,2.8871043e-05,0.047054436,-0.05256338,0.056581583,-0.022312967,0.0058317315,0.013495322,-0.034256514,-0.091982886,-0.0056897136,-0.011598077,0.019567082,0.03273726,0.047476996,0.008144675,0.07039701,0.022196965,0.017348565,0.0025641704,-0.080317006,-0.052226454,-0.0049373982,-0.033721562,-0.0655107,-0.06798746,-0.014104648,0.11790335,-0.034699276,-0.0017466381,-0.0016829113,0.0054833186,0.09682762,-0.04799329,-0.012976735,-0.028808195,-0.021346483
0bb2f4d84a08b94f4539a4615a6fadc2,0.0053674127,0.03808266,-0.012320399,0.00028230558,0.08726605,0.095175944,-0.10179305,-0.023012705,0.013814638,-0.007161591,0.0883452,0.08235348,0.048407048,-0.106696464,-0.0330453,-0.01794939,-0.012379367,0.0568505,-0.044403397,-0.006244202,-0.07387005,0.017093085,-0.052697737,-0.09406879,-0.056093663,-0.06936103,-0.079925805,-0.059812885,-0.0025509812,0.0028585491,-0.009395329,0.004403982,-0.01526804,-0.032384478,-0.05921071,-0.08134641,-0.038325068,-0.065847516,0.00471328,0.057946514,0.008529033,-0.08230359,0.12141159,-0.06330072,-0.047373638,0.027766718,-0.006996009,0.038522866,0.029772459,-0.076605305,-0.008916544,0.048864283,-0.0016854687,-0.06929301,-0.0013645636,0.056388643,0.03328641,0.1218999,-0.009148156,0.10586735,0.100225456,0.054642115,0.019730043,-0.0021694931,-0.043742824,-0.019867117,0.048985995,0.07756344,-0.046998296,-0.033502754,-0.025052793,0.00756234,-0.07048152,-0.13968046,-0.02583915,-0.030865261,-0.011813273,-0.019330347,0.015433961,-0.05252266,0.037416115,-0.033686325,-0.054873586,-0.06850556,-0.012061466,0.1068629,-0.10177021,0.0041854978,0.02401564,0.04386077,-0.05692991,0.049157433,-0.036589585,0.06999057,-0.08247171,0.08994187,-0.012790627,-0.003880048,0.09534805,0.0011585825,-0.1085509,-0.026062004,-0.060598914,0.05397496,-0.011479587,0.0589377,-0.0067645083,0.113035426,0.07029205,0.025770022,-0.04621659,-0.10387258,-0.069562234,-0.0024116721,0.03890461,-0.13909695,-0.17424276,-0.0009623525,0.13592209,-0.015663119,0.04708222,0.07105486,-0.043810472,0.184982,-0.12635869,-0.04396668,-0.06068709,-0.06880537
0bd8963ea2899b2d78d92e70d5bac4f2,-0.008922132,0.07869261,0.011893252,-0.006903274,0.08631891,0.1384152,-0.07679026,0.012618455,0.044601165,-0.063332826,0.048916176,0.08867594,0.005449195,-0.08208573,-0.029873071,-0.013572321,-0.003955412,0.03423992,0.005579451,0.026054114,-0.12695533,0.008907959,-0.044099,-0.08680158,-0.089204095,-0.05197329,-0.045643084,0.0007178045,-0.012697979,-0.020848399,-0.043390684,-0.02479396,-0.019522514,-0.010879999,-0.09273153,-0.056426346,-0.051088426,-0.051019505,0.049069826,0.021968339,0.004258824,-0.027827967,0.11265031,-0.014764655,-0.04939008,0.027468996,-0.0043733134,0.031767678,0.0018049171,-0.10003852,-0.0040806388,0.025440037,-0.011518858,-0.028663453,-0.004879975,0.054027095,0.051503353,0.08601409,0.008834614,0.12697937,0.10092399,0.05859954,-0.016320303,-0.030812811,-0.034729216,0.014404917,0.054889344,0.089354604,-0.026008774,0.027670365,-0.058630083,-0.02499774,-0.052766982,-0.05175006,-0.04624621,-0.019064637,-0.03454647,-0.05457188,0.047486022,-0.050409496,0.005647489,-0.0159271,-0.04037997,-0.06104159,-0.024479836,0.07537188,-0.10128733,-0.005774451,0.016252054,0.04591365,-0.039537713,0.017157763,0.0005628849,0.032496296,-0.09561589,0.08757214,-0.0014072601,-0.011854105,0.08017608,-0.046739224,-0.121307306,0.004538748,0.018366233,0.036169324,0.006362699,0.07946705,-0.015570225,0.07493362,0.088339455,0.0052540577,-0.04157549,-0.0773281,-0.05151457,-0.0089544775,-0.015632361,-0.0901995,-0.09970051,-0.045534547,0.10771376,-0.0699821,0.024856448,0.023035118,0.023579488,0.113809645,-0.119596325,-0.03566813,-0.07720881,-0.061435666
0bf493ef499bf4331f7f9ebd444553cd,0.03336876,0.067242965,0.026916819,-0.037666995,0.079871036,0.19894767,-0.071062274,0.026931401,0.0015577679,-0.089564405,0.09805638,0.04762963,0.1020771,-0.10337685,-0.0084600495,-0.03787011,0.018058013,0.044029277,-0.020306678,0.06037599,-0.05835663,-0.06363462,-0.036064267,-0.121449456,-0.0074235606,0.021622127,-0.08610493,-0.08679396,-0.0006808218,0.0022056487,-0.03155006,-0.03652748,-0.0055934973,0.025242021,-0.09602292,-0.031275697,-0.07265891,-0.048778474,0.05072194,0.01311126,-0.020499522,-0.06703475,0.074160986,-0.053343143,-0.02889291,0.03704791,0.06252226,-0.034957916,0.07460494,-0.078740686,0.03211905,0.042448767,0.07577494,-0.072775185,-0.002855493,0.0041434164,0.02831864,0.042631134,0.0042275414,0.1479752,0.14947103,0.04042087,-0.048801567,-0.06281048,-0.09337833,0.021424953,0.08120946,0.11678022,-0.0514743,0.035025008,-0.024786746,-0.06148327,-0.011358035,-0.060813796,-0.007896251,-0.018668972,0.0033930389,-0.02060374,-0.027748514,-0.09527528,-0.048498556,-0.026850788,0.0039912225,-0.026793322,-0.06686218,0.10781818,-0.1626824,-0.015578698,-0.001119504,0.017402682,0.017919611,-0.027117614,0.0061430335,0.11714832,-0.014523366,0.045819785,-0.013593396,-0.0023535453,0.11029445,-0.011001997,-0.08570223,-0.015475736,0.03230084,0.014309457,-0.0067184693,0.056812946,-0.052690186,0.034022238,0.0966145,0.019083511,-0.06161466,-0.04145709,-0.022372428,-0.018502953,-0.008503114,-0.1057207,-0.15781191,0.049997404,0.11287877,-0.08080552,0.04827883,-0.0026557122,-0.058859896,0.091502994,-0.11910191,-0.027975969,-0.0064470097,-0.017927453
0c3583b5cd35e822cc0d9f2fca77c3ee7fa7208e7028d3f38cc623f51e165218,0.26919508,0.3029393,0.1594811,-0.24561808,0.47083443,0.61897665,-0.12504762,0.06553395,0.2267925,-0.20486744,0.34477785,0.4726005,0.5473679,-0.5621797,-0.15355861,0.38863084,0.1313039,0.21753763,-0.0780305,0.019792642,-0.130106,-0.17806153,-0.07468288,-0.9278459,-0.1832086,0.07629447,0.08232196,-0.3437158,-0.2951959,0.4575378,-0.0027576925,-0.28234646,-0.19294782,-0.06909093,-0.29000026,-0.41935465,-0.45623866,0.13665535,0.07760357,0.39912346,-0.021674933,-0.15210323,0.11830872,-0.36587766,-0.38085952,0.53768206,-0.05296978,0.3609029,0.1743746,-0.14915062,-0.18414214,0.3555583,0.14445905,-0.1307084,-0.27159515,-0.24137929,0.46352705,0.6165015,0.19162767,0.056723807,0.26011026,-0.060259108,-0.042527415,0.3018306,-0.25271764,0.323884,0.13914035,0.62435776,0.07723251,-0.044709325,0.33993456,-0.30331448,-0.17621398,-0.7238385,0.01160198,0.114830956,-0.004530573,0.13502242,0.14274493,-0.3534163,-0.1737808,-0.3927424,-0.14442413,-0.3599551,-0.5502245,0.56248313,-0.74065024,0.26780468,-0.3165142,-0.3504641,-0.078582555,0.022724532,0.07116606,0.45622647,-0.4873968,0.5184174,-0.051905412,0.1144386,0.15087216,-0.13932036,-0.72140664,-0.02523517,-0.15925902,0.07411781,0.15367544,0.3503738,0.036820494,0.59766114,0.19032894,0.30643135,-0.0038311393,-0.58131695,-0.47308603,-0.11600601,-0.325205,-0.6114773,-0.64914805,0.08957988,0.98718166,-0.0710266,0.1563765,0.0332412,0.019714806,0.7896565,-0.34191674,-0.07708025,-0.1958682,-0.014151216
