type,x_0,x_1,x_2,x_3,x_4,x_5,x_6,x_7,x_8,x_9,x_10,x_11,x_12,x_13,x_14,x_15,x_16,x_17,x_18,x_19,x_20,x_21,x_22,x_23,x_24,x_25,x_26,x_27,x_28,x_29,x_30,x_31,x_32,x_33,x_34,x_35,x_36,x_37,x_38,x_39,x_40,x_41,x_42,x_43,x_44,x_45,x_46,x_47,x_48,x_49,x_50,x_51,x_52,x_53,x_54,x_55,x_56,x_57,x_58,x_59,x_60,x_61,x_62,x_63,x_64,x_65,x_66,x_67,x_68,x_69,x_70,x_71,x_72,x_73,x_74,x_75,x_76,x_77,x_78,x_79,x_80,x_81,x_82,x_83,x_84,x_85,x_86,x_87,x_88,x_89,x_90,x_91,x_92,x_93,x_94,x_95,x_96,x_97,x_98,x_99,x_100,x_101,x_102,x_103,x_104,x_105,x_106,x_107,x_108,x_109,x_110,x_111,x_112,x_113,x_114,x_115,x_116,x_117,x_118,x_119,x_120,x_121,x_122,x_123,x_124,x_125,x_126,x_127
003f3e6fc1634f4fc95c9a2e80bcf1fa,-0.0034531124,0.033365462,-0.09696033,0.06694723,0.08356812,0.10775765,-0.06667671,0.005683664,-0.023102522,0.00030670414,-0.0410582,0.17493337,0.016004037,-0.09773824,-0.023780359,0.020139825,-0.0055676405,-0.009663471,-0.050335173,0.025671758,-0.09679146,0.0058171065,0.010743759,-0.07499052,-0.034879375,-0.0464427,0.09353765,-0.07766109,0.039465692,-0.011836524,-0.026049854,-0.027576096,-0.08124773,-0.05806114,-0.070096165,-0.01582779,-0.027400553,-0.024834773,-0.011486692,-0.012545712,-0.026915304,-0.010424353,0.0874219,0.010436276,-0.07022475,0.023094246,0.022585884,0.043579675,0.055095807,-0.08116423,0.017701702,-0.051697884,-0.1231624,0.014558513,-0.026507087,0.029948145,0.07078795,0.07060474,0.031826317,0.00390679,-0.046880715,0.0878968,0.010588654,-0.019632312,-0.00884105,0.099290736,0.047467828,0.08849157,0.049534585,0.030879904,-0.0092414655,-0.11168461,-0.100882486,-0.116867915,-0.053991403,0.022329682,-0.037550736,-0.09212123,0.06581713,-0.06057552,0.05597367,0.04660598,-0.104371876,-0.05594203,0.007423026,0.07515585,-0.007620547,-0.022334082,0.042443447,-0.026537998,0.019078314,0.05350575,-0.04477693,-0.10324186,-0.15107106,0.10341037,-0.03982723,-0.06781623,-0.0011061006,-0.08470234,-0.10256854,0.006215396,0.037831653,0.04693625,0.0100117875,0.0739503,-0.007739037,0.08929086,0.07403074,0.027818998,0.014907376,-0.06426471,-0.08700281,-0.03983393,-0.034059122,-0.09837882,-0.051677946,-0.02033274,0.13073139,-0.0117190415,0.06554551,0.010181655,-0.018006498,0.12647855,-0.09526443,0.012818286,-0.083261,-0.007949386
003f7e2a32d6132d74bd1eafc793b6c1,-0.345223,-0.18160827,-0.22426805,0.29808822,0.120637365,-0.0010717486,-0.3508233,-0.063215956,-0.39890093,-0.15664664,0.0010041444,-0.019268135,-0.20718507,0.1261525,0.092875116,-0.5274235,0.14592949,0.23441081,-0.30385932,0.0687515,-0.25931504,-0.15627648,-0.088279195,0.36053646,0.27294463,-0.06692097,-0.37262458,-0.17990172,0.3460502,-0.6912299,0.27393332,0.18085954,-0.041261695,0.014121171,-0.14847422,0.34142274,-0.04520128,-0.13725904,-0.104700156,-0.18604816,-0.19341286,-0.09669722,0.057831675,-0.3422466,0.19188893,-0.1842476,0.1990556,-0.08607784,0.15608636,-0.377574,0.0617313,-0.049452923,-0.07548586,-0.26976445,-0.09188744,0.4697807,-0.25382116,-0.025751125,-0.39699823,0.4168262,0.058197115,0.27015305,0.043680917,-0.4243807,-0.029935457,-0.005843664,0.40596282,0.08616511,-0.107539885,-0.09328068,-0.5031112,-0.2855162,-0.27352214,-0.13505913,-0.1873412,0.071595624,-0.24328,-0.41894287,-0.08404346,0.16068396,0.15911743,0.25802124,-0.033898134,0.2200139,0.24613859,-0.073696874,0.045397505,-0.31820583,0.41841736,0.1502036,-0.037741307,-0.06910925,-0.2805486,-0.4268287,-0.054786697,-0.033584155,0.23585263,-0.14160231,0.5796397,-0.030481918,0.11681736,-0.15567654,0.018422594,-0.018012773,-0.590908,-0.1307657,-0.14344864,-0.029175546,0.39340773,0.057109658,-0.042933587,-0.02329414,-0.01149546,-0.25314462,0.2568629,-0.183395,-0.3712311,-0.090165585,-0.15584674,0.2904841,0.41190687,0.18077146,-0.29321375,0.033699755,-0.40068638,-0.1660624,-0.12574416,0.13650607
004b3dc6622a2a9374f6c289faf52d92c014452076d83648adf8e09d9ac82512,-0.024580898,-7.3896095e-05,-0.09585646,0.07296565,0.048308045,0.010213198,-0.07166695,-0.04635231,-0.042600717,0.04651565,-0.03764723,0.10840757,-0.028261935,-0.046958454,-0.0034030117,-0.027222384,-0.027296904,0.01621616,-0.08204482,0.0092225075,-0.044467222,0.024619402,0.002235989,-0.018841162,-0.0018602321,-0.036096886,0.027149512,-0.09509821,0.019081611,-0.013432837,0.0041833483,0.015913842,-0.05402605,-0.040479653,0.014741612,0.015451362,-0.0016715827,-0.036687776,-0.013176433,0.008350653,-0.031810783,-0.002364155,0.038273994,0.013331674,-0.045403507,-0.032558788,0.020605385,0.0009251129,0.029012736,-0.035404865,-0.013447054,-0.05011109,-0.090899825,-0.019167403,-0.009633139,0.035108417,0.0108700115,0.034490135,0.02725304,-0.004408292,-0.06808458,0.07113606,0.03229558,0.011040274,0.015724977,0.028082753,0.030247327,0.0066611166,0.023970552,-0.041689593,-0.00095005357,-0.052985065,-0.0796211,-0.074705735,-0.054746673,0.022531113,-0.020574013,-0.052600976,0.053307135,-0.03317833,0.07611035,0.058436397,-0.07371387,-0.035883233,0.035051785,0.017298594,0.05351484,-0.018158646,0.02176971,-0.008558201,-0.0041239928,0.06849118,-0.06317349,-0.10723437,-0.08168348,0.05626833,0.0082863085,-0.04005753,-0.014106536,-0.022539401,-0.03259045,-0.017274674,-0.0125865545,0.032147326,-0.006596887,0.020575473,0.0009606129,0.048683666,0.036238033,0.0028730691,0.03319563,-0.034056585,-0.042594984,-0.043981567,0.02419119,-0.045029465,-0.018409241,-0.009564238,0.053367265,0.039743546,0.042744268,0.0458394,-0.012722374,0.05196019,-0.036226224,0.049542576,-0.04582655,0.0032207393
0064bd63e7337da6616b0d6adb03ca99,0.0520963,0.13511765,-0.009180523,-0.01657747,0.14201969,0.16932581,-0.14872238,0.06724435,0.13353147,-0.10502438,-0.066125385,0.16954073,0.08990834,-0.19779864,0.06157017,-0.015760109,-0.022529807,-0.08438947,-0.07235717,0.14541759,-0.10690034,-0.0126882745,0.060880125,-0.14334357,-0.14653984,-0.08305455,0.06665453,0.048177995,0.08357416,-0.022354698,-0.10849289,-0.09704351,0.056625966,-0.04793821,-0.07810473,-0.06332414,-0.0162786,-0.044982746,-0.10588945,-0.062501065,0.0025139544,0.00060175057,0.12689467,0.095200956,-0.11338413,0.14735237,0.09130748,0.0657148,0.03153078,-0.030538227,0.056000587,-0.08242713,0.0052139987,0.13078529,-0.07722694,0.110934965,-0.0067724125,0.11097562,0.0062738885,0.06453453,-0.02983186,0.04340944,-0.0938562,-0.09119055,-0.028108057,0.13401945,0.012621605,0.06821201,0.06174977,0.030505909,0.06867667,-0.066667475,-0.11369949,-0.095911324,0.08763165,-0.046768293,0.09339964,-0.09476227,0.07550933,-0.1939696,0.05627641,0.031238005,-0.031060116,-0.08404353,-0.10401879,0.09957613,-0.08287177,-0.022092814,0.062100448,0.07404313,0.14395607,-0.07126379,0.04860108,-0.043632656,-0.13453916,0.011975105,-0.10199268,-0.088106215,0.045969177,-0.13912123,-0.096723475,-0.03637703,0.11866488,0.03429092,0.0523657,0.119934,0.022041883,0.09046219,0.054020707,-0.1059489,0.021664692,-0.10155564,-0.11476331,-0.00069532864,-0.054983944,-0.058931634,-0.095986806,-0.060744595,0.17777324,-0.13185322,-0.11609818,0.04972597,-0.048153657,0.11056409,-0.07701906,-0.05822365,0.035036363,-0.08419337
009ed622bf936a036828fab19ceb69d78264ab51507396a3809bbe947ddd9ddf,-0.064330466,-0.039415054,-0.087358505,0.07991785,0.0336007,-0.05944474,-0.0802798,-0.08991623,-0.06956993,0.058537964,-0.014573594,0.07089923,-0.061174136,-0.010183994,-0.0018566822,-0.07272377,-0.028457599,0.034654576,-0.09560626,-0.030756231,-0.033830862,0.06113486,-0.030397099,0.03993871,0.0004302021,-0.05634621,-0.061283607,-0.09013038,0.009839186,-0.035196263,0.00010281371,0.039764646,-0.006159725,-0.029722657,0.048520457,0.013605979,0.026391834,-0.037430234,-0.030141857,0.027774127,0.0014012002,-0.04457291,0.046805594,-0.010450589,-0.032914933,-0.063564174,0.0044539394,-0.010500701,0.01430843,-0.007541393,-0.029919105,-0.021533072,-0.05953165,-0.03894215,0.002069757,0.083885655,-0.03084747,0.03915385,-0.004686071,0.010281458,-0.049297426,0.056948263,0.026554937,0.039830126,0.018756941,-0.03947381,0.022775304,-0.013488385,-0.010352956,-0.10218338,-0.031109905,0.020779844,-0.06721597,-0.04418792,-0.039914776,0.00537089,-0.009859121,-0.049982194,0.06722795,-0.019380864,0.083390504,0.039233778,-0.06447923,-0.0064090467,0.058286875,-0.034931496,0.0709926,-0.01232137,0.014398419,0.028239537,-0.031657595,0.068444036,-0.0653119,-0.09918639,-0.04269773,0.03881977,0.031155998,-0.012569812,0.0031620031,0.024629585,-0.008641224,-0.021653205,-0.061162412,0.03954596,-0.034044374,-0.0015100244,0.00079548714,0.054862387,0.026790794,-0.006837565,0.033527695,-0.047669638,-0.012711421,-0.02627126,0.048755135,-0.026933337,-0.022415338,-0.016880173,0.020587984,0.07649046,0.027322605,0.08129147,-0.006574237,0.02791229,-0.035326682,0.033093184,-0.024564743,-0.0064151892
00bc7defa16eb3171966a8fb0e740750,-0.023661377,0.011034825,-0.12886631,0.08189693,0.070911765,0.08798263,-0.08660704,-0.009260289,-0.042808328,0.030405667,-0.044195287,0.15545316,-0.0027445434,-0.080174915,-0.0077458853,-0.017581888,-0.015842829,-0.0005041375,-0.08338571,0.027789151,-0.0976206,0.0013604077,0.013690923,-0.06742211,0.0040738466,-0.042873755,0.07883141,-0.10711539,0.04903833,-0.039561477,-0.0068774475,0.005463144,-0.09254342,-0.063868016,-0.041072547,0.018864963,-0.018403437,-0.036688767,-0.010280456,-0.012425424,-0.04990645,0.00991716,0.05951033,0.024963368,-0.060961615,-0.008190027,0.02901776,0.023434002,0.0626149,-0.07862797,0.012586702,-0.08129991,-0.1340149,-0.0029228865,-0.022920858,0.040357757,0.042319473,0.054281384,0.0254841,0.010638154,-0.076916754,0.093704075,0.030714665,-0.036516678,0.008705695,0.0820413,0.07195861,0.04701843,0.052566066,-0.00895013,-0.008400011,-0.12721655,-0.10563841,-0.116799235,-0.059988264,0.039043073,-0.048288785,-0.10068663,0.069295,-0.05683828,0.08111724,0.07617633,-0.10157351,-0.045896977,0.027254695,0.051546976,0.037112344,-0.03586226,0.062304154,-0.008538744,0.020493906,0.068825245,-0.07220055,-0.16031696,-0.13435824,0.10050249,-0.019528545,-0.07502668,-0.009808353,-0.06627966,-0.06974312,-0.011485068,0.035334095,0.045980938,-0.017812263,0.04529178,-0.022032138,0.06781087,0.07246453,0.028192867,0.04240273,-0.04668369,-0.07286154,-0.069163285,-0.006372541,-0.081591375,-0.029325372,-0.022820145,0.10127651,0.018774811,0.09302289,0.036982436,-0.034442455,0.106134534,-0.07818482,0.026250074,-0.08489437,0.0048329
00c7fd6908fc5a04ab47adc5c7829ca7,-0.01538673,0.040243957,-0.10661745,0.082105495,0.11266296,0.09660248,-0.0915433,-0.0140055595,0.0045052455,0.028440645,-0.04374568,0.20222004,0.0065195705,-0.124249406,-0.025935033,-0.00041248446,-0.04229776,-0.006209946,-0.07093628,0.027667254,-0.11370028,0.031902075,0.008759705,-0.09235011,-0.08673531,-0.084633425,0.08766498,-0.08338792,0.029109307,0.0022985293,-0.06781697,-0.0152023975,-0.066647895,-0.07242214,-0.02434544,-0.04099091,-0.01128134,-0.047033444,0.0014310334,0.0071347714,-0.004293652,-0.014295074,0.11366504,0.058382045,-0.11490571,0.013749,-3.4521858e-05,0.051735234,0.046757553,-0.05755516,-0.0006189488,-0.07804544,-0.14086235,0.021562539,-0.0061288397,0.049809042,0.07214862,0.10088322,0.068533204,0.00916446,-0.05705629,0.11299744,0.02155784,0.009852236,0.006193238,0.07314644,0.03263666,0.06649957,0.06873961,-0.0010473263,0.005126605,-0.09076864,-0.12768185,-0.13837041,-0.05086812,0.002239888,-0.02341934,-0.08520874,0.10817503,-0.101331316,0.090576366,0.04706857,-0.12096175,-0.089122005,0.013525684,0.057651564,0.03024434,-0.0028633869,0.030967053,0.0039598867,0.010726636,0.082210936,-0.058902826,-0.11948676,-0.1584004,0.1260198,-0.049303588,-0.072858796,-0.042509597,-0.09173773,-0.09539076,0.009252447,0.022325113,0.091628775,0.05032565,0.104240395,-0.019979373,0.12384819,0.061181635,0.0070189983,0.029522235,-0.0724518,-0.091096826,-0.04113671,-0.028819587,-0.09296457,-0.035170563,-0.035223812,0.13944723,-0.02633188,0.033143762,0.04383086,0.016011601,0.14258419,-0.08675198,0.044349257,-0.0817726,-0.020241411
00d50962dce0b43d78a3a5e830255150,-0.043519117,0.0076221237,-0.09920827,0.089475006,0.078954324,0.05008224,-0.10682487,-0.0266608,-0.048129268,0.011928979,-0.037926756,0.1179087,-0.022596039,-0.058588248,-0.0010027869,-0.067930065,-0.015316163,0.011281148,-0.08772148,0.0151153,-0.10343847,-0.0029632403,-0.0003844162,0.0056315833,-0.016179932,-0.061877456,0.014084562,-0.08991378,0.070223644,-0.07618443,-0.021987556,0.0058632665,-0.04769359,-0.04895859,-0.020196347,0.015969943,0.0056618107,-0.045050535,-0.021069353,-0.012767877,-0.02352486,-0.014156473,0.066167474,0.018607337,-0.05192722,-0.022574736,0.026736654,0.018338202,0.044389606,-0.072530776,0.014687309,-0.057823677,-0.10723379,-0.025913881,0.0065516382,0.087986305,-0.0036247661,0.046258897,-0.006841539,0.048977043,-0.046603404,0.08622905,0.024265472,-0.03397601,0.010842031,0.04166851,0.06580559,0.03336363,0.031955864,-0.028749423,-0.053444475,-0.08497867,-0.10001211,-0.08506375,-0.04369386,0.0017024312,-0.024014274,-0.100915246,0.061141845,-0.037726253,0.086095795,0.07221579,-0.06849044,-0.021683015,0.047544926,0.021175388,0.038535494,-0.033678617,0.07671923,0.024415372,0.0075803935,0.046984218,-0.06608757,-0.1307812,-0.08859279,0.058030892,-0.008722642,-0.060073014,0.02517997,-0.04907267,-0.033460066,-0.01156513,0.029206775,0.04860954,-0.037993997,0.032847002,-0.024755975,0.056747966,0.086751886,0.007196039,0.02345656,-0.038122803,-0.049770262,-0.065055266,0.0163222,-0.071542755,-0.051566765,-0.024668703,0.05680976,0.017338421,0.05603005,0.047545444,-0.033116218,0.07555039,-0.093302935,0.0066753877,-0.064756475,0.0025202893
00f83a459e206283925ff0c2ac976d23,-0.004410468,0.03553504,-0.049041107,0.030649593,0.06619609,0.02109398,-0.07141432,-0.018492563,0.02140329,0.018293563,-0.03449335,0.09460998,0.0006600481,-0.07954698,0.023392655,-0.024303103,-0.03675474,-0.024230061,-0.057379626,0.01736725,-0.04847259,0.02624908,0.015322056,-0.030662337,-0.065980695,-0.056996062,-0.0037550724,-0.021520738,0.035779927,-0.00027177887,-0.060311392,-0.028433466,0.014979318,-0.027967047,0.02150728,-0.020955967,0.030250754,-0.034207474,-0.03814387,-0.010556744,0.007248291,-0.020490019,0.06230238,0.055385385,-0.06752317,0.012673885,0.027349887,0.016741809,0.01687047,0.003579748,0.010634596,-0.05800285,-0.030591998,0.029004985,-0.00039130557,0.07024926,-0.018361194,0.050126653,0.016968384,-0.0012426407,-0.050874602,0.028344672,-0.006223081,0.0029842514,0.001095466,0.027291166,-0.0060382746,-0.008658176,0.011996073,-0.040125225,0.019724786,0.004425289,-0.060721625,-0.03622536,0.02479146,-0.01931737,0.037836336,-0.04492463,0.065337114,-0.07837849,0.07007914,0.033517137,-0.026379982,-0.03475195,-0.0012913775,0.014224722,0.014594955,-0.0030489906,0.011286325,0.047988098,0.03820701,0.014891889,-0.0155475745,-0.052196518,-0.05794721,0.013077538,-0.033631414,-0.035319842,-0.011700612,-0.029830435,-0.023527734,-0.01667992,0.018596558,0.03146159,0.027953388,0.030804083,0.0063843033,0.049609777,0.025195306,-0.038353823,0.027567625,-0.058240563,-0.036996372,-0.015678851,-0.004306799,-0.017397666,-0.008400678,-0.024613751,0.062041696,-0.026490927,-0.046220716,0.055988703,-0.0088563645,0.03807545,-0.014784224,0.01374663,0.013370362,-0.030965306
014cd58f9fe4febcfc159ca9b2253c65,-0.03120415,-0.021681078,-0.12190766,0.10307952,0.078988686,0.028543234,-0.08686544,-0.042839617,-0.0731656,0.049483232,-0.038818836,0.1494958,-0.025313841,-0.053505976,-0.032589007,-0.02644446,-0.025299603,0.037985887,-0.09367034,-0.019153785,-0.08255833,0.031227544,-0.0062302933,-0.022165524,-0.004175455,-0.058691677,0.04339659,-0.09698099,0.03627126,-0.035749275,0.00041006584,0.030090401,-0.08427142,-0.068910696,-0.007027385,-0.0015597511,-0.007954429,-0.042886574,-0.013751872,0.004328392,-0.026914282,-0.023567688,0.06575213,0.007575704,-0.061281517,-0.029543081,0.015039825,0.023036206,0.04299086,-0.07271976,-0.008139618,-0.048723124,-0.14732167,-0.022446537,-0.012741032,0.057241395,0.03452843,0.06287033,0.016307183,0.010679014,-0.05864256,0.105245195,0.05145349,-0.0067840335,0.020029312,0.042971816,0.054214504,0.04460868,0.034154717,-0.030925576,-0.032998126,-0.08027275,-0.114193365,-0.122804336,-0.0756495,0.021887789,-0.04816858,-0.099987805,0.07895192,-0.038538802,0.10978775,0.058879014,-0.11615923,-0.039645717,0.052465092,0.0324268,0.056646053,-0.028373538,0.041311566,-0.0054309154,-0.019671636,0.089740634,-0.08710715,-0.14272794,-0.13542102,0.11335487,-0.008595375,-0.058195863,-0.006164987,-0.049435075,-0.07731717,-0.008949732,-0.0150136,0.05955967,-0.016118947,0.049788374,-0.0141000785,0.08617839,0.07154087,0.03000962,0.025380496,-0.064111754,-0.06859077,-0.06426957,0.02391738,-0.07422095,-0.04017022,-0.030572955,0.07740555,0.03245964,0.0806978,0.061015755,-0.0044417484,0.10287454,-0.083991244,0.02953253,-0.10101454,0.015986923
017662f941ebe50c7e0d3fd9a826144a,-0.007477288,0.013213779,-0.10033539,0.07237449,0.06301264,0.0874207,-0.049882825,0.0010317982,-0.031736042,0.02580649,-0.04750329,0.15872207,-0.0005399852,-0.078214824,-0.026847139,0.029957274,-0.006788435,-0.00711668,-0.048128292,0.016124925,-0.08598214,0.012162942,0.018479818,-0.07624979,-0.020645358,-0.035024345,0.11513264,-0.088493705,0.033793002,-0.008411367,-0.011143744,-0.00940738,-0.100081384,-0.07233944,-0.038668137,-0.009223136,-0.028754342,-0.020951688,0.006805198,0.0021797167,-0.04126698,0.014396727,0.0680924,0.025944524,-0.059329554,0.01049295,0.006606779,0.028859608,0.038764987,-0.062426314,0.005722675,-0.048836444,-0.13573277,0.01835653,-0.008201163,0.010579211,0.07630335,0.049057655,0.055101648,-0.013026202,-0.05307576,0.086495586,0.035881948,-0.010129184,0.016184155,0.07357979,0.03224015,0.06503134,0.061282612,0.030495657,0.007740728,-0.11056384,-0.07932071,-0.10343001,-0.06419481,0.033888582,-0.04326321,-0.06664094,0.066026025,-0.048841875,0.06261369,0.055670146,-0.10915096,-0.055456515,0.0234353,0.062745936,0.03699711,-0.013299482,0.032694917,-0.025571376,0.012483803,0.073065415,-0.048952024,-0.12321961,-0.13941453,0.10585878,-0.042548582,-0.065716,-0.036496643,-0.07208731,-0.08631497,0.012488195,0.03735976,0.0491808,0.011428043,0.063453324,-0.0034800984,0.08152893,0.051925674,0.03287377,0.024508126,-0.0452399,-0.071466826,-0.052002657,-0.015469917,-0.08335631,-0.007621316,-0.014020321,0.10189847,-0.0025201591,0.07900562,0.012140868,0.010611777,0.10279634,-0.0604038,0.03168634,-0.10297366,0.0019887849
018b04599563dbb78f5dec1ae033b293,0.04257584,0.012702655,-0.08680911,0.046021435,0.07866178,0.071129076,-0.08059447,0.018322196,0.007243748,0.030293113,-0.041667078,0.17344986,0.03278437,-0.10215109,-0.0054450002,0.058232866,-0.019449413,-0.030662877,-0.0684579,0.03132905,-0.041565217,0.018122017,0.032511763,-0.120304,-0.050694343,-0.050729237,0.12307131,-0.067882404,0.031100549,0.05578242,-0.003482098,-0.026920523,-0.06917168,-0.092552274,-0.028721035,-0.054198254,-0.034417175,-0.022413101,-0.043090716,-0.0067813667,-0.03354599,0.0066369832,0.06783315,0.037388325,-0.07403649,0.07452928,0.02883235,0.06900965,0.04026831,-0.031060664,0.004556084,-0.06621376,-0.11250952,0.062974386,-0.06349382,-0.0016466774,0.05135524,0.09082282,0.04577538,-0.045909017,-0.084013455,0.054436985,0.013820864,-0.0006157436,0.037907764,0.10733457,0.02012057,0.037310444,0.07732381,-0.00044507737,0.067824356,-0.082217336,-0.07903699,-0.13813972,-0.03197585,0.037307203,-0.0010126533,-0.07874809,0.07528271,-0.077747494,0.08629289,0.031237412,-0.108711235,-0.05473757,-0.029615171,0.085042365,0.013795256,-0.0023624003,0.00088671944,-0.022814633,0.032741435,0.035991862,-0.044321924,-0.09861644,-0.14774519,0.10550423,-0.06377238,-0.05063521,-0.050530884,-0.09221891,-0.13179797,-0.01442701,0.017163945,0.04221762,0.054013234,0.061814472,0.019209035,0.0964998,0.014063664,0.001337974,0.061511204,-0.09910149,-0.109848164,-0.057404518,-0.03675352,-0.08741911,-0.028525563,-0.035280116,0.16679427,-0.013379293,0.017524093,0.033425942,-0.029541373,0.12021976,-0.046608366,0.025253737,-0.043619778,-0.014412466
018f728ff1ade3660da7de6802c5fdbc,-0.032279227,-0.0033901073,-0.12682132,0.097016,0.09076643,0.03785269,-0.11971572,-0.03958678,-0.04275403,0.028124588,-0.034655415,0.16706897,-0.016878443,-0.082259916,-0.0022950713,-0.059914086,-0.032760166,0.029213231,-0.1123173,0.0058283997,-0.0989015,0.025309281,-0.0056472123,-0.038755145,-0.040095843,-0.07646577,0.006036464,-0.09915576,0.057866726,-0.044324726,-0.017544689,0.019460509,-0.051860306,-0.07353984,0.0010456695,-0.004022746,-0.0028384945,-0.06516948,-0.03872289,0.0044713514,-0.019064752,-0.022902988,0.08742427,0.012961577,-0.079148285,-0.009847501,0.030814901,0.0231212,0.04664348,-0.06825047,0.0029848304,-0.05986454,-0.123022,-0.01997741,-0.02050546,0.0837855,0.0047357455,0.0875616,0.0021785062,0.029045803,-0.05499845,0.10254814,0.035320327,-0.0075438856,0.023694213,0.035718717,0.055496067,0.029235087,0.035596523,-0.058386184,-0.023976063,-0.06364876,-0.114701115,-0.12367921,-0.0598457,0.0031464377,-0.013328068,-0.10747744,0.09446452,-0.061464224,0.12149552,0.06755149,-0.11239302,-0.047761194,0.042269524,0.027760625,0.047230408,-0.025014363,0.05477002,0.023563745,-0.0010862012,0.074830465,-0.07911809,-0.13385561,-0.12366642,0.094645165,-0.00559169,-0.06307128,0.005709485,-0.041292842,-0.076471075,-0.017644186,-0.010332889,0.068634525,-0.011419013,0.04736218,-0.021681119,0.0950827,0.07497577,-0.0019463333,0.026854968,-0.0776263,-0.07010634,-0.050833546,0.03038639,-0.090781815,-0.0656399,-0.032043647,0.10636382,0.025420219,0.052530993,0.07995623,-0.02477154,0.11503839,-0.090073705,0.025197461,-0.061604574,-0.0061619384
01c8543fd256a60a2124e5a949f1f3b4,0.008945694,0.034660317,-0.09562172,0.06557355,0.08379017,0.09843871,-0.10331696,0.011198772,-0.009199336,-0.00025893768,-0.044636894,0.1526064,0.011589345,-0.096381165,-0.004574009,-0.009912966,-0.012139055,0.00019242521,-0.066895254,0.046674266,-0.11342231,0.0022055088,0.006913667,-0.06616814,-0.045611635,-0.068171576,0.059956696,-0.06222998,0.05726264,-0.043226138,-0.025716143,-0.01591417,-0.07117125,-0.065692104,-0.066605665,-0.024712395,-0.014144614,-0.058818392,-0.01680188,-0.01707744,-0.037160352,-0.011066605,0.09881343,0.035084408,-0.06446361,0.02945423,0.033017635,0.040944286,0.045019332,-0.07884895,0.02699153,-0.055360373,-0.10667377,0.021465484,-0.018524379,0.046772685,0.03819863,0.07414641,0.0077064796,0.039807256,-0.031159867,0.10235978,0.01897191,-0.04723392,-0.0067986134,0.065313585,0.03919976,0.048175935,0.04862855,0.017125154,-0.0075108404,-0.105498865,-0.10303852,-0.12292752,-0.033349846,0.0008282748,-0.025123648,-0.10824508,0.0656197,-0.08249135,0.08908564,0.06347137,-0.10030109,-0.059448548,0.0069310595,0.08126775,0.008088158,-0.045881156,0.06611226,0.008647869,0.019583553,0.06201904,-0.051859677,-0.099745855,-0.13848369,0.088222034,-0.044277936,-0.0694177,0.023427503,-0.08216821,-0.08622848,-0.009979486,0.042840157,0.044734847,-0.0036831754,0.076473676,-0.0018509505,0.08716325,0.0816147,-0.0065052486,0.014443396,-0.049337443,-0.07299519,-0.041482482,-0.0020873952,-0.091821626,-0.06510567,-0.037625022,0.12191225,-0.032220144,0.05188561,0.033711564,-0.034725398,0.12602341,-0.09970017,0.0042201434,-0.07393406,-0.022661489
01f9c8db52f8edb462478310cfed7a23,0.01715426,0.045164846,-0.09871915,0.054203406,0.101034716,0.10914156,-0.08080353,-0.0020009698,-0.0073722135,0.0064133997,-0.024427602,0.17516583,0.020217448,-0.12299503,-0.028002858,0.0039230348,-0.01634485,-0.005442292,-0.05441363,0.027048344,-0.09568318,0.01740074,-0.0010003288,-0.090980984,-0.05742104,-0.063267656,0.07097722,-0.07868636,0.04728404,-0.0011432306,-0.042518456,-0.015188107,-0.075335845,-0.05429164,-0.053605158,-0.038721792,-0.025356906,-0.044137325,-0.010726214,0.0043184897,-0.015612398,-0.028432036,0.09528708,0.022767901,-0.07261109,0.02836816,0.023464566,0.034679577,0.03958973,-0.073606074,0.025948633,-0.04967036,-0.107501455,0.0021175558,-0.013860614,0.036266282,0.053311218,0.08169649,0.041099776,0.016362013,-0.023704883,0.087739326,0.024505915,-0.012535427,-0.0003147723,0.07359495,0.034716208,0.07697232,0.050387364,0.008143796,0.003280963,-0.085425384,-0.09085317,-0.11680751,-0.025551323,0.00034657575,-0.014802052,-0.07106698,0.08362491,-0.08218862,0.07188653,0.04771507,-0.08260155,-0.06730798,0.002088209,0.088865966,0.0003269188,-0.015263292,0.037283506,0.004234169,0.0058155907,0.058602773,-0.03795488,-0.08955978,-0.12561107,0.10820081,-0.05760663,-0.05565468,-0.008755356,-0.07226354,-0.10191088,0.0096558435,0.038961913,0.053585943,0.02912101,0.085293986,-0.01180123,0.096292675,0.06666813,0.0039842995,0.0128707,-0.07628045,-0.075418815,-0.029020894,-0.0134186065,-0.09439722,-0.05653036,-0.020708665,0.12972777,-0.031944405,0.031006293,0.015812587,-0.014734092,0.12935543,-0.08139058,0.0185737,-0.07790523,-0.020841194
020ffd8294b9c0bd4f6127b06fccffae,-0.027564438,0.00396895,-0.11975911,0.09035588,0.07567625,0.032121517,-0.06080471,-0.0320812,-0.05005225,0.037342336,-0.04917832,0.14165948,-0.03294143,-0.06838113,-0.0026276605,-0.021950439,-0.02759126,-0.001912778,-0.06737029,-0.009217725,-0.0784419,0.011964997,0.011483036,-0.012863429,-0.01918436,-0.042875696,0.063805915,-0.08671802,0.053031392,-0.02579008,-0.027902143,-5.8006364e-05,-0.058493838,-0.058896184,-0.0077289995,0.00629744,0.0018044654,-0.024741368,-0.014736349,-0.010998342,-0.022846239,0.0057284967,0.057097297,0.049920343,-0.05450669,-0.03381619,0.012581709,0.016628264,0.046205647,-0.048234936,0.018436952,-0.07031731,-0.14701569,0.0065078484,0.0066606533,0.04604793,0.02200525,0.038372796,0.050707,-0.015445131,-0.08539044,0.069748856,0.03936593,-0.0057498477,0.02262703,0.049104173,0.03332146,0.015152128,0.03576851,-0.021823827,-0.004476655,-0.08470293,-0.08827178,-0.08655175,-0.049832787,0.018655306,-0.034060486,-0.089694425,0.080702014,-0.04976259,0.08680214,0.06588603,-0.0912728,-0.033375103,0.046186443,0.027439961,0.07172851,-0.027634723,0.044211708,0.01506168,0.0028081157,0.074587464,-0.065295145,-0.15038076,-0.10857694,0.07318777,-0.027493766,-0.069336355,-0.020923693,-0.053851523,-0.04713221,0.00509206,0.022214338,0.04693812,-0.00066638296,0.039729074,-0.0140410345,0.062467195,0.048911422,0.017503865,0.040436193,-0.041354816,-0.062653296,-0.056810774,0.0045285234,-0.052306395,-0.0020141425,-0.03314175,0.06543772,0.020452097,0.055800594,0.042825315,0.0052090962,0.07182722,-0.048168916,0.04587249,-0.07362792,0.009913787
0257ff0237e869e4b31d18322ec19b90,0.0064513795,0.0733156,-0.09481364,0.06794287,0.119740136,0.1445997,-0.11029257,0.012122629,0.028439978,-0.010636642,-0.043561567,0.20306678,0.033680815,-0.14902066,-0.014449751,0.008337302,-0.015450504,-0.0050186664,-0.070750356,0.050672106,-0.12860076,0.0069516175,0.0015292927,-0.12781644,-0.08326072,-0.08839353,0.07269847,-0.04855666,0.02754178,-0.010610244,-0.05776132,-0.021411441,-0.082382225,-0.070716195,-0.07187747,-0.046887867,-0.023574196,-0.07462793,-0.018993946,0.004913506,-0.017390328,-0.017794734,0.118322045,0.050817337,-0.11013731,0.051342063,0.021043478,0.044018485,0.05520969,-0.065454304,0.01926647,-0.051246066,-0.1014655,0.01729276,-0.027118947,0.043930445,0.05555506,0.10713106,0.03855439,0.0685631,-0.014950829,0.111569084,0.0013456182,-0.019687388,-0.010850885,0.062266927,0.028328098,0.07863018,0.06978478,0.023053734,-0.00057263003,-0.09718727,-0.12638067,-0.134295,-0.03983066,-0.0068317153,-0.015856422,-0.08585275,0.090848826,-0.11136392,0.07437981,0.043752793,-0.11639039,-0.10773803,0.0010384192,0.092315435,-0.01175955,-0.02533907,0.046197098,-0.0031008807,0.016104419,0.07201251,-0.04466491,-0.0723759,-0.17633477,0.10785067,-0.05953702,-0.07268752,0.004242522,-0.10067135,-0.11704571,0.008398743,0.021012388,0.07495548,0.049473744,0.10976333,-0.01556135,0.11553965,0.08138857,-0.011781588,0.012580319,-0.063897304,-0.08501942,-0.03059388,-0.016536944,-0.109405145,-0.063578814,-0.027558167,0.15520665,-0.05979745,0.021978091,0.030253338,-0.012785938,0.15899238,-0.10345567,0.0036564465,-0.085500255,-0.039554276
02ad7b97d9f5c9d33e6fcb0feff3a3ac9e0d05972248e74d4074f79ce1aa89bf,-0.043831497,-0.029136363,-0.10705874,0.09499022,0.052892797,-0.0055339416,-0.07109971,-0.061395228,-0.07395734,0.046228573,-0.02473396,0.0986703,-0.049416568,-0.03024944,-0.016220931,-0.054353494,-0.010877777,0.035957094,-0.0863162,-0.0263632,-0.064590625,0.014369893,-0.005854236,0.025848845,0.014810013,-0.034225848,0.0036758678,-0.10879032,0.033433855,-0.053926814,0.018829104,0.026622027,-0.05917729,-0.04122716,-0.00032347557,0.025485907,-0.002047882,-0.028995689,-0.008798084,0.00939619,-0.03635349,-0.019561164,0.052815698,-0.018906325,-0.028251108,-0.04522063,0.015806498,-0.0021491125,0.040523324,-0.06051444,-0.010681293,-0.04910186,-0.09965922,-0.04124816,-0.011427536,0.070069306,-6.8892754e-05,0.033261385,0.0022199664,-0.00061659486,-0.05649818,0.074491955,0.03793633,-0.00474815,0.015692506,0.016978266,0.04747018,0.031465746,0.0054261945,-0.055246748,-0.039927095,-0.058892813,-0.07561374,-0.07407779,-0.070506014,0.030581616,-0.04735934,-0.0816546,0.060404982,-0.009613316,0.08802295,0.060590923,-0.073724635,-0.010541411,0.06198483,0.010080878,0.051976398,-0.022775881,0.03997595,0.0025407164,-0.022561159,0.05627012,-0.08794621,-0.13337032,-0.084300295,0.074924015,0.013956942,-0.047597177,0.00656027,-0.01864323,-0.025086664,-0.011332093,-0.0179856,0.043047544,-0.052331403,0.018807992,-0.020405715,0.05486544,0.057284698,0.029134773,0.026074352,-0.04324428,-0.03469363,-0.052572396,0.02362815,-0.06155986,-0.037607253,-0.008638237,0.03992933,0.061420865,0.08538504,0.05234006,-0.025225503,0.05301501,-0.06959006,0.030244676,-0.055676293,0.029172515
02b016d43b493b4c25bdd1bdba58c199bb43c764c0363e7ea4abe14ca71f6f02,-0.03543532,0.05984736,-0.18690372,0.14787933,0.16496958,0.14926912,-0.17771725,-0.033409424,-0.01379011,0.02621767,-0.064880714,0.26856813,-0.017277481,-0.19144604,-0.029902985,-0.05819693,-0.060303144,0.023367904,-0.13452446,0.05330426,-0.20092873,0.04224032,0.010859002,-0.09729952,-0.08976252,-0.12684783,0.06493168,-0.115506604,0.0743813,-0.06212686,-0.07777739,0.008702565,-0.08761923,-0.078222096,-0.032288123,-0.026827589,0.000440506,-0.12653868,0.0070918896,0.001041149,-0.026220238,-0.019622287,0.17314929,0.08881236,-0.16467926,-0.0137172565,0.026108641,0.043197013,0.067473345,-0.11173616,0.012092482,-0.10300015,-0.18571702,-0.02666837,0.019667273,0.11894779,0.048459157,0.10895211,0.03671253,0.10880158,-0.057446945,0.19177192,0.03712243,-0.02414868,-0.0069047767,0.06028099,0.07213081,0.057100713,0.07579576,-0.021962104,-0.041835155,-0.12730503,-0.18632855,-0.17902152,-0.087556034,-0.010666548,-0.020929575,-0.15203005,0.1337147,-0.12662476,0.15282539,0.104153566,-0.18134026,-0.116203725,0.08124627,0.060883865,0.055206086,-0.047614206,0.08356074,0.042988013,0.0037631686,0.13663185,-0.11646467,-0.16799568,-0.21797395,0.1474435,-0.049876936,-0.1030583,0.0032435406,-0.10239502,-0.10024637,0.0058644004,0.020000095,0.14054766,0.0085014645,0.12158435,-0.05022318,0.16060944,0.1265569,-0.020409148,0.010011276,-0.07864653,-0.116829745,-0.06868747,0.031289246,-0.14540887,-0.057727512,-0.038270574,0.17069486,-0.035042197,0.06604645,0.09779971,-0.012085072,0.1823987,-0.15104584,0.036040105,-0.13518476,-0.04847827
02b51f81f1f26d649e555052d3655dbcb1af8dca97f2d1ad461b4ca73f1f31a4,0.051706553,-0.41703922,-0.32761928,0.41349426,0.17693344,-0.1585589,-0.19285953,-0.083146505,-0.5444512,0.23330767,0.12707882,0.36444527,-0.08411782,0.038951773,-0.5130375,0.027417433,0.014872361,0.43422002,-0.19115834,-0.36206773,-0.1713883,0.25867322,-0.36049697,0.100601554,0.00093749067,-0.42114225,-0.00614388,-0.15520392,0.19506522,0.06244809,0.27624616,0.2758233,-0.48263362,-0.3909348,-0.111786895,-0.21733305,-0.1911017,-0.280059,-0.035071485,0.20483372,0.0055156536,-0.34132043,0.27355072,-0.4837953,0.13571255,0.170171,-0.072803915,0.25072476,0.16672248,-0.2894667,-0.15600915,0.12599157,-0.5766001,-0.03613869,-0.07821918,0.16571538,0.27661556,0.45261186,-0.19712333,0.022374429,0.07600938,0.47310784,0.32568577,0.014788848,0.33027485,-0.10631406,0.037434362,0.15801175,0.11004255,-0.014036114,-0.21089579,0.004989861,-0.36532742,-0.7269714,-0.49500775,0.05542966,-0.40102476,-0.28760123,0.19870874,0.109267876,0.43948317,0.044734992,-0.68577296,-0.08464681,0.30612263,0.2642651,0.19890584,-0.07830343,0.027774215,-0.31731766,-0.50033444,0.48055512,-0.436134,-0.27395916,-0.52459806,0.8049031,-0.0408236,0.008554777,0.23106538,-0.09762457,-0.6577233,0.17988144,-0.5279191,0.18118368,-0.06754703,0.25611627,0.041800905,0.5822286,0.06861721,0.21393548,0.005215307,-0.456058,-0.30358684,-0.05159371,0.30999118,-0.44533327,-0.32866445,-0.19266413,0.4516526,0.30429617,0.48874998,0.16247083,-0.10994999,0.73879564,-0.47252905,-0.006693451,-0.6194539,0.043724384
032a439627f738fecd72d71fd28c5b56,-0.04285297,-0.031549077,-0.12497115,0.10427333,0.08127761,0.017102333,-0.08393769,-0.04961647,-0.08134111,0.0522834,-0.027028354,0.1352058,-0.033757348,-0.051170383,-0.025821002,-0.04939789,-0.030460766,0.03773389,-0.09311211,-0.027552204,-0.06961977,0.023666255,-0.0076898267,0.0108996,0.0050716605,-0.06817495,0.00943769,-0.110404894,0.051369626,-0.046845578,0.0088497745,0.031147948,-0.07659023,-0.070623174,0.0027775182,0.011324993,-0.0066047423,-0.039366856,-0.015739014,-0.0041470136,-0.024189068,-0.026984228,0.069687605,-0.006548433,-0.05007094,-0.03578482,0.02002316,0.01808983,0.051437076,-0.0595976,-0.0055050813,-0.06144018,-0.13022229,-0.031608492,-0.00947725,0.077779,0.008237003,0.05418348,0.015816158,0.0011611114,-0.058984585,0.09245664,0.052678652,0.00040914465,0.021305967,0.036915276,0.0660276,0.038315482,0.027361851,-0.0534565,-0.0312048,-0.07264868,-0.09384908,-0.1202101,-0.07396967,0.017292853,-0.051053874,-0.095790066,0.0724966,-0.031828176,0.11070751,0.06503903,-0.1030597,-0.031192606,0.06411345,0.023070829,0.06124622,-0.028410237,0.042091083,0.009495667,-0.031595014,0.07452731,-0.099524066,-0.15111895,-0.111157835,0.096714705,-0.005870497,-0.062855914,-0.0027321735,-0.03739372,-0.065442465,-0.006001374,-0.016863715,0.051013716,-0.03784278,0.038626537,-0.024636123,0.08714059,0.05909705,0.035200074,0.025661862,-0.06793718,-0.057750728,-0.06388568,0.026545338,-0.082703546,-0.041146133,-0.024178484,0.07083187,0.04824869,0.07770184,0.06402663,-0.013867485,0.084592156,-0.08907296,0.029580224,-0.08255688,0.011427054
03b3b43ca40f505de2f059d56477f15c,-0.025156474,0.042185407,-0.10509366,0.0934964,0.115235835,0.10843649,-0.09028569,-0.019744808,-0.02484954,0.012738647,-0.04247575,0.20284693,0.016999466,-0.112985805,-0.028272538,-0.0057381224,-0.0154656535,0.015029603,-0.067939185,0.02356291,-0.111494906,0.019500589,-0.00079711364,-0.08653205,-0.05872631,-0.06726451,0.07224006,-0.09634292,0.03461832,-0.015288595,-0.039494257,-0.0021614674,-0.08313394,-0.07346106,-0.04760008,-0.022177497,-0.03267493,-0.045773517,-0.010761317,0.0088476,-0.028082235,-0.022199435,0.11245691,0.02027136,-0.08744804,0.011832939,0.005250367,0.03476143,0.06221088,-0.07430811,0.0014224586,-0.06195169,-0.12314886,0.001298748,-0.024524005,0.05377001,0.05915299,0.08676417,0.03299881,0.027417373,-0.035078667,0.11909854,0.023390565,-0.0026964427,-0.0026621388,0.07568105,0.057079952,0.07870929,0.053963356,-0.0011380019,-0.026130276,-0.10426097,-0.13066347,-0.13229418,-0.06860633,0.016179834,-0.025265321,-0.09623699,0.08980018,-0.080048606,0.08715803,0.054459278,-0.115316294,-0.076532416,0.021699345,0.06801802,0.014987822,-0.017016374,0.050094023,-0.0035372498,0.00016194314,0.08647307,-0.06855807,-0.11637131,-0.16143598,0.12945575,-0.036491007,-0.07273662,0.0010253615,-0.08339874,-0.10459368,0.006832532,0.005289057,0.073222764,0.011258048,0.096381135,-0.015250199,0.11674318,0.082740515,0.01033815,0.017904365,-0.08000412,-0.07779992,-0.046319418,-0.014878911,-0.11232388,-0.063065976,-0.022474974,0.13262357,-0.01060108,0.060557064,0.032723226,-0.005455165,0.14143574,-0.10260956,0.019982532,-0.098983824,-0.0048436862
03b544f462bc9c6226ea4886084050074806439962eea99c59d3f2e5fa8e88f2,-0.021449987,-0.0114643155,-0.12099981,0.07843055,0.06648936,0.030382706,-0.07910388,-0.05046705,-0.05008931,0.049582288,-0.032860555,0.14299633,-0.020989038,-0.05175511,-0.018998494,-0.016602324,-0.025079897,0.020930229,-0.082991496,-0.0021228646,-0.056975894,0.014777708,0.004336321,-0.040885154,-0.00037082727,-0.036713675,0.04095466,-0.11603821,0.024613151,-0.019011263,-0.0061519775,0.012115531,-0.06907602,-0.06529221,0.0019218423,0.0166122,-0.008924642,-0.037611883,-0.015043879,0.009163929,-0.030453254,-0.0033084976,0.055269293,0.014684158,-0.052643783,-0.03746784,0.017216992,0.012811468,0.038327742,-0.051885102,-0.0038897132,-0.053815514,-0.11252751,-0.027180014,-0.012764399,0.033042524,0.020648414,0.04023128,0.034916956,-0.011597818,-0.07094031,0.08072609,0.043279093,0.02110702,0.02250411,0.04382701,0.030500866,0.018898612,0.034030598,-0.037262447,-0.0054875556,-0.07598628,-0.08098953,-0.10125844,-0.057525694,0.03891276,-0.023559073,-0.066918455,0.06212253,-0.041614503,0.081925444,0.062061124,-0.09360957,-0.038309664,0.04683171,0.025879642,0.05830108,-0.016415033,0.02083468,-0.006094315,-0.0032447877,0.084547214,-0.07186751,-0.13224754,-0.09636476,0.08154277,0.0036048312,-0.048054457,-0.032814883,-0.030502494,-0.04732373,-0.017763715,-0.0015579158,0.05088488,-0.0006741772,0.027031707,-0.0033254062,0.06596207,0.051199544,0.022528471,0.033868287,-0.04401169,-0.052937873,-0.06593026,0.006072357,-0.057334546,-0.0154512925,-0.00988397,0.07041815,0.038457125,0.06683843,0.049488757,-0.014732163,0.072365426,-0.059686307,0.05054876,-0.074092016,0.017247915
03ee77cc35efb49aa6db392247d242d6,-0.05605889,-0.025299152,-0.11445658,0.10240689,0.07425739,0.0094371885,-0.08827737,-0.047079932,-0.07719232,0.041892875,-0.02293007,0.12299888,-0.04506743,-0.036408674,-0.014629902,-0.043209985,-0.005470638,0.02660978,-0.09118399,-0.017084517,-0.06844249,0.013566827,-0.0064748935,0.0038386888,0.015133979,-0.05347911,0.01405852,-0.10911475,0.053801246,-0.055748865,0.02623163,0.02229779,-0.061315548,-0.05498649,-0.018618306,0.016697416,-0.006131408,-0.031057127,-0.021400588,0.0018371905,-0.036618385,-0.01938688,0.061189916,-0.023907099,-0.028164484,-0.03972338,0.021319045,0.018020948,0.052202147,-0.07462723,-0.0026501124,-0.047747884,-0.119692296,-0.0358213,-0.013508291,0.06614292,0.013445954,0.05480237,0.0051004174,0.014599057,-0.0666024,0.09453618,0.046536397,-0.016085045,0.022699129,0.03986297,0.06520546,0.03393282,0.02643374,-0.04860509,-0.046473775,-0.07903701,-0.10176351,-0.09808831,-0.0697778,0.027392117,-0.05399442,-0.102588244,0.06809646,-0.00995283,0.094637476,0.0696732,-0.09440992,-0.019898107,0.054695282,0.013294185,0.05154841,-0.02758006,0.044592783,0.004703538,-0.015477774,0.070144296,-0.082551934,-0.15034595,-0.10589643,0.08927617,0.01221811,-0.052492503,0.024426296,-0.026300926,-0.05703793,-0.00784299,-0.011195811,0.047517598,-0.04077826,0.018330323,-0.02368826,0.06985919,0.06512937,0.026617972,0.040080078,-0.04668742,-0.047841724,-0.05803526,0.01965663,-0.06352177,-0.043205418,-0.02119364,0.056495152,0.056447975,0.095214374,0.05484682,-0.027453704,0.074416205,-0.079170175,0.02463386,-0.07515649,0.019319894
0424586cc6ae1f3a30e811665fcc4b934fd7cc8a2b084934fbd1bcd1fd48df25,-0.02518072,-0.012158343,-0.101885,0.07048299,0.027254026,0.014104401,-0.08663022,-0.05290094,-0.062142212,0.034678202,-0.019422965,0.085849,-0.031940125,-0.032181267,-0.006287234,-0.0582149,-0.011808891,0.036189936,-0.0869854,-0.010717015,-0.041304417,0.023793964,-0.010422824,0.00010565162,0.021161038,-0.04382736,-0.01830327,-0.10160894,0.026467266,-0.030006954,0.023021884,0.03847181,-0.044900157,-0.029078307,0.011873559,0.031549208,0.0066616307,-0.038471367,-0.018462764,0.015761888,-0.033799365,-0.016486486,0.038242508,-0.0019522377,-0.025625682,-0.04924912,0.02239944,-0.0051257275,0.04002957,-0.03372277,-0.022193909,-0.03746965,-0.06582427,-0.04305459,-0.008360273,0.06262233,-0.008439273,0.03643501,0.0010618337,0.0044125477,-0.043034483,0.07235359,0.03795157,-0.00092928746,0.017642634,-0.0055259517,0.033753976,0.0046116947,-0.0012454021,-0.047456235,-0.019440237,-0.02935788,-0.072877035,-0.060880482,-0.057561956,0.028103879,-0.011549446,-0.06402809,0.043512624,-0.017811162,0.071871735,0.046753287,-0.06841421,-0.015422276,0.053968515,0.007001441,0.049222015,-0.030927883,0.025031578,0.0021463663,-0.017427389,0.06489346,-0.074082196,-0.108129784,-0.057983607,0.05282108,0.02999827,-0.031534176,0.010410898,0.00067211693,-0.020402733,-0.03186993,-0.018461235,0.025760299,-0.037892118,-0.008526761,-0.01277228,0.03738111,0.04998628,0.005813803,0.025364662,-0.02721711,-0.028157672,-0.054642983,0.043363523,-0.04125216,-0.041357562,-0.00430712,0.034435645,0.06122144,0.053656105,0.05501314,-0.024287557,0.05023539,-0.05289843,0.039632503,-0.04689579,0.011351894
0446ae8ec2d513bc52974a8231649b2c,-0.030717112,-0.01940137,-0.07008304,0.07617857,0.07163265,0.014115168,-0.07953709,-0.004008233,-0.034812156,0.013578293,-0.04809788,0.118142925,-0.012299443,-0.04590978,-0.008158171,-0.013633984,-0.0077433735,0.014525571,-0.061226092,0.016268836,-0.07001208,0.016660124,-0.0048911516,-0.010362346,-0.031515505,-0.07206313,0.044521123,-0.026539752,0.049333014,-0.030032298,0.009643831,-0.005723034,-0.033393793,-0.06178605,-0.034554347,-0.020397559,-0.008680268,-0.017381681,-0.02919651,-0.014191701,-0.011139298,-0.0055395537,0.065566145,-0.005287529,-0.036205433,0.024136908,0.009531831,0.03856193,0.03451859,-0.041451544,-0.004960803,-0.054016657,-0.09633461,0.028137693,-0.03686688,0.06266987,0.015675537,0.07228495,-0.010766086,0.019984374,-0.047370836,0.072020985,0.017936131,-0.03380485,0.025045406,0.052348316,0.033450406,0.053664673,0.04413281,-0.015021051,-0.022825103,-0.056817144,-0.09226938,-0.09448207,-0.056112316,0.013364983,-0.03725993,-0.09550509,0.07729494,-0.035379957,0.08298458,0.0432665,-0.09405696,-0.024443464,0.007639953,0.024422897,0.022273703,-0.032177098,0.033563882,-0.005667694,0.0031538785,0.03267074,-0.04013854,-0.11206397,-0.12602665,0.07910902,-0.021890717,-0.058662318,0.020458682,-0.06391509,-0.07001424,-0.00088668225,-0.0047207307,0.04538148,-0.019299606,0.05369287,-0.003563287,0.07512466,0.04716764,-0.0045204307,0.02055501,-0.06232458,-0.06321017,-0.042544004,-0.002590141,-0.064161554,-0.04759147,-0.042725045,0.08371839,0.015759422,0.03319166,0.047192764,-0.018803695,0.09857609,-0.070166446,-0.009712468,-0.052228507,-0.0066133994
044eaf948c12e75d6d92e9a8bbfd7cde,-0.04059883,-0.010735272,-0.09070951,0.07955825,0.066354655,0.027204119,-0.0945731,-0.030344352,-0.056414157,0.012803443,-0.033104528,0.10585261,-0.023964029,-0.04891223,0.005916275,-0.056377754,-0.010780121,0.011297639,-0.08469528,0.004297928,-0.07282038,0.011863677,-0.007631053,0.0022004116,-0.009485241,-0.05604554,0.004067849,-0.08047294,0.060580723,-0.06814577,-0.0044473996,0.004003976,-0.04127411,-0.037442196,-0.020308724,0.0155743295,0.004720441,-0.035799157,-0.026626362,-0.015528019,-0.027389193,-0.015176003,0.06737049,-0.004402291,-0.035763785,-0.008674661,0.030918146,0.0127628725,0.03804759,-0.06678495,0.012813672,-0.049351823,-0.093480386,-0.0107093165,-0.020859463,0.07578009,-0.0048175324,0.053763334,-0.005359048,0.026433427,-0.04484995,0.071137875,0.017379707,-0.026378749,0.0065122936,0.04136286,0.06567562,0.04665982,0.017941691,-0.0346966,-0.041491207,-0.07282659,-0.0885677,-0.09623033,-0.039805915,0.007918837,-0.024519319,-0.09653138,0.057729878,-0.045351423,0.07690943,0.050645012,-0.07310832,-0.015593134,0.035620145,0.01737682,0.027153164,-0.030789161,0.056304213,0.025827585,-0.0010782351,0.041613117,-0.0630609,-0.1236529,-0.09087174,0.056105956,0.002705935,-0.057436287,0.029810099,-0.046605606,-0.04409632,-0.02615577,0.015954705,0.031208998,-0.04826583,0.033184715,-0.01972854,0.052996475,0.06701391,0.008391164,0.024977708,-0.06036833,-0.056973115,-0.052694846,0.009175808,-0.067717336,-0.06137462,-0.030449497,0.07221489,0.03768698,0.06291152,0.056197267,-0.025421139,0.06397759,-0.087110214,0.014492367,-0.04269301,0.009282523
04d29fee25ab668406ab8e49c4f7a990,-0.07252239,-0.04166309,-0.20275557,0.1445952,0.07508928,0.0058336696,-0.06834823,-0.06636331,-0.12801181,0.077103205,-0.058649104,0.17152046,-0.059898984,-0.034076735,0.009113751,-0.035899114,-0.010221151,0.016328067,-0.10430791,-0.02360013,-0.060789466,-0.012895922,0.026401043,-0.0069356253,0.06358847,-0.0017168729,0.089131095,-0.19216467,0.04707463,-0.066308424,0.04811268,0.041273005,-0.11148116,-0.08005862,0.014421285,0.08593441,-0.025129091,-0.009824944,-0.008155607,-0.012799239,-0.086266935,0.037565656,0.022900783,0.0145023735,-0.058288816,-0.09433279,0.027145833,0.023081606,0.06590899,-0.07481737,-0.0025062857,-0.10252596,-0.19326745,-0.048352614,-0.014881573,0.04645846,0.0050465027,0.012985986,0.059382956,-0.064347066,-0.16176175,0.08288743,0.06563599,0.010735374,0.049785487,0.08751414,0.09452112,0.035239965,0.07016761,-0.08336034,-0.02613415,-0.17244494,-0.09841455,-0.11478374,-0.10494363,0.09636827,-0.091543876,-0.118863694,0.070677966,0.008099773,0.10601731,0.10801555,-0.09762938,-0.013968852,0.074575245,-0.0050419383,0.1045802,-0.027393708,0.051680993,-0.01975133,-0.0014293632,0.08036743,-0.1280354,-0.25365105,-0.111094855,0.100178465,0.033289075,-0.09007328,-0.047955427,-0.023301104,-0.026837805,-0.026409348,0.018432042,0.03956635,-0.07217531,-0.016501669,-0.041404884,0.060872465,0.075047515,0.085962735,0.081582114,-0.049112942,-0.055590987,-0.12721318,0.003014812,-0.064212844,0.024617465,-0.0033176048,0.040018193,0.104136415,0.15202382,0.075679116,-0.016381986,0.052953873,-0.053092077,0.063669115,-0.08262119,0.073598646
051a74d370c049e56396b9420df284d4,0.01227878,0.038681038,-0.09306639,0.06457898,0.06791424,0.0916034,-0.06684801,0.018387193,-0.020297414,0.019300265,-0.06193702,0.16062193,0.019725462,-0.09090375,-0.030094203,0.043973904,-0.016816866,-0.002621226,-0.047467034,0.0396284,-0.0856436,0.01774022,0.01779984,-0.10728526,-0.039311394,-0.039866693,0.124649316,-0.061348498,0.015752599,0.010545774,-0.009340031,-0.008701448,-0.102620006,-0.07203002,-0.06562817,-0.0098310495,-0.025786623,-0.029749047,0.0014954107,0.0047799204,-0.03528024,0.017317489,0.06072512,0.035905648,-0.06301483,0.034616157,0.013321752,0.036990333,0.04838476,-0.061135214,0.0041499007,-0.051010277,-0.13244948,0.018506467,-0.02413067,-0.00044386816,0.07019472,0.07277833,0.0548952,-0.0038170158,-0.04788039,0.08781073,0.01855092,-0.023738297,-0.004362295,0.087008,0.023771247,0.054197684,0.07630104,0.03985229,0.016588986,-0.12370528,-0.090342075,-0.115486205,-0.062628105,0.04093954,-0.032745793,-0.08253207,0.06363672,-0.07033814,0.065810524,0.04723124,-0.11532069,-0.07467241,-0.0010400523,0.07580434,0.011687568,-0.018186647,0.03290908,-0.02960545,0.026669342,0.06687738,-0.052223124,-0.1156899,-0.15413478,0.10212625,-0.0344288,-0.06400183,-0.032420773,-0.09388852,-0.08735706,0.0069656055,0.03928394,0.048194308,0.022605317,0.07585547,-0.0007600145,0.08773181,0.055743452,0.024684146,0.022692773,-0.05237834,-0.07641833,-0.045739718,-0.024919797,-0.07618005,-0.024134323,-0.020520095,0.11897329,-0.017143998,0.057203315,0.005636465,0.0019933318,0.11463193,-0.07195654,0.03256254,-0.096683346,-0.011928963
052055c5202730d16d4117083db7a74c,0.053370144,0.05811452,-0.068150215,0.05659553,0.07842844,0.051407065,-0.12991832,0.021821726,0.05748068,0.003074666,-0.15663832,0.20889965,0.032288298,-0.1538958,0.02931091,0.078193784,-0.05925629,-0.07911529,-0.08821368,0.07915886,-0.113683924,0.06924908,0.039525546,-0.099211335,-0.1223165,-0.12500589,0.17836015,0.0037399367,0.058935672,0.027357697,-0.04494424,-0.07821417,-0.045959312,-0.0937226,-0.09794199,-0.029679904,0.00542154,-0.016733559,-0.09622309,-0.04554019,-0.021358585,0.02571803,0.12046516,0.0743022,-0.07822226,0.1299342,0.042775907,0.07030612,0.028893426,-0.020927517,0.03868571,-0.13256797,-0.14804046,0.15557194,-0.08207265,0.062448625,0.052052263,0.112669714,0.037839547,-0.05089859,-0.10764882,0.07903592,-0.0035539034,-0.08699697,0.035137046,0.14207679,-0.0076013985,0.046685193,0.08663232,0.042506345,0.07954641,-0.107527666,-0.14568911,-0.11642547,0.013781627,0.018351544,0.019233972,-0.13450027,0.13573109,-0.14008878,0.12618895,0.05475675,-0.14761375,-0.09414054,-0.070354775,0.10252717,0.024737762,-0.06917776,0.02145074,0.010428995,0.13226682,0.055855043,-0.00039414564,-0.17121069,-0.2511687,0.070051014,-0.09888041,-0.0938461,-0.031841386,-0.17038842,-0.12926099,-0.042747676,0.08854067,0.02213055,0.05001528,0.092818424,0.079009905,0.10141873,0.03391024,-0.077032454,0.04384497,-0.10468325,-0.13924122,-0.05069526,-0.04218032,-0.06856733,-0.046562612,-0.10235523,0.2204301,-0.038921773,-0.040831637,0.051410638,-0.017839625,0.13299426,-0.0368213,0.022569418,-0.052129008,-0.069503844
0540e803f1788f75369f434ace742346,-0.3202127,-0.28750527,-0.2884027,0.34551835,0.099177696,-0.009434299,-0.32330623,-0.092112206,-0.49554348,0.049414113,0.17824279,0.07797831,-0.18736413,0.11700496,-0.1187325,-0.47432572,0.11982552,0.40260968,-0.2619912,-0.11904889,-0.17818205,-0.10154113,-0.20100513,0.3407218,0.2631946,-0.16506378,-0.42150462,-0.23649058,0.2351672,-0.4384331,0.32351542,0.27299085,-0.22769971,-0.07220923,-0.124087505,0.09858423,-0.06983503,-0.2018223,-0.024487495,-0.018228391,-0.14057869,-0.17754552,0.15785229,-0.47933245,0.22082567,-0.13415669,0.113579124,-0.013912221,0.14838143,-0.33501062,-0.030578332,0.026333299,-0.19779259,-0.30734736,-0.082369775,0.31188485,-0.106542036,0.1296418,-0.37570632,0.34178984,0.19198841,0.32805493,0.15249482,-0.28522888,0.03191467,-0.081238724,0.38102478,0.15388793,-0.08016292,-0.1640157,-0.4368725,-0.14754952,-0.25039133,-0.33966124,-0.32481387,0.073507056,-0.3113272,-0.36343879,-0.04975795,0.21609212,0.21208996,0.15202335,-0.20744222,0.15327387,0.283024,0.021291757,0.04157477,-0.15547127,0.31759238,0.059955545,-0.31829563,0.08745234,-0.35549134,-0.24399126,-0.08704632,0.29860523,0.20096995,-0.060311377,0.42461547,0.06365974,-0.15425156,-0.101528354,-0.25543338,0.07519942,-0.48239636,-0.079569474,-0.1376059,0.090592235,0.3111997,0.23302071,-0.020348107,-0.11244149,-0.052193552,-0.18851344,0.2824472,-0.29912525,-0.4207607,-0.064057656,0.010178691,0.3629816,0.543584,0.20855449,-0.31894904,0.25465012,-0.49033833,-0.110939786,-0.20818946,0.16889316
056c0f5cb55d4173ddc4f0d4a2596d9579bbabeeaff2c882c67d64610a9928bf,-0.100729086,0.0994895,-0.23264965,0.19566754,0.18445656,0.15512475,-0.33386424,-0.13982767,-0.0020134524,0.040057495,-0.045056418,0.25052956,-0.07518498,-0.1978624,-0.0049118204,-0.2469149,-0.097035944,0.11199397,-0.25901982,0.059448577,-0.2837409,0.1067221,-0.059211466,-0.06747886,-0.10659432,-0.22344771,-0.18688631,-0.15155722,0.06979849,-0.12953375,-0.14259706,0.10475763,-0.039594002,-0.07422564,0.10132241,0.005948847,0.06355485,-0.2812633,-0.036343914,0.050287228,0.007162836,-0.10083131,0.21022947,0.16937816,-0.22431913,-0.12924084,0.051450416,-0.040989764,0.084306955,-0.086169876,-0.0027127413,-0.074272774,-0.10192219,-0.119170144,0.09241738,0.26359,-0.058460165,0.10234431,-0.0007270667,0.25983033,-0.029260358,0.28350332,0.04948584,-0.009795003,-0.03819024,-0.16211778,0.022229448,-0.09466225,0.03044125,-0.12265952,-0.08308857,0.0113321785,-0.25745666,-0.11381292,-0.08677853,-0.07084164,0.05341043,-0.16541567,0.12189715,-0.17312537,0.25409853,0.15561587,-0.17849928,-0.14944494,0.22323014,-0.0023114847,0.17056437,-0.0826975,0.12566161,0.16145514,-0.07159927,0.23648016,-0.17533809,-0.11087771,-0.13844785,0.11112181,0.035265762,-0.1079154,0.022384834,0.0012966555,-0.021990752,-0.0499497,-0.089959465,0.22284313,0.009477271,0.10232288,-0.07506253,0.14940661,0.1815429,-0.097131655,-0.04734146,-0.0057020285,-0.04469782,-0.030617496,0.1861648,-0.13168861,-0.09761423,-0.03212227,0.051342636,-0.054160733,-0.004464635,0.18705589,-0.029235048,0.1682229,-0.1897459,0.052190103,-0.13944314,-0.12633866
0593aa87b0426bac363a292228735991,-0.029573571,0.014208174,-0.121491045,0.08411731,0.09066633,0.055223905,-0.10335324,-0.030586513,-0.039847508,0.036759842,-0.049231257,0.15184632,-0.021158976,-0.093873076,-6.41463e-05,-0.03474108,-0.040110327,0.008880647,-0.089106835,0.008356381,-0.1084926,0.02589403,0.010853381,-0.040680878,-0.03919324,-0.06974064,0.03396451,-0.09304569,0.042411324,-0.03997256,-0.038359076,0.008440771,-0.05224634,-0.06612561,-0.0087704575,-0.0036025348,0.008464245,-0.052864987,-0.022889215,-0.0003058628,-0.027048942,-0.020316182,0.07658757,0.049555752,-0.07341599,-0.024100274,0.023711262,0.01900487,0.052703813,-0.06344822,0.006929351,-0.0722374,-0.12721659,-0.003776782,0.0010289758,0.07472908,0.014100641,0.06407055,0.028232824,0.01142503,-0.077578805,0.095227376,0.023450792,0.0020576948,0.0028362984,0.052974734,0.044521652,0.032492798,0.03641163,-0.0266146,-0.017781198,-0.07190544,-0.10993518,-0.10970252,-0.047038097,0.0055244714,-0.01330244,-0.09541689,0.094627604,-0.066396676,0.10819765,0.07745441,-0.09646619,-0.04550846,0.05218696,0.040288374,0.052020818,-0.022485264,0.052870624,0.016827358,0.010128861,0.06673043,-0.066499755,-0.1391601,-0.119885065,0.09094993,-0.028799826,-0.067893654,-0.009130194,-0.048262145,-0.055124547,-0.012275197,0.02457031,0.06657597,0.001192428,0.05637902,-0.022058554,0.08223066,0.07290224,-0.00413402,0.033787247,-0.056182295,-0.06918162,-0.046716526,0.009387421,-0.06779217,-0.03027482,-0.03274868,0.088010326,0.01316397,0.045802344,0.056439284,-0.006264747,0.08830779,-0.077224486,0.030339133,-0.06938658,-0.002988839
05bed5476fa174c7aef2eaf54f0ab27f6a39a2af1d7ed53357ccae68851a331c,-0.01678417,0.008013423,-0.08032705,0.05085094,0.044822857,0.017374018,-0.06295563,-0.029245852,-0.012584498,0.029442292,-0.052844513,0.10472712,-0.014245346,-0.048362292,0.015297796,-0.020395275,-0.032572825,-0.017701954,-0.06518437,0.018658489,-0.04583242,0.03287372,0.019217525,-0.03152249,-0.022613205,-0.040414657,0.034911327,-0.056149572,0.024331478,-0.0012563169,-0.014457006,0.0010322839,-0.018411508,-0.04673943,0.004511452,0.016841603,0.019381493,-0.022934897,-0.025099019,0.005176391,-0.017997028,9.8771474e-05,0.04099081,0.04915022,-0.05210445,-0.008590286,0.020735983,0.014088144,0.020356124,-0.021125784,0.0031868832,-0.058085267,-0.08016661,0.02280874,-0.009154045,0.05325714,0.007589586,0.032075755,0.029958304,-0.023802863,-0.082464784,0.044780973,0.008798806,0.012661891,0.009428489,0.03626337,0.008646312,0.008724447,0.027731184,-0.04067262,0.02002711,-0.040639892,-0.07975535,-0.05190496,-0.013381418,0.022349302,0.011752762,-0.048315033,0.06301875,-0.04968992,0.074668385,0.05253062,-0.059167128,-0.028486395,0.020462248,0.0051197014,0.050833933,-0.018960927,0.008363172,0.0102904495,0.03572685,0.052913304,-0.040138617,-0.10505888,-0.07928103,0.03719061,-0.0058236653,-0.042968467,-0.037750654,-0.03145172,-0.032640375,-0.01865014,0.0068403045,0.038804702,-0.00033377064,0.022464214,-0.0012080988,0.054391306,0.029409388,-0.01698339,0.03358625,-0.037176855,-0.03945282,-0.03150788,0.0015929169,-0.019695658,-0.004882601,-0.023620076,0.060751826,0.008897088,0.008774068,0.045896146,-0.0050802245,0.04050708,-0.02078827,0.032121945,-0.029517263,-0.011460997
060451d1d301ca6e255cbd2c903caf9d,-0.116482764,0.06501554,-0.07168558,0.13299514,0.10405906,0.20104562,-0.22165194,0.038781527,-0.013336397,-0.09727626,-0.036603797,0.115088865,-0.026672572,-0.09965895,-0.03310926,-0.17731163,-0.0013737951,0.11365493,-0.106220946,0.10566751,-0.27632955,-0.010975313,-0.023317153,-0.04246648,-0.0880518,-0.17320898,-0.06977739,0.061174553,0.11865741,-0.21418853,-0.04588281,0.06404802,-0.039921626,-0.043353856,-0.095265254,-0.020284643,0.010348319,-0.18906212,0.0140343895,-0.00411012,0.0062879054,-0.041828312,0.16547866,0.03790573,-0.08558534,-0.002015586,0.015153399,-0.0002880315,0.055267807,-0.14556348,0.04119034,-0.033021677,-0.08812796,-0.057456907,0.036832087,0.18979879,0.011238199,0.07984696,-0.1208867,0.3521318,0.116993755,0.25888819,-0.021286787,-0.15846257,-0.077268764,-0.077680044,0.09601948,0.026169013,0.0668689,0.095100805,-0.16883665,-0.11990651,-0.2128521,-0.08758991,-0.12790433,-0.06319936,-0.054660812,-0.2010908,0.031846985,-0.07992646,0.11431876,0.07600705,-0.1557931,-0.08841571,0.124781184,0.024031153,0.034801062,-0.117144406,0.17593563,0.08100132,-0.028601889,0.07664454,-0.09383199,-0.0064442223,-0.15785089,0.08320296,0.0033681847,-0.10371947,0.16750653,-0.11349919,-0.037921462,0.018438084,-0.00057690905,0.14956248,-0.06881401,0.13980271,-0.069517314,0.08495553,0.18068613,-0.062132407,-0.09510097,0.048346397,-0.03499922,-0.024891423,0.104108505,-0.15684046,-0.12896219,-0.040937345,0.040769838,-0.115013905,0.08621442,0.051189426,-0.04952025,0.17756575,-0.2448004,-0.07920212,-0.16951072,-0.081083134
0615cadf5248d9c355f4838f227a31a0,0.0081722485,0.024466787,-0.12876071,0.07041425,0.12345623,0.09395534,-0.08096201,-0.0034762477,-0.005132199,0.03191887,-0.03766245,0.21233815,0.02531936,-0.13772647,-0.0061794487,0.03194571,-0.024827508,-0.029273482,-0.07246712,0.026906375,-0.08266598,-0.010270674,0.04470391,-0.109632894,-0.04603905,-0.045841426,0.123880744,-0.09883743,0.047888022,0.010907069,-0.03898662,-0.032131065,-0.08268373,-0.09608304,-0.02204312,-0.034867577,-0.028044764,-0.020875273,-0.033084575,-0.018070377,-0.042158943,0.020613698,0.07815363,0.042169347,-0.10030551,0.040909726,0.039335918,0.05787477,0.05227743,-0.04409305,0.011970983,-0.09379814,-0.14286648,0.032889377,-0.0427468,0.03121406,0.063616544,0.0902451,0.065102264,-0.037994318,-0.097932234,0.083830126,0.015546802,0.009545565,0.017579142,0.12937841,0.04520855,0.07318059,0.090517014,-0.017430792,0.046997715,-0.1234137,-0.116765186,-0.16183119,-0.041030515,0.029444167,-0.015012791,-0.09681127,0.09896853,-0.09448255,0.09183915,0.054953862,-0.10941674,-0.07533195,-0.013897171,0.08444988,0.027588373,-0.006444668,0.03654538,-0.015060341,0.040334903,0.05111,-0.06340099,-0.15062897,-0.16500795,0.11919995,-0.05072304,-0.08819516,-0.043944772,-0.09436526,-0.11617691,-0.0049217693,0.031977918,0.06568146,0.02638439,0.07201644,-0.010794001,0.12379908,0.05148772,0.029128226,0.05854899,-0.09170926,-0.10443639,-0.07679653,-0.035319936,-0.08940018,-0.02810963,-0.034752194,0.15646374,-0.012498069,0.040259182,0.044134766,-0.009786745,0.12518278,-0.06942387,0.030967483,-0.07038674,0.0011511075
0630318153df63416998b97a3498406f,-0.004128057,0.015040074,-0.08297158,0.0608261,0.071477234,0.056815688,-0.067355074,-0.023057515,-0.021344267,0.036821373,-0.028306244,0.13114235,0.002188302,-0.07546193,-0.01766324,-0.0010293112,-0.012729129,0.009519365,-0.0603712,0.013238354,-0.0594724,0.013570128,0.010255761,-0.053373795,-0.02865621,-0.036518537,0.056671243,-0.076393634,0.021091677,0.006734909,-0.012860143,0.0021814217,-0.051035285,-0.05729087,-0.020102896,-0.010421324,-0.017616797,-0.03154743,-0.015275514,0.009912626,-0.026196945,-0.009552428,0.06095017,0.019631792,-0.06749929,0.013604554,0.013839246,0.017440176,0.032175016,-0.038878456,-0.0030206707,-0.04021432,-0.08735572,0.00062554737,-0.013175067,0.0334286,0.03556243,0.062346514,0.03349127,0.0040833023,-0.049538553,0.074759476,0.025836818,0.011947078,0.0066841017,0.05539785,0.024623927,0.04538214,0.042108055,-0.022328436,0.007270127,-0.063690685,-0.08180855,-0.09698991,-0.04491179,0.019394761,-0.016869165,-0.052938063,0.057077322,-0.05363122,0.061583042,0.037271537,-0.08348652,-0.055949688,0.017742971,0.04587854,0.019690465,-0.006736402,0.016400514,-0.005320956,0.00833814,0.058717437,-0.052785914,-0.09410488,-0.101324745,0.08814543,-0.015252288,-0.044187035,-0.027022393,-0.03584541,-0.07252373,-0.0045722495,0.007094463,0.04485632,0.0141707845,0.054857004,-0.010346361,0.07622282,0.039119527,0.019820362,0.026633233,-0.05522283,-0.064563535,-0.038175102,-0.0030677107,-0.060344033,-0.023754379,-0.023020336,0.08688676,0.009262371,0.039594565,0.030644776,-0.0082741,0.091449015,-0.059167832,0.034276817,-0.054795057,-0.0084878225
06717e78164e7b2b1aa137adaa3d7d2d,0.006805828,0.032617066,-0.10896693,0.06615862,0.100487754,0.089453205,-0.06706639,-0.010821075,-0.008422741,0.022877574,-0.030986078,0.18143271,0.014617458,-0.11438509,-0.021423116,0.015353693,-0.02594941,-0.007020597,-0.049095623,0.011812286,-0.09259344,0.019354496,0.012683651,-0.085178144,-0.055730753,-0.055875022,0.08819363,-0.06833347,0.040661506,0.0110541945,-0.049405977,-0.013152167,-0.08797342,-0.07121835,-0.024474936,-0.029511614,-0.023717344,-0.04345516,-0.000723084,0.0012008621,-0.018100874,0.0020943077,0.09196301,0.035604738,-0.09017805,0.025711602,0.010125089,0.045825824,0.03370074,-0.049539767,0.0044912854,-0.055556986,-0.12617116,0.018452663,-0.01230592,0.02222924,0.064618476,0.067065075,0.054941975,-0.0059117633,-0.055085894,0.08264147,0.023049723,0.0031257141,0.0151606705,0.05928781,0.02666997,0.054977555,0.06184538,0.0069235624,0.011927555,-0.083631516,-0.09689033,-0.116196245,-0.04672406,0.020415219,-0.028143203,-0.07821672,0.07795412,-0.07951301,0.08367352,0.052268863,-0.1112473,-0.06525754,0.026941761,0.061620176,0.026771039,-0.012870828,0.04018238,-0.0014397419,-0.0034650695,0.07250439,-0.04743258,-0.10070868,-0.13567032,0.11503845,-0.055832442,-0.07246548,-0.028932394,-0.068560526,-0.10149429,0.020392211,0.01527763,0.06812149,0.03579041,0.07302896,-0.007853553,0.10378261,0.056001417,0.0235485,0.019351935,-0.06366959,-0.07392496,-0.029004574,-0.016793666,-0.08548681,-0.01671572,-0.023289114,0.12368047,-0.020817367,0.050174516,0.024143903,0.01144808,0.11757139,-0.059634052,0.029230388,-0.08148119,-0.0123943295
0683cdf921258b19802d093b921ffd9e83a9f753b3faaffa4d404590c64dbf0b,-0.038462613,-0.03290987,-0.08074222,0.061515853,0.030982224,-0.022417637,-0.0477129,-0.024600664,-0.056166474,0.022169411,-0.031012446,0.069975644,-0.03626444,-0.016639136,0.0017848901,-0.03564825,-0.021862172,0.013858221,-0.06062268,0.0037957337,-0.041184798,0.008697569,0.005295614,0.028851174,0.007400678,-0.025010556,0.02344619,-0.064577416,0.028372986,-0.04597929,0.01632269,0.019134885,-0.034484874,-0.03503766,0.0045811236,0.020867676,0.008364584,-0.012326443,-0.015924789,-0.0041563,-0.032530893,-0.0032157854,0.032029834,0.010058161,-0.023581885,-0.020941192,0.014891209,0.0063624214,0.018589007,-0.04324665,0.0001360733,-0.050566424,-0.07521827,-0.014775518,-0.008968995,0.051528387,-0.011074611,0.027466383,-0.00888084,0.0014034963,-0.05754445,0.04530367,0.021606756,-0.022844331,0.017385695,0.026379187,0.038727723,0.007716087,0.010314586,-0.035522584,-0.02815235,-0.046063017,-0.06494659,-0.059024476,-0.03694314,0.016029546,-0.02992103,-0.066395305,0.04377079,-0.011259911,0.06485026,0.050374843,-0.05022384,-0.002492811,0.036288537,-0.002251284,0.040189162,-0.019609155,0.03544055,0.0014581116,0.0048687244,0.040136725,-0.05710689,-0.123445764,-0.060709868,0.03582513,0.017318768,-0.04102096,0.008833753,-0.026052732,-0.010355948,-0.013126532,0.0034893812,0.030989395,-0.039946523,0.0017601142,-0.0054657585,0.032724775,0.033627905,0.004934983,0.035643935,-0.024568811,-0.025090903,-0.049945906,0.010130512,-0.024847131,-0.007032016,-0.019291453,0.030002786,0.04484994,0.056086477,0.0496583,-0.026351465,0.038306013,-0.03755305,0.025979467,-0.034194857,0.021065554
06b9650176bc09c654e06af0544ff9583b8ae9e8e8bd1aab3cc4fb034cdf1517,-0.048407488,-0.0056054895,-0.07104853,0.07272522,0.045251295,-0.027308324,-0.10160923,-0.05236666,-0.040141586,0.025142834,-0.03935041,0.06506623,-0.04964513,-0.02561102,0.013147258,-0.07296067,-0.030199014,0.010011619,-0.09649988,0.0058109392,-0.056892034,0.031640448,-0.0047313944,0.026549663,-0.008065804,-0.05015779,-0.045840655,-0.054843385,0.034502286,-0.051845357,0.002177245,0.02822189,0.0035861551,-0.027114132,0.019405534,0.031820536,0.026488315,-0.03723285,-0.04544677,-0.007668966,-0.01369741,-0.024240931,0.05170796,0.011255522,-0.029323721,-0.03358458,0.02425879,-0.0103696035,0.025174005,-0.016357526,-0.0028623245,-0.053473935,-0.045643922,-0.014898776,-0.009159527,0.093786925,-0.036395505,0.030722972,-0.017740445,0.028632175,-0.0546994,0.05950066,0.01462977,-0.006124853,0.014128522,-0.0086831665,0.019716043,-0.016312929,-0.003111761,-0.06325943,-0.030832238,-0.0027624667,-0.07628932,-0.03828999,-0.031939406,0.003210852,0.0044226083,-0.07126258,0.058248423,-0.040351912,0.083275914,0.057820737,-0.042550534,-0.005677764,0.038888056,-0.023723241,0.060495675,-0.03542405,0.03908912,0.044805855,0.018001094,0.03674372,-0.048159394,-0.101322785,-0.0511419,0.009653546,0.017451756,-0.03646151,0.013991937,-0.015236083,0.0033967816,-0.032684207,-0.016587785,0.030344484,-0.03918215,-0.00019595318,0.00059969927,0.035575945,0.03937229,-0.034708798,0.024180546,-0.038874906,-0.011995533,-0.037675302,0.036747817,-0.015935455,-0.03952582,-0.031102184,0.016778048,0.04066489,0.005370596,0.074896425,-0.025516074,0.01992563,-0.03836368,0.021795917,-0.010078669,-0.0062098447
06d1f82e3edb6c0af1b42d711a29779d,-0.050716903,-0.008432884,-0.12874343,0.106539406,0.08745716,0.032237254,-0.10195012,-0.04725153,-0.06263943,0.052714884,-0.047628094,0.15479828,-0.034052577,-0.0763181,-0.010358285,-0.060040317,-0.033296816,0.02331859,-0.10396614,0.0036581876,-0.09997061,0.023948338,0.0026659593,-0.008959557,-0.023137385,-0.06437497,0.035150867,-0.11411894,0.051984627,-0.048154183,-0.017396806,0.017506352,-0.06503852,-0.06572383,-0.0031079184,0.010324158,0.0043021278,-0.048587374,-0.02476394,-0.008068714,-0.030310145,-0.012337061,0.076979786,0.032440517,-0.066290036,-0.0334996,0.022424342,0.029049447,0.04596686,-0.061502587,-0.0016323191,-0.07581924,-0.13247567,-0.023291837,-0.01150345,0.09165946,0.012791294,0.07117449,0.019584827,0.016222509,-0.09006017,0.103990324,0.04466616,-0.007923651,0.013951836,0.046115585,0.063369,0.027564285,0.03569888,-0.05634904,-0.03132997,-0.081817664,-0.12255026,-0.11992306,-0.065411136,0.015203362,-0.030663077,-0.10917102,0.097954296,-0.055550132,0.12495949,0.0804372,-0.11410516,-0.045450315,0.06363463,0.015114997,0.060500458,-0.026760295,0.04664728,0.01605045,0.0006572264,0.08127932,-0.08779122,-0.16746485,-0.12841652,0.08996167,0.0003042695,-0.0677875,-0.014922487,-0.051954873,-0.055786435,-0.008495409,-4.0662668e-05,0.060952596,-0.02220694,0.039805967,-0.022209646,0.090621114,0.07175043,0.01850355,0.03257173,-0.06847436,-0.070214234,-0.062667035,0.01997949,-0.08280381,-0.039392702,-0.032899335,0.0861087,0.032497942,0.060031828,0.06453473,-0.0216621,0.091822565,-0.07823705,0.034831263,-0.0659001,0.007978791
06d2b5ec5984610a164b2a5a50849286,0.025521414,0.046271663,-0.15951066,0.11410041,0.07265735,0.17033876,-0.13118036,-0.0049196193,-0.041871358,0.094911955,0.0009719188,0.2835388,0.03302323,-0.13452154,-0.12302692,0.074923225,-0.020868842,0.096196376,-0.10603912,0.015028805,-0.11860991,0.06449041,-0.028235422,-0.234211,-0.02523473,-0.11315803,0.12817936,-0.16127954,-0.06056011,0.091275,-0.00036839303,0.07340737,-0.21887363,-0.10282965,-0.04974864,-0.07793155,-0.08311313,-0.13328815,0.03387259,0.11889599,-0.04636247,-0.041454498,0.14010085,0.03873841,-0.14656898,0.022977201,-0.031619497,0.030462211,0.06369342,-0.06281422,-0.05206131,-0.0027784316,-0.15274638,-0.044860333,-0.026934275,-0.04056126,0.12464064,0.15778245,0.08410349,0.035283953,-0.011255898,0.18572593,0.06992799,0.065532744,-0.005688176,0.01692894,0.0035132135,0.050441153,0.12568314,0.028278837,0.033799253,-0.095971785,-0.13556772,-0.2115067,-0.15951543,0.078308016,-0.05677048,-0.05403196,0.09895369,-0.088917896,0.10126201,0.02991367,-0.261431,-0.17408082,0.025808888,0.11638402,0.054197133,0.0040023797,-0.015496378,-0.08812586,-0.09202317,0.24431027,-0.13483736,-0.05210656,-0.24683231,0.25558993,-0.024662854,-0.022773702,-0.090402976,-0.052209947,-0.19946712,0.01055484,-0.09702119,0.13241234,0.09931261,0.12412163,-0.0030808002,0.18266557,0.066852875,0.06294669,0.008639364,-0.06805741,-0.097218215,-0.03486871,0.010646666,-0.17572728,-0.06438017,0.024211766,0.20571089,-0.0044692783,0.116338484,0.016364688,-0.0008775679,0.27046606,-0.13342738,0.097142816,-0.2086349,-0.03130646
07847630596c7a55101a80f26819d93d,-0.22178495,-0.57473356,-0.14233606,0.32434312,0.5887318,-0.46756327,-0.6459513,0.050988957,-0.39447537,-0.05520383,0.35619298,0.28885362,-0.10267934,-0.2859917,0.15214652,-0.57908124,-0.020727687,0.19201453,-0.5475301,-0.23888652,0.056220107,-0.10662573,-0.08031044,0.46648374,-0.3052119,-0.69351274,-0.6969734,0.16255854,0.64933455,-0.29516414,0.23974279,-0.034099225,0.3745799,-0.42172176,-0.025121497,-0.5560732,-0.01295332,-0.12285898,-0.62223196,-0.32557264,0.147747,-0.27027264,0.45856237,-0.569076,0.19534823,0.5623251,0.3316492,0.6705675,-0.023440469,-0.20658042,0.01735841,-0.2622843,-0.2477525,0.37886235,-0.5544692,0.7977966,-0.33617705,0.7947788,-0.6727931,0.116583414,0.018520867,0.07542228,0.01056448,-0.30908528,0.48783302,0.3506752,0.4764952,0.28701407,0.08383872,-0.70078474,-0.013034067,0.14008686,-0.49557823,-1.0171081,0.06034413,-0.31699044,-0.051769696,-0.7808667,0.34270716,-0.11480057,0.7124514,0.13811325,-0.30462176,0.24483675,-0.098969474,0.09441588,-0.18340954,0.043080106,0.35822058,0.3415211,-0.22590628,-0.6363101,-0.29733026,-0.40319106,-0.27305016,0.49608397,-0.1103728,-0.27996597,0.54111916,-0.26150465,-0.722783,-0.18814233,-0.2685524,0.120471716,-0.41067514,0.1736766,-0.012813543,0.5463369,0.08692875,-0.051006537,0.28786495,-1.0344288,-0.55756164,-0.23535672,0.19854118,-0.4967375,-0.8210844,-0.51940346,0.73784506,0.33147234,-0.019176994,0.70897007,-0.62839854,0.5986018,-0.612316,-0.58424455,0.3902958,0.041222043
07940aac58f4b2e1712bc48a2470fcde,-0.047069002,-0.010851979,-0.104580924,0.09610775,0.0711854,0.026004534,-0.08738379,-0.042323254,-0.064856544,0.03276869,-0.025312444,0.122078456,-0.03230652,-0.04911152,-0.0101349745,-0.05044653,-0.02156833,0.025468374,-0.083911404,-7.041073e-05,-0.076938435,0.019565905,-0.0070943446,0.0031344795,-0.0073488005,-0.05775521,0.008276556,-0.09595865,0.039497674,-0.05713784,-0.003099051,0.029414102,-0.05710589,-0.049098942,-0.01617699,0.012443135,-0.008522948,-0.04735088,-0.0072565204,0.0018050546,-0.030291192,-0.016413087,0.0706238,7.970317e-06,-0.048764132,-0.029551713,0.017398179,0.012908571,0.0484669,-0.05897597,-0.0055660587,-0.043189604,-0.10076859,-0.023373865,-0.0009871062,0.06593179,0.0116886515,0.04794072,0.009722352,0.023983616,-0.052626166,0.09124604,0.027790314,-0.005327993,0.011794134,0.022755073,0.04772187,0.030050572,0.023506157,-0.04430236,-0.031720176,-0.06806125,-0.09679772,-0.094500124,-0.06475584,0.010347626,-0.032855745,-0.08754208,0.054901708,-0.032901302,0.09136454,0.055130117,-0.09167232,-0.02124329,0.047504608,0.02603046,0.04909748,-0.037151087,0.054811493,0.016769864,-0.021231603,0.06551963,-0.08537731,-0.11961822,-0.09984314,0.08037184,-0.0043077953,-0.056260694,0.0069289743,-0.024300694,-0.044967636,-0.016892685,-0.004250882,0.042076197,-0.026588887,0.03824149,-0.011942571,0.07547382,0.0598222,0.010445251,0.017807083,-0.05410089,-0.042432427,-0.051394537,0.029504351,-0.06259848,-0.041818667,-0.01925542,0.055386752,0.045219153,0.07159212,0.050116047,-0.022657145,0.08124803,-0.0762737,0.03204365,-0.06421161,0.009070214
079aaccc770e2019ad30c008498abd65,-0.093949765,0.10329193,-0.242953,0.18987414,0.17702919,0.18963136,-0.26698253,-0.13843738,-0.014754636,0.084677264,0.047150165,0.25797412,-0.048446547,-0.20670861,-0.069427915,-0.19237357,-0.08277754,0.17544638,-0.20702082,-0.0020865167,-0.2298982,0.10037669,-0.10160962,-0.12043256,-0.08452312,-0.18979812,-0.19776997,-0.183613,0.019317772,-0.051826835,-0.15155867,0.13261701,-0.10472721,-0.0664624,0.13659915,-0.052028824,0.025750523,-0.30460173,0.038399503,0.11961693,0.03628141,-0.13350146,0.20745978,0.12832312,-0.25948247,-0.14784513,-0.010946531,-0.03638785,0.081310004,-0.07760272,-0.03532025,0.008654279,-0.10528332,-0.1802882,0.12062077,0.16718772,-0.0003529418,0.11019827,0.041975737,0.26939702,0.05452494,0.28404096,0.069190614,0.10641295,-0.044107664,-0.206658,0.0054359264,-0.08231696,0.044848286,-0.12858756,-0.07248963,0.06502988,-0.20624384,-0.13424104,-0.12360667,-0.06955524,0.0235505,-0.07944037,0.1088784,-0.1462371,0.20169163,0.09402132,-0.19357547,-0.18136613,0.23130715,0.0071851066,0.15655667,-0.027477363,0.07156965,0.10529719,-0.18293951,0.2924076,-0.20089284,0.0022448893,-0.10431216,0.1905923,0.0329752,-0.055898514,-0.029551348,0.0649929,-0.057483155,0.009789759,-0.17680341,0.2462098,0.07468679,0.122998595,-0.1056359,0.17792636,0.15009996,-0.039959636,-0.07040401,-0.0021375385,-0.021538727,0.012981487,0.19298992,-0.16195056,-0.08802023,0.021811856,0.060666066,-0.061231557,0.031625636,0.14230658,0.015923737,0.20750941,-0.18491705,0.0702355,-0.19721192,-0.099021316
0808eb4e0b36adc2a7ad5b2adc99b3c2,-0.005460863,0.0308939,-0.10002414,0.084100895,0.08599361,0.11862083,-0.10223769,0.0150775025,-0.036057983,-0.0006785748,-0.029741583,0.16049993,0.011083253,-0.096579775,-0.027475467,-0.021842059,-0.011961765,0.009312938,-0.07329504,0.030012393,-0.12236819,-0.013380649,-0.0026961016,-0.05893422,-0.030330174,-0.06751003,0.061535787,-0.07542522,0.067994304,-0.045008887,-0.011598833,0.005057054,-0.089984894,-0.060520403,-0.077405,-0.018545114,-0.026123058,-0.06923841,-0.013076539,-0.025357088,-0.040780574,-0.012308084,0.10392945,0.013570815,-0.05883309,0.020091366,0.032389536,0.03657362,0.055711668,-0.09356478,0.024521163,-0.04726488,-0.11348042,-0.005302801,-0.024035415,0.05205303,0.037512586,0.07547418,0.00053395424,0.05097045,-0.020375665,0.11137889,0.018457672,-0.06799257,-0.011459283,0.06361454,0.056069598,0.05972794,0.048389673,0.024615481,-0.037538193,-0.114692934,-0.110132135,-0.13148989,-0.05650745,0.005517762,-0.034563422,-0.11447169,0.061836272,-0.06838034,0.07661341,0.06403666,-0.100576825,-0.05636477,0.028161937,0.07910762,0.002262287,-0.03570032,0.07685152,0.010294778,0.0029719418,0.066885985,-0.06604644,-0.109779105,-0.13498233,0.1115945,-0.052436195,-0.067408405,0.03417265,-0.08490004,-0.106235646,-0.013734355,0.035035916,0.0467669,-0.016002607,0.06686153,-0.02199963,0.08951173,0.08535921,0.0066059353,-0.0018363964,-0.053204503,-0.0898572,-0.043964412,0.013948992,-0.11228227,-0.07636297,-0.043019697,0.12509216,-0.008834356,0.072996266,0.021190874,-0.04586836,0.14005464,-0.12491987,0.0052260295,-0.09970467,-0.018886153
087a8b987bfcb13e7e995bdeb4b90726,-0.010170995,0.027956892,-0.107287,0.084830314,0.10276334,0.092641205,-0.082062095,0.005213717,-0.014211971,0.021365497,-0.0630285,0.20892599,0.0078019607,-0.12067591,0.006166203,0.020117613,-0.03322797,-0.025721641,-0.062006,0.040174138,-0.103312224,0.0059517985,0.03717001,-0.08948566,-0.051249374,-0.045544326,0.13109285,-0.08915028,0.04788646,-0.012110588,-0.042319607,-0.03903767,-0.07432207,-0.082524106,-0.05783679,-0.023260344,-0.011135649,-0.020307982,-0.016891269,-0.019451888,-0.042246662,0.0174451,0.091286585,0.059645195,-0.090351865,0.026392307,0.019374661,0.05076713,0.052930888,-0.06750148,0.01445151,-0.1062471,-0.15730631,0.041196175,-0.03350443,0.045379084,0.06174914,0.07357641,0.05726295,-0.020657808,-0.08645811,0.09179621,0.013640175,-0.023529803,0.013164762,0.12145387,0.05310464,0.07225727,0.084703736,-0.0024760063,0.022649387,-0.13456614,-0.122568935,-0.1298454,-0.043118306,0.01605086,-0.02536343,-0.109284505,0.09525883,-0.09178448,0.09912461,0.06914746,-0.11632076,-0.061021753,0.0016538352,0.05305536,0.03311716,-0.011467091,0.048490237,-0.012329282,0.05416712,0.047393233,-0.042886697,-0.16438212,-0.1781563,0.10863815,-0.059570488,-0.09717284,-0.024340296,-0.09846442,-0.095512144,0.006995525,0.05735041,0.06372972,0.0077119195,0.08809192,-0.019718438,0.093287,0.056710973,0.017800149,0.04662858,-0.06786434,-0.088622496,-0.06829151,-0.04789122,-0.09009863,-0.013422441,-0.031650864,0.14228573,-0.019354712,0.042272948,0.031991284,-0.00317379,0.11036433,-0.07068217,0.030770766,-0.07737826,0.0075203115
092e19c3294633a983811779058f0c35,-0.0123115005,0.012358717,-0.11698687,0.0895545,0.080827035,0.066712275,-0.088881396,-0.006854517,-0.0438267,0.03199869,-0.03260411,0.17039429,0.0047606584,-0.087014526,-0.0134385815,-0.010406889,-0.021797208,0.015750838,-0.07523603,0.008586681,-0.09049338,0.011272482,0.0018321672,-0.056547932,-0.0132764755,-0.048262235,0.07521955,-0.09013889,0.042742886,-0.015675275,-0.004808794,-0.0008246183,-0.0841771,-0.07728667,-0.031693712,-0.0033222972,-0.023861079,-0.038028337,-0.016444342,-0.0049964795,-0.0385469,0.0025076424,0.074204795,0.017009174,-0.066086136,0.012683854,0.020437477,0.046038754,0.051410444,-0.06588379,0.0029218427,-0.060897335,-0.13706288,-0.0026396513,-0.023779724,0.033074178,0.044775493,0.076673985,0.025941862,-0.008041385,-0.05485348,0.09572075,0.039410498,-0.022959463,0.024284706,0.07662662,0.05672524,0.048226304,0.053853173,-0.012132032,-0.0050634737,-0.096673965,-0.09608592,-0.13615282,-0.05955903,0.022745933,-0.033566285,-0.10036382,0.07296493,-0.056011986,0.09454941,0.06511092,-0.11742592,-0.04936514,0.020772638,0.060880914,0.03406047,-0.020686163,0.03914693,-0.012681763,0.004976373,0.05961784,-0.066147745,-0.1339753,-0.13295443,0.115802206,-0.032114964,-0.073102504,-0.0052309213,-0.06570167,-0.093393475,8.727267e-05,0.012905119,0.056940254,0.00419491,0.051276747,-0.0062186653,0.09909669,0.07082076,0.032762997,0.031486884,-0.064477585,-0.08247465,-0.058356773,0.0028727346,-0.09714198,-0.039714456,-0.029776532,0.11195917,0.017299408,0.075139605,0.036937755,-0.022338832,0.11929687,-0.07852112,0.033995133,-0.08685059,0.0099666
097c73de543218e2d0edb52d5333601f,0.008224064,0.04938985,-0.087649,0.0632926,0.12163079,0.089186,-0.084427275,-0.0097901225,0.019164275,0.00932857,-0.057699807,0.20011191,0.031416047,-0.13896504,-0.004432078,0.014857024,-0.030825175,-0.031360783,-0.06475329,0.03136466,-0.10251758,0.023118103,0.015672829,-0.1038836,-0.07871863,-0.07007612,0.096572936,-0.06991445,0.03179783,0.014949678,-0.07123325,-0.04012188,-0.05506999,-0.073845185,-0.047048822,-0.048726145,-0.010938633,-0.027409302,-0.03362633,-0.005080006,-0.004859406,-0.0067538274,0.100107186,0.05436926,-0.10871478,0.038875997,0.016431637,0.053849585,0.037966073,-0.05045179,0.020360494,-0.06973076,-0.11584672,0.046366613,-0.018221486,0.03839865,0.055399895,0.10256596,0.055298913,-0.0139183095,-0.062264744,0.072254755,-0.006885494,-0.00043442505,0.0067082536,0.08839469,0.030752383,0.08448697,0.052698016,-0.0008133971,0.020865869,-0.0918624,-0.11682626,-0.12739459,-0.014171174,-0.0071034213,0.012876778,-0.086099885,0.10289881,-0.11439677,0.080967136,0.041836254,-0.090412065,-0.08273584,-0.0117861135,0.081755176,0.0020050292,-0.010834305,0.035752468,0.015217994,0.044731945,0.051628765,-0.024784535,-0.100835904,-0.16638492,0.09675103,-0.070693046,-0.064484,-0.03415946,-0.090546496,-0.10414157,0.00095466955,0.04430826,0.06883301,0.046866253,0.087643996,-0.011344073,0.11597435,0.050209925,-0.0020533039,0.029471893,-0.088229656,-0.09218589,-0.0370093,-0.039868258,-0.074503876,-0.04587664,-0.038522433,0.15596649,-0.029588662,0.0036741938,0.036847066,0.0059075267,0.11983714,-0.06445942,0.023441153,-0.058339197,-0.02559651
097d0891d4e3b47668d787792cfdf0ae,-0.024153542,0.013107784,-0.06322618,0.06575151,0.059654415,0.028587788,-0.074311145,-0.016824381,-0.024986442,0.020016452,-0.043199282,0.13057448,-0.004631202,-0.05265139,-0.011733484,-0.010457821,-0.018273318,0.003550881,-0.05309177,0.022320751,-0.07715325,0.025787577,0.00040649026,-0.032392185,-0.037191704,-0.06099931,0.06263547,-0.03631277,0.033319302,-0.017525833,-0.010825386,-0.010528219,-0.038998798,-0.05671971,-0.027466854,-0.011884893,-0.007159821,-0.015259825,-0.020556988,0.0022220933,-0.010781463,-0.0014708403,0.07128835,0.021226993,-0.055603273,0.01185209,0.00092987495,0.020758223,0.028538397,-0.038307786,-0.0071145855,-0.04431399,-0.09949771,0.03014967,-0.027404275,0.05753481,0.03115811,0.059827864,0.012305677,0.008237407,-0.048286326,0.074504465,0.0031659254,-0.017067296,0.006519889,0.045008298,0.021845285,0.04005256,0.047205113,0.0021016952,-0.020149928,-0.0672857,-0.09400568,-0.086173534,-0.05139978,0.005690551,-0.02661276,-0.072478846,0.068548374,-0.05883418,0.0746611,0.043337997,-0.09548713,-0.043865446,0.008347344,0.022687256,0.026815584,-0.017591055,0.035967194,-0.013552261,0.021831797,0.050308734,-0.04483482,-0.095733054,-0.11964129,0.06895247,-0.014665501,-0.049275015,-0.0010871006,-0.06805884,-0.058581553,0.004416894,0.019529479,0.03795475,0.0069788676,0.056117777,-0.00025997663,0.06658283,0.047453262,-0.0010314318,0.022226922,-0.04879811,-0.061680797,-0.03813508,-0.011804882,-0.061303742,-0.031837847,-0.028029928,0.096060164,0.0060553527,0.02321488,0.029590636,-0.0070969863,0.08785802,-0.067628704,0.014382381,-0.054252885,-0.019138599
09f623304b98d1bdc15ed33660ba337f29fa784f81e237b89d04c4f1a20d0d4b,-0.03082808,0.00090066646,-0.10229794,0.08037517,0.061071534,0.02787501,-0.07531251,-0.029286185,-0.043618415,0.030243931,-0.036582332,0.124730095,-0.02216053,-0.059726965,0.005216024,-0.0391983,-0.02708818,0.0046189833,-0.079089046,0.016012155,-0.07000997,0.006704496,0.010930466,-0.022308517,-0.015934471,-0.04102553,0.02802483,-0.08883872,0.041127395,-0.038839627,-0.009898547,-0.003248851,-0.045702852,-0.0441996,-0.0073698093,0.020497745,-0.0050572646,-0.029441698,-0.01907213,-0.003326723,-0.03632589,-0.011934923,0.061426554,0.011513912,-0.041614708,-0.023089023,0.033715226,0.022540223,0.04535974,-0.047484946,0.012476246,-0.064337954,-0.0943155,-0.01475479,-0.016090533,0.058603253,0.0056156544,0.04486298,0.017144278,-0.004233719,-0.06763292,0.06660643,0.01711358,-0.009838674,0.014332264,0.057337556,0.044072818,0.036631986,0.019213343,-0.034544144,-0.015748948,-0.0813681,-0.08863533,-0.08140846,-0.0393439,0.010739782,-0.025302012,-0.080801725,0.05729727,-0.037733138,0.08312639,0.06342785,-0.07338505,-0.018878398,0.02723006,0.027882073,0.040614735,-0.01779624,0.044174355,0.0076012923,0.017596938,0.050932776,-0.05914247,-0.12371948,-0.08915833,0.05407657,-0.01625887,-0.049914435,-0.007021952,-0.03535176,-0.038338047,-0.021806125,0.025916668,0.037052803,-0.022357738,0.031785876,-0.017430473,0.057447936,0.052500263,0.014316701,0.036771193,-0.054272883,-0.04416633,-0.06124199,-0.0021177616,-0.047832627,-0.019184198,-0.024420172,0.060592778,0.022497352,0.04596629,0.039219446,-0.017508348,0.06466068,-0.06789231,0.036380053,-0.04618848,0.0015034678
09f83b8840be3869a1db8b8b49f2cb1fd0f8a04b9a0c09f56bdb54d272f8b788,-0.08944724,0.03676663,-0.29677618,0.22377469,0.1630383,0.09943986,-0.2611359,-0.17523906,-0.09560245,0.150435,0.013054976,0.28264344,-0.07643592,-0.17787656,-0.052382052,-0.1667027,-0.086955786,0.12858905,-0.23755422,-0.0428031,-0.19409932,0.10387806,-0.0744358,-0.07231744,-0.028223945,-0.17027003,-0.13532245,-0.2743358,0.029160215,-0.050674688,-0.08313107,0.12281439,-0.11904753,-0.1106778,0.14616774,0.014377447,0.036915284,-0.23955788,-0.0069578364,0.09621787,-0.026024701,-0.10409232,0.17018071,0.09768969,-0.2064975,-0.18091284,0.0049658446,-0.02564856,0.09700925,-0.07016879,-0.056852616,-0.04460325,-0.16935362,-0.15998614,0.07870976,0.18002523,-0.01198387,0.10536348,0.07839703,0.122938424,-0.07413458,0.25094706,0.112446964,0.10414253,0.012543362,-0.13407025,0.021364626,-0.06587763,0.03529656,-0.18123794,-0.056322567,0.017593442,-0.2155109,-0.16565874,-0.1410524,-0.00259489,0.008559679,-0.101198405,0.14365132,-0.11017262,0.23421687,0.13945307,-0.20534492,-0.13023022,0.2318165,-0.010043128,0.2021406,-0.032394916,0.055127796,0.09163061,-0.13662721,0.2857984,-0.23358631,-0.17043944,-0.13774513,0.17862834,0.039469104,-0.06842527,-0.048113625,0.057607632,-0.06730531,-0.02135282,-0.15581332,0.20229205,0.0135689005,0.06977831,-0.06899782,0.17706278,0.1381784,-0.0039813807,0.0058042184,-0.064640746,-0.04453944,-0.060947653,0.16384028,-0.14855804,-0.059922196,-0.0014011231,0.06963974,0.055572957,0.08044024,0.17516977,-0.012949881,0.18070816,-0.15019545,0.12303159,-0.17862524,-0.048187062
09fd6ee7e78f977f4cb86d35f4550a8c,-0.036070105,-0.019768143,-0.1238715,0.099882476,0.06695909,0.016105777,-0.0679369,-0.030708477,-0.072445534,0.040698458,-0.026318973,0.14098257,-0.030343607,-0.042621374,-0.020455847,-0.027196104,-0.008234383,0.024189793,-0.07411962,-0.01426749,-0.069358595,0.014285877,0.009347203,-0.017478814,0.012463174,-0.033456527,0.04751582,-0.10774719,0.048102807,-0.03285752,0.010451708,0.015339832,-0.077002235,-0.0669847,-0.015046413,0.0139175365,-0.013626158,-0.01500997,-0.014831931,0.0082709445,-0.046940222,-0.002439367,0.056249112,-0.01099535,-0.0453463,-0.027494771,0.015230159,0.020673003,0.04046666,-0.066644385,-0.0052405577,-0.057069868,-0.14032483,-0.02292781,-0.02661883,0.047245372,0.030867694,0.05268637,0.018877022,-0.0066683884,-0.074345954,0.07940395,0.035912193,0.0028614823,0.03204319,0.06478408,0.06698281,0.0539645,0.037365407,-0.038183756,-0.016275514,-0.09252391,-0.09986673,-0.10830038,-0.07086768,0.036674865,-0.051243253,-0.093579344,0.063447125,-0.024987059,0.09106113,0.064429365,-0.09953314,-0.034292523,0.043188326,0.028416662,0.05712748,-0.026554128,0.038892195,-0.019127533,-0.014858021,0.070954494,-0.08990118,-0.14868347,-0.11820347,0.10466054,-0.0072836373,-0.052851237,-0.012834605,-0.042220116,-0.06230414,-0.009652089,0.001478638,0.045564894,-0.024913428,0.026915565,-0.018017177,0.075423814,0.06859237,0.046355154,0.037808016,-0.0570569,-0.063741215,-0.06504963,0.004438416,-0.07163243,-0.021715248,-0.01319293,0.07208805,0.048788544,0.089786895,0.0407704,-0.02288019,0.08762543,-0.07587287,0.028450219,-0.07531361,0.020963458
0a02f9f65079fc410334906886afb545,-0.03474328,0.004309655,-0.112847984,0.08468242,0.06725491,0.018398518,-0.080436125,-0.05443814,-0.03613587,0.050425097,-0.030188298,0.11815206,-0.02722611,-0.069315046,-0.010882613,-0.04531332,-0.0356943,0.018287651,-0.07525442,-0.017129308,-0.0691702,0.02735877,-0.009443427,-0.017489297,-0.018964564,-0.049916532,0.0039306334,-0.10720496,0.03442331,-0.017775938,-0.032597497,0.014323209,-0.048615318,-0.050793022,0.027046861,-0.00027854956,0.015646927,-0.056713857,-0.011996851,0.015310276,-0.0088978065,-0.027925894,0.053522017,0.0346515,-0.07189566,-0.03865423,0.011624293,0.018502316,0.038216114,-0.035441067,-0.010966745,-0.043184247,-0.11265634,-0.016078614,0.013719298,0.066769615,0.0073581114,0.043501776,0.04023804,0.0071155387,-0.0700971,0.07390552,0.03921509,0.022496734,0.017476432,0.014290301,0.017730178,-0.0009113295,0.030688182,-0.050149605,-0.010086364,-0.042986028,-0.08712757,-0.08291846,-0.03856405,0.006461889,-0.021688282,-0.059510674,0.06958126,-0.03993805,0.093934156,0.05847823,-0.08240281,-0.037699968,0.061905738,0.021002626,0.062477887,-0.007340866,0.03714548,0.020555306,-0.016289908,0.07311013,-0.072328016,-0.10809924,-0.07304701,0.07643845,-0.012331006,-0.052016627,-0.027849369,-0.022393622,-0.042744815,0.0029779437,-0.007819986,0.05667305,0.0062734513,0.038739406,-0.013644873,0.072774865,0.047889464,0.003228454,0.030495139,-0.048669145,-0.033464592,-0.040546883,0.031189987,-0.050751828,-0.013258739,-0.014464758,0.051182758,0.028061107,0.033098027,0.06024108,0.0021574723,0.068536796,-0.045534447,0.04027008,-0.058956444,-0.0011892143
0a1310fd4e68a3de2e57ce3f4888c81a,-0.39642486,-0.49212205,-0.37816584,0.519988,0.07962986,-0.47782496,-0.16523673,-0.30473077,-0.661607,0.20162731,-0.10498546,0.16624482,-0.4024758,0.24931982,-0.24390174,-0.3647524,-0.01773439,0.2971302,-0.21837753,-0.34018016,-0.2518364,0.15671135,-0.22496042,0.6651335,0.16633123,-0.27251205,-0.15078469,-0.23734044,0.31868353,-0.45150256,0.31949887,0.19447462,-0.28357664,-0.18404703,-0.1550633,0.15351132,0.047391452,-0.039824523,-0.017704714,-0.0048097875,-0.06859753,-0.17571509,0.18338154,-0.45991415,0.31895947,-0.21598412,-0.061332252,0.04639437,0.13224609,-0.393541,-0.030487206,-0.1255363,-0.6513267,-0.13545813,-0.012768538,0.38509983,0.016091522,0.12972957,-0.3214155,0.043625772,-0.10811833,0.37201566,0.28323644,-0.1543232,0.18802549,-0.047104925,0.31494913,0.22800447,-0.104531854,-0.12051613,-0.5908194,-0.19034661,-0.35124314,-0.30396822,-0.45761627,0.07401448,-0.46242118,-0.4818377,0.22831255,0.27214223,0.38711467,0.24897842,-0.3521202,0.17121327,0.43201536,-0.08257895,0.30403358,-0.25689596,0.2847446,-0.026461355,-0.2965739,0.24987458,-0.35298046,-0.70521235,-0.33980638,0.3700297,0.1142084,-0.1616176,0.35285294,-0.09172234,-0.09554782,0.02115488,-0.21035361,0.050329234,-0.4930295,-0.0030497042,-0.05619677,0.22270283,0.25061953,0.21017884,0.051288493,-0.20136103,-0.06789892,-0.20978932,0.23707001,-0.18954591,-0.22451247,-0.22129092,0.034322,0.4942299,0.5772168,0.21122658,-0.06744396,0.25785786,-0.41409647,0.0066755908,-0.38120422,0.17657113
0a1830c9206118843062d06d668c89622b88bea97fdb189e80b060d50905e7e3,-0.031125747,-0.013646365,-0.09931311,0.07357571,0.03807381,0.030943302,-0.055827994,-0.017707346,-0.058420192,0.03668125,-0.035169043,0.10965222,-0.03049029,-0.0361304,-0.012735017,-0.018518751,-0.008105607,0.0023460325,-0.065921076,0.0022251902,-0.06117129,0.007459081,0.00809579,-0.01460568,0.022349386,-0.021717055,0.06355412,-0.092942245,0.04273458,-0.04123742,0.008145626,0.0104943765,-0.071430385,-0.0471626,-0.027490634,0.028932912,-0.0044713505,-0.026784448,-0.0071535595,-0.007958619,-0.043866243,0.010277935,0.043842107,0.005794286,-0.030732837,-0.026661884,0.01613915,0.011006654,0.046668466,-0.05958136,0.0023459077,-0.06521476,-0.11527405,-0.008888666,-0.014393025,0.034842446,0.025129126,0.025916845,0.032490164,-0.009503475,-0.06566698,0.06629213,0.031287327,-0.013069323,0.01865173,0.06181093,0.05667983,0.030886043,0.03730509,-0.013569176,-0.019776797,-0.106318384,-0.07432975,-0.08223358,-0.05210978,0.0416856,-0.040115427,-0.08391422,0.05445746,-0.0129899075,0.07694607,0.07179414,-0.08022698,-0.013658138,0.03939481,0.025119148,0.058141723,-0.028267141,0.031737037,-0.011232119,0.014629491,0.05416074,-0.07307972,-0.14723155,-0.09644095,0.06812338,-0.009390702,-0.05638705,-0.014070893,-0.042711645,-0.03763723,-0.011566825,0.03020136,0.03185605,-0.034006994,0.017289976,-0.01819453,0.04687147,0.06380725,0.030500146,0.02853685,-0.02405129,-0.04511435,-0.06495422,-0.00056505244,-0.0562851,-0.008572069,-0.017312778,0.05420471,0.032544628,0.087070644,0.022648416,-0.020482237,0.059110723,-0.059626147,0.044459876,-0.065950006,0.021806989
0a8befffe85d17791a83d3a46dbcd271,-0.0095326705,0.0034197157,-0.07533351,0.043675166,0.052565146,0.02035332,-0.057242822,-0.028653154,-0.0178809,0.034000363,-0.009328089,0.08369818,-0.016180253,-0.05682143,-0.008384405,-0.0155804055,-0.022494592,0.001463952,-0.046333276,-0.002356077,-0.039044928,0.017050926,-0.010120953,-0.01991895,-0.02121347,-0.042041138,0.0090506775,-0.07061081,0.028828567,0.005052196,-0.029432606,-0.0014079681,-0.035251383,-0.0333435,0.016083958,-0.005826017,0.0011404448,-0.028861562,-0.01738178,0.003918978,-0.008228242,-0.012311556,0.04745473,0.016979422,-0.049879983,-0.018291878,0.0141858505,0.010367539,0.03165086,-0.023429215,0.0081331255,-0.027474882,-0.067641184,-0.0034177955,0.00015058587,0.0448809,0.012784799,0.03739603,0.03055087,-0.0099771125,-0.046433717,0.04053537,0.025702348,0.012060695,0.005726093,0.011509013,0.009856851,9.443349e-05,0.015244549,-0.0304342,0.00049824116,-0.020741729,-0.047263227,-0.05492611,-0.023661394,-0.0016635959,0.0012529478,-0.048811004,0.053821974,-0.04113563,0.059632324,0.037411075,-0.050219078,-0.032953765,0.034858525,0.018909799,0.031570002,-0.004667739,0.018662795,0.025013912,-0.011874468,0.04985968,-0.04611233,-0.073355965,-0.048028246,0.057041094,-0.019470332,-0.03683333,-0.009699231,-0.01692703,-0.046700288,-0.00344052,-0.0031420605,0.039940834,0.006507921,0.025473943,-0.0048725205,0.04827178,0.03547294,-0.006774257,0.010439922,-0.0339543,-0.031176385,-0.025768064,0.007621109,-0.04396651,-0.010000274,-0.016665004,0.04400119,0.007850765,0.016786385,0.045212578,-0.002670009,0.05770261,-0.038821436,0.024093922,-0.037394997,-0.006936793
0b6f94ccbe1d282fa632d43907932ec4,-0.024157448,-0.040600326,-0.012533351,0.042277098,0.041396946,-0.06589432,-0.05379351,-0.04277721,-0.029327631,0.020421654,-0.014391776,0.055650886,-0.013629234,-0.026981862,-0.008564909,-0.03270327,-0.020204213,0.017177815,-0.05534346,-0.024371553,-0.01801478,0.0523672,-0.01823358,0.030769946,-0.03975294,-0.07948997,-0.029871387,-0.0014511461,0.012938728,-0.0002841432,0.016002666,0.011868446,0.023754133,-0.020321934,0.0026154998,-0.024841728,0.010612547,-0.009441365,-0.04197963,0.01413799,0.017179191,-0.037848573,0.048593786,-0.035028405,-0.011945803,0.03634644,-0.007919049,0.03529569,0.007616575,-0.0025642703,-0.032293137,-0.010523981,-0.030834708,0.022746488,-0.045930244,0.08183909,-0.023071598,0.08365273,-0.030708196,0.0056560263,-0.013462664,0.033826727,-0.00036229077,0.015164061,0.023891786,7.303573e-05,0.0047267266,0.026269583,-0.004222678,-0.047196083,-0.023385355,0.03790851,-0.07384372,-0.067174,-0.026693488,-0.010461449,-0.0007317777,-0.039013166,0.066671036,-0.03291624,0.07307012,-0.0032573056,-0.06518762,-0.015877752,-0.0034667845,-0.007934513,0.00606887,0.0010890355,0.005299792,0.004238066,-0.00889352,0.027193587,-0.022045083,-0.044952232,-0.07384844,0.04471035,0.00056139886,-0.005234266,0.022167368,-0.020760488,-0.060228575,-0.017324965,-0.050984085,0.020886255,-0.011152435,0.019449614,0.020251844,0.07342774,0.0006092481,-0.027184691,0.025967821,-0.08896787,-0.038899165,-0.0040004263,0.00775936,-0.016475707,-0.055607926,-0.028383816,0.06835795,0.037915107,-0.010901567,0.07346131,-0.0027206861,0.070399724,-0.045215942,-0.016812827,-0.004231077,-0.017951472
0bb2f4d84a08b94f4539a4615a6fadc2,-0.04239781,-0.009257947,-0.14588155,0.114106864,0.091507114,0.020449854,-0.095555946,-0.05272146,-0.06370362,0.05584892,-0.04792575,0.16525109,-0.039712664,-0.063235514,-0.008307756,-0.043135107,-0.031675134,0.014102721,-0.10203433,-0.008368615,-0.09693201,0.018258087,0.0111974655,-0.0062906067,-0.008507604,-0.06556247,0.04714984,-0.11924878,0.05048671,-0.045767035,-0.007751581,0.011091805,-0.06060792,-0.06784211,-0.008722374,0.006772353,0.0024071548,-0.050598703,-0.014186853,-0.011280363,-0.033643845,-0.0059125246,0.07025332,0.015422439,-0.06967264,-0.029286474,0.017845882,0.03323441,0.046349905,-0.061750937,0.0032803612,-0.07500322,-0.15138565,-0.0110986205,-0.007050602,0.074919105,0.023387602,0.059090633,0.016181298,-7.905188e-05,-0.088905446,0.0974026,0.043609697,-0.008947839,0.030126978,0.05307262,0.056053344,0.033578005,0.042648256,-0.043471087,-0.023572678,-0.09562881,-0.11405994,-0.12262153,-0.07522949,0.020534955,-0.044977736,-0.107887626,0.09623546,-0.048284024,0.11505199,0.07628299,-0.104564,-0.039491907,0.058678914,0.01956268,0.072003625,-0.024737451,0.053714465,0.005313325,-0.011662536,0.08120482,-0.0907078,-0.17866963,-0.12448461,0.09842311,-0.008915263,-0.070801,-0.01611687,-0.05184901,-0.063478835,-0.008508736,0.005066215,0.05627718,-0.021114083,0.050938923,-0.026458375,0.09604419,0.06753565,0.01161128,0.04738796,-0.0687192,-0.068225466,-0.07480296,0.0151062645,-0.08294548,-0.025946086,-0.037833504,0.07816298,0.040579297,0.0721894,0.07426959,-0.009908474,0.094487965,-0.083430864,0.037884172,-0.07440117,0.015875837
0bd8963ea2899b2d78d92e70d5bac4f2,0.0022534402,0.016601121,-0.1254097,0.07649594,0.046410207,0.11025063,-0.046793003,0.009170867,-0.049888324,0.025350414,-0.037544545,0.15413482,0.008054929,-0.055009622,-0.045628574,0.043857504,0.007946146,0.01832621,-0.035270166,0.013556626,-0.09588057,-0.0049054585,0.016012998,-0.08222755,0.015443747,-0.017358655,0.138991,-0.10224964,0.031708226,-0.010571369,0.012517889,0.009719205,-0.14219415,-0.08032315,-0.05672332,0.00050595915,-0.048496127,-0.039179567,0.021269266,0.009242764,-0.0592869,0.014552215,0.04878722,0.022145193,-0.05258281,-0.0063152392,0.011689566,0.020360911,0.060362983,-0.08384844,0.012964351,-0.04158832,-0.15785019,-0.017583393,-0.005348642,-0.025211895,0.08951819,0.036172103,0.05596253,-0.012111206,-0.05043849,0.10477888,0.050497632,-0.029634466,0.0062258993,0.083949134,0.047134202,0.05417655,0.068841025,0.0458015,-0.010864708,-0.14979436,-0.086436,-0.123041436,-0.091653004,0.04966715,-0.084931076,-0.078429066,0.041450433,-0.035558503,0.062011883,0.06676485,-0.12172382,-0.06600321,0.035150543,0.08809169,0.029841704,-0.02908963,0.036412876,-0.04346013,0.00086923677,0.090201825,-0.081959955,-0.12343137,-0.14656304,0.12639216,-0.03688591,-0.056208134,-0.030538756,-0.077381566,-0.0893559,0.021757737,0.032365162,0.03786716,0.00856041,0.056432847,-0.008634959,0.07399968,0.06537162,0.062584385,0.022340877,-0.020168718,-0.07604593,-0.055379372,-0.009426137,-0.090852715,-0.017936504,-0.0147452885,0.09894884,0.010826934,0.12589984,-0.015284344,-0.0047813626,0.1180603,-0.090019055,0.044776823,-0.13073269,0.019861639
0bf493ef499bf4331f7f9ebd444553cd,-0.05643473,0.010094319,-0.14473833,0.09977943,0.08537837,0.062775955,-0.074472904,-0.07882579,-0.06480859,0.058246344,0.00015060948,0.14948827,-0.023707023,-0.07133992,0.0019262847,-0.048373852,-0.012141066,0.018913282,-0.08837534,-0.009593472,-0.06517984,-0.010670686,-0.0033917618,-0.027441893,0.028296772,-0.016300913,0.008516673,-0.17752464,0.028902862,-0.031681776,-0.020703806,0.015124724,-0.0756274,-0.044672783,0.02784897,0.037368372,0.0012638273,-0.045462035,0.00084391714,0.0152631225,-0.046321098,-0.0030868072,0.047311693,0.020591058,-0.080004744,-0.082254596,0.030305497,-0.0021313112,0.056015145,-0.051354844,-0.0016084776,-0.0512237,-0.10969662,-0.07747836,0.026458047,0.04871471,0.0097072115,0.016941937,0.05262305,0.00085360475,-0.07431506,0.06965062,0.047183916,0.024194501,-0.0030401237,0.035233118,0.06547073,0.034426503,0.018567191,-0.086495444,-0.020525472,-0.075762205,-0.06965466,-0.09801797,-0.052302085,0.017714208,-0.025717355,-0.06571493,0.06170827,-0.0429589,0.07533116,0.06371983,-0.05169432,-0.027931774,0.077040434,0.01479826,0.052746408,-0.009836445,0.050534528,0.014944778,-0.022517703,0.07782465,-0.09442178,-0.14006642,-0.06445625,0.07233467,0.005136276,-0.05512024,-0.034220163,0.0028453595,-0.022137204,-0.010963511,0.0015815918,0.05255567,-0.0226269,0.0029967555,-0.05646954,0.056903794,0.07421106,0.05159098,0.03594645,-0.03971875,-0.03575903,-0.06266271,0.015747964,-0.06312008,-0.020245954,-0.002077552,0.046328537,0.04738387,0.092398345,0.059072383,-0.011967006,0.050320882,-0.056831412,0.06478745,-0.05240655,0.03806727
0c3583b5cd35e822cc0d9f2fca77c3ee7fa7208e7028d3f38cc623f51e165218,-0.0012702536,-0.33299878,-0.23919044,0.29502168,0.2823767,-0.14029913,-0.5605239,0.023182953,-0.3961332,-0.021042177,0.08432829,0.3208939,-0.004578045,-0.13735028,-0.05453746,-0.2485242,0.08598207,0.25421205,-0.47507793,-0.0694143,-0.091859095,0.05139461,-0.20042756,0.09105944,0.044710845,-0.44512326,-0.27282232,-0.1546757,0.34686658,-0.20007156,0.4141953,0.13129584,-0.14546818,-0.304772,-0.2755155,-0.14405496,-0.19681199,-0.20031002,-0.4643995,-0.09075671,-0.08693979,-0.29269055,0.2967814,-0.61320037,0.21990703,0.3927433,0.28424162,0.25924265,0.16092226,-0.2463161,-0.047544282,-0.023520684,-0.16961437,0.14340603,-0.4704284,0.4579367,-0.11926237,0.5443721,-0.4744467,0.119382925,0.03604223,0.23710158,0.10575152,-0.35155722,0.25660518,0.19377723,0.24590816,0.22958925,0.02310318,-0.23404534,-0.1165052,-0.05890476,-0.4476788,-0.7366616,-0.1596135,0.09979133,-0.123406164,-0.4817478,0.12780666,-0.016759956,0.4455925,0.10456428,-0.43006995,0.08375287,-0.056435082,0.28956756,-0.108650565,-0.1890656,0.22201632,-0.017247368,-0.14824392,-0.012587097,-0.3466762,-0.39642513,-0.45845267,0.43965042,0.014653395,-0.07910784,0.52745754,-0.19025274,-0.62910575,-0.25020173,-0.2605456,-0.035200145,-0.33227557,0.041338556,0.1666169,0.3988305,0.21470867,0.046748903,0.16854154,-0.65569836,-0.37473214,-0.2151397,0.2421929,-0.4345063,-0.734599,-0.30234683,0.57898486,0.38433143,0.24888325,0.37662023,-0.48753166,0.58085144,-0.52294225,-0.20175208,-0.09539363,0.04492749
